-4.85395528e-02
-6.84747323e-02
-9.10931528e-02
-1.17859416e-01
-1.85552254e-01
1.21640593e-01
7.08413050e-02
-3.94136608e-02
-1.50539801e-01
-8.89920890e-02
1.07650541e-01
1.43516762e-02
2.99284197e-02
-2.24275719e-02
3.94792072e-02
-1.07778946e-03
-1.76160306e-01
-1.56265765e-01
-1.33967951e-01
2.16863248e-02
-2.60851849e-02
1.39229500e-03
-2.35000104e-02
-6.78903908e-02
-5.95127791e-02
6.46068826e-02
8.16694945e-02
2.97464989e-02
-3.23395841e-02
-1.12195343e-01
1.27773628e-01
1.08310372e-01
1.10588148e-01
-1.26583520e-02
2.70435382e-02
1.57044120e-02
2.05342099e-02
3.48450765e-02
1.29545629e-02
-9.78564695e-02
5.67224324e-02
-3.82582583e-02
-8.21504518e-02
-8.75800401e-02
4.42546734e-04
-7.82159530e-03
1.26217827e-01
9.94985476e-02
-8.17851257e-03
-5.63392900e-02
1.48591474e-02
8.07239767e-03
-1.13136306e-01
-1.86916053e-01
-1.97855502e-01
6.87977895e-02
3.38652767e-02
-1.27282664e-01
-1.62903711e-01
-5.20682298e-02
-9.26071778e-03
-2.71545909e-02
-2.96240151e-02
-4.28229384e-02
6.07643612e-02
1.42314479e-01
1.06505968e-03
-5.18697826e-03
5.72888367e-02
1.47797633e-03
1.06359117e-01
1.64011002e-01
1.82347391e-02
-2.45700795e-02
-2.43880637e-02
-8.61512423e-02
-4.12434600e-02
4.17901576e-02
2.23298874e-02
4.34551723e-02
-1.24604560e-01
5.12218438e-02
3.15180682e-02
8.27838406e-02
-9.60594267e-02
4.57210932e-04
-4.99058887e-02
-6.00953810e-02
-7.90148228e-02
-1.60453290e-01
-9.74925235e-02
-1.78879559e-01
-6.85348436e-02
-1.65240005e-01
-6.55398518e-03
-1.18640296e-01
3.50038409e-02
-5.55645265e-02
-4.46006246e-02
-1.34901896e-01
4.09511030e-02
9.65583026e-02
9.32064131e-02
6.53989539e-02
-1.15499243e-01
1.80911690e-01
2.35325113e-01
2.20366627e-01
1.84579477e-01
2.46686824e-02
1.86559960e-01
1.99830294e-01
1.63351968e-01
8.94447193e-02
-2.07603760e-02
3.44566405e-02
-1.80055853e-02
2.88453512e-02
-8.88081044e-02
5.94523139e-02
3.22124027e-02
-3.53490859e-02
1.17067143e-03
-9.95532647e-02
-2.80967001e-02
6.96199089e-02
-3.46141383e-02
5.23488075e-02
-8.34645033e-02
-2.06705611e-02
2.71053351e-02
1.56527638e-01
8.49006921e-02
7.52516612e-02
-2.06128620e-02
-7.52524659e-02
-7.48233721e-02
-3.84668745e-02
-1.47413254e-01
-1.08753636e-01
5.06586803e-04
-7.52977282e-02
-1.00616761e-01
-2.26630531e-02
-1.95579659e-02
-2.92992704e-02
-2.29820497e-02
-3.15766595e-02
-1.60206303e-01
-1.15022860e-01
-4.96067107e-02
-1.08191468e-01
-2.34461408e-02
-4.73259501e-02
-1.74485031e-04
-1.10817060e-01
-3.23330378e-03
-1.29065886e-01
-4.63654734e-02
-1.19836725e-01
-5.42821065e-02
-9.44323540e-02
-3.34027886e-01
-1.77515209e-01
4.20037482e-04
-1.31489500e-01
-3.35108876e-01
-2.55422622e-01
-9.05802920e-02
-1.07694957e-02
-2.24965122e-02
-1.73177838e-01
-2.62818307e-01
-6.62081689e-02
6.86104745e-02
-3.97691429e-02
8.48908946e-02
8.88758674e-02
7.71306157e-02
-2.79289447e-02
7.67312897e-03
6.76565319e-02
1.06954105e-01
8.93584415e-02
7.43955970e-02
-4.16790098e-02
-1.10267110e-01
-4.37198281e-02
3.34669277e-02
1.73930079e-02
3.74631472e-02
1.70853719e-01
1.25253201e-01
-9.63176135e-04
-1.47648573e-01
6.45272434e-02
1.36268482e-01
1.16195112e-01
-4.57244888e-02
-1.05478086e-01
6.92929402e-02
-3.26657631e-02
5.09138480e-02
2.40925059e-01
9.42671597e-02
3.24136904e-03
2.96774525e-02
-6.37957677e-02
5.19809686e-02
-8.32617208e-02
-6.46779314e-02
-2.08094586e-02
1.23480767e-01
1.55672082e-03
-5.66772521e-02
-2.10903231e-02
-9.87489745e-02
-2.19107598e-01
-1.58103496e-01
-1.11630931e-01
-1.20696694e-01
-1.35338604e-01
-2.03563869e-01
-1.21152490e-01
-5.27234264e-02
3.82629372e-02
-1.20046199e-03
3.62902582e-02
4.99289036e-02
2.90320721e-02
-2.52834167e-02
2.11833306e-02
-7.63324462e-03
5.35692573e-02
1.36702150e-01
-8.88599381e-02
-3.81631963e-02
2.81378645e-02
1.13636680e-01
-4.20104861e-02
-1.56430956e-02
-4.65540355e-03
-7.49957329e-03
-1.84148297e-01
-2.18400791e-01
2.12066192e-02
2.35400740e-02
-1.60818532e-01
-1.20095655e-01
4.68782149e-03
-8.06259178e-03
3.62225138e-02
1.08122170e-01
1.95996374e-01
-7.97433853e-02
-8.79623964e-02
1.03362918e-01
1.15192011e-01
-2.07236066e-01
-1.27458379e-01
-1.26955481e-02
4.73103626e-03
-1.55050293e-01
-1.75364137e-01
-1.46683576e-02
5.75104766e-02
-1.04343355e-01
-2.00870886e-01
7.14774206e-02
1.06920592e-01
6.84045106e-02
-8.64875838e-02
6.46095201e-02
1.28094032e-01
5.05492650e-02
4.93037365e-02
-1.04821362e-01
6.00680150e-03
-5.55124544e-02
2.51517445e-01
-1.30833864e-01
-9.72993672e-02
8.76238272e-02
1.99309692e-01
1.87726155e-01
-3.81919354e-01
1.20182596e-01
1.73971653e-01
1.03430599e-01
-1.45141378e-01
-2.66645160e-02
1.37558758e-01
-9.07729194e-02
-2.42526814e-01
-7.34781176e-02
8.57119560e-02
1.30616874e-01
-4.74971496e-02
6.53916374e-02
1.26952946e-01
2.73343138e-02
2.38230024e-02
-5.21064959e-02
-6.20970386e-05
1.42443195e-01
-1.35103285e-01
-1.19544037e-01
1.63590759e-02
3.45867902e-01
2.59084225e-01
1.72059126e-02
3.27875972e-01
4.69885677e-01
1.47714451e-01
-3.50005507e-01
1.69576854e-01
2.01797366e-01
-6.45519868e-02
-6.95878685e-01
-2.87973255e-01
-5.90392575e-02
-2.16731682e-01
-2.32444599e-01
-1.84155524e-01
-4.42377701e-02
2.76362710e-02
-3.10125314e-02
1.47350002e-02
-8.00173543e-03
1.05297349e-01
-4.42877375e-02
6.37292042e-02
1.48581460e-01
1.71995237e-01
9.46066808e-03
-5.18346429e-02
9.86555070e-02
6.49404526e-02
-1.36777699e-01
-3.90728354e-01
8.76261014e-03
-6.89679012e-02
-1.59443527e-01
-3.68593991e-01
-1.91245541e-01
-6.40001744e-02
-4.35069278e-02
-8.76427591e-02
-7.01331422e-02
-2.02127118e-02
-2.03513414e-01
-1.62302017e-01
-4.34074402e-02
6.18889146e-02
-1.08427610e-02
-3.11783016e-01
9.32621658e-02
3.15516651e-01
2.52371609e-01
-3.12858433e-01
8.00747797e-02
3.28472763e-01
2.47404218e-01
-3.63507777e-01
-3.91923964e-01
1.31506696e-01
1.25022396e-01
-3.95467043e-01
-1.99566633e-01
-4.70754988e-02
-1.20360695e-01
-2.96263129e-01
-1.12224936e-01
1.11422740e-01
-4.51565012e-02
-2.16345750e-02
-1.16574340e-01
-3.58310752e-02
1.23427408e-02
5.54800779e-03
-3.64185721e-02
3.12959729e-03
1.53665096e-01
5.82795925e-02
-1.35489449e-01
1.85937718e-01
1.12392202e-01
-1.51617557e-01
-4.15505916e-01
-8.41012299e-02
-1.88913234e-02
-3.11948776e-01
-1.08026713e-01
3.42545882e-02
-6.16032891e-02
-1.52698860e-01
-3.01093850e-02
2.34034061e-01
9.00849253e-02
-4.28113043e-02
-5.54837920e-02
-1.06426910e-03
-1.81825936e-01
-2.01427609e-01
-9.43189561e-02
-4.74659316e-02
1.67588592e-02
1.07653633e-01
1.89423952e-02
-1.14321247e-01
-1.39089068e-02
1.09611697e-01
8.72433707e-02
1.29503667e-01
-1.23500243e-01
-1.41760811e-01
-4.64578532e-02
9.17353854e-02
1.25639930e-01
5.04743084e-02
-8.94260630e-02
-3.56924593e-01
-1.31411269e-01
8.56831670e-02
3.08292937e-02
3.09239849e-02
2.54059974e-02
9.99046117e-02
-8.65971483e-03
-1.49135619e-01
1.71983559e-02
-6.30522706e-03
-6.92642701e-04
5.71930520e-02
4.67818454e-02
-1.20601632e-01
7.36969858e-02
1.64421245e-01
1.37663767e-01
7.24629462e-02
-1.18059300e-01
-1.43760517e-01
-4.76147793e-02
2.11187333e-01
1.58948258e-01
2.06847284e-02
-2.36346707e-01
-3.67940843e-01
2.88990103e-02
7.82441273e-02
3.20385210e-02
3.24641019e-02
-6.03986271e-02
-1.54758126e-01
-7.25973323e-02
8.08588639e-02
1.44917265e-01
1.53118283e-01
3.24527435e-02
-2.03884467e-01
-1.82188660e-01
4.19160463e-02
1.89525202e-01
1.52267307e-01
-1.23185106e-01
-2.19217196e-01
-1.72458053e-01
4.41232324e-02
2.11749271e-01
6.29356578e-02
1.29816487e-01
-2.16830581e-01
-2.40693241e-01
-8.10613707e-02
2.61869337e-02
-7.01287091e-02
3.59292813e-02
-7.62711186e-03
1.64403915e-02
1.31723449e-01
3.55986729e-02
-2.03799102e-02
-1.08343720e-01
4.84506004e-02
1.65738925e-01
8.17762502e-03
-2.45763659e-02
-4.63721454e-02
6.68753386e-02
1.05082810e-01
2.61555915e-03
-1.06653377e-01
-2.31980145e-01
7.75143281e-02
1.71574503e-01
-2.85088494e-02
6.75410703e-02
-1.65598065e-01
2.09470205e-02
1.65537179e-01
3.11238449e-02
5.91328628e-02
5.13131246e-02
8.43546987e-02
6.18422329e-02
2.69196890e-02
1.27575202e-02
-1.50192538e-02
5.52063212e-02
1.20826729e-01
1.35871656e-02
1.20920368e-01
-1.01101650e-02
5.79021536e-02
1.12893350e-01
-7.27723390e-02
-2.77181882e-02
1.28071249e-01
-2.41501210e-03
-1.24417216e-01
-1.24305435e-01
-1.82334885e-01
2.16542501e-02
1.34546369e-01
-2.95674074e-02
-5.31647801e-02
3.94898141e-03
-1.90359522e-02
1.29006818e-01
1.02506429e-01
1.25141349e-02
-1.05789348e-01
-8.71188045e-02
-2.32274998e-02
-2.48862002e-02
-8.97037983e-02
1.87797975e-02
3.86041403e-02
1.73346281e-01
9.64513570e-02
1.27596185e-01
5.18626571e-02
-3.57985049e-02
6.83022197e-03
-2.29986217e-02
-1.20308548e-02
-4.19461913e-02
-1.19082607e-01
-3.43427770e-02
-4.09302041e-02
-5.01529872e-02
3.93561870e-02
-7.50428736e-02
-6.74596205e-02
4.79498692e-02
1.71206631e-02
-5.85908331e-02
-6.93289936e-02
-7.20554143e-02
-1.70470208e-01
-4.28728200e-02
-1.54955730e-01
-1.99916050e-01
-8.74481797e-02
-3.13490629e-01
2.28562262e-02
-1.77505076e-01
-1.54222891e-01
-9.79203358e-02
-2.84979463e-01
4.97087054e-02
-1.60415784e-01
5.93304373e-02
1.56222835e-01
-1.39850080e-01
-1.50054336e-01
-1.73336685e-01
-8.67508948e-02
6.08132668e-02
9.26780477e-02
-4.93679121e-02
-5.06527498e-02
5.01176305e-02
9.90196615e-02
-4.92264107e-02
2.68954765e-02
-2.78432578e-01
-2.86989897e-01
2.24878863e-02
6.38366044e-02
3.82675499e-01
-7.68065974e-02
-3.52116495e-01
-1.66447639e-01
6.99816793e-02
3.26347053e-01
1.57616496e-01
5.93490638e-02
-1.13824636e-01
-6.42010123e-02
-7.73472711e-02
-4.56858836e-02
3.42060365e-02
8.28335062e-02
2.37196404e-02
7.52613097e-02
2.30425186e-02
-3.84557210e-02
8.13688561e-02
3.57293189e-02
-9.43957269e-03
4.42955866e-02
-5.74039333e-02
4.55118753e-02
1.12530306e-01
5.41831069e-02
-5.87146468e-02
-6.55109659e-02
-1.30134508e-01
-7.22469529e-03
1.68220587e-02
8.27133432e-02
4.11845744e-02
-7.97982365e-02
-1.42650753e-01
-1.40303135e-01
-1.70110852e-01
2.52058823e-02
2.90234406e-02
9.61244330e-02
9.63976011e-02
-7.42996037e-02
-6.73719272e-02
6.89994469e-02
1.41636148e-01
-1.86403897e-02
2.97626182e-02
-5.84741272e-02
-1.40113562e-01
1.05256915e-01
-3.79462517e-03
5.01684435e-02
2.44290493e-02
-1.25182778e-01
-1.91474948e-02
7.64675438e-02
2.49225739e-02
1.08505279e-01
6.85892850e-02
2.65568607e-02
-7.61331767e-02
-1.13982059e-01
-1.79735404e-02
-2.37750709e-02
1.77143738e-02
3.38122733e-02
3.20575126e-02
-1.05910294e-01
1.24320090e-02
7.75283277e-02
3.63983326e-02
3.37648019e-02
-1.41973794e-01
-9.93668884e-02
-5.21707386e-02
-2.25462690e-02
-1.16456961e-02
-1.05333798e-01
-2.20968187e-01
-1.86703578e-01
-3.42534110e-02
-2.01500282e-02
3.31133045e-02
3.25362161e-02
-3.46414298e-02
-1.55501559e-01
4.99866670e-03
9.36919376e-02
1.25952885e-01
3.71795483e-02
-2.04503853e-02
4.42068912e-02
9.28117111e-02
5.01628257e-02
3.57100032e-02
-2.97908559e-02
1.16244759e-02
8.80262479e-02
-1.37727380e-01
-1.24423929e-01
9.57340759e-04
1.70313701e-01
1.01240866e-01
-1.56116635e-01
-1.72621295e-01
7.49768168e-02
8.43103975e-02
5.21080382e-02
-5.75828180e-02
-5.38014360e-02
-1.98745176e-01
-1.62439719e-02
8.25146958e-02
1.55863404e-01
3.44040692e-02
2.02425569e-02
3.20724100e-02
1.05620116e-01
1.51063040e-01
1.07916005e-01
-8.32696706e-02
-5.17173558e-02
7.72763565e-02
7.09623098e-02
1.30052418e-01
6.27579284e-04
1.08193755e-01
-7.11405054e-02
3.46832462e-02
1.86300930e-02
7.27695599e-02
1.38508797e-01
2.02397332e-01
1.73149511e-01
-4.79514562e-02
7.15680644e-02
1.24709241e-01
7.44591281e-02
1.02513447e-01
1.75319426e-03
1.01405226e-01
9.54693407e-02
3.68384197e-02
3.80052079e-04
1.27490625e-01
-1.33913616e-02
-2.83973478e-03
-3.78532521e-02
-6.54059723e-02
-1.07218035e-01
4.95087244e-02
8.22592601e-02
5.83895110e-02
-9.07991901e-02
-4.79041971e-02
1.74934007e-02
1.59938587e-03
-3.93176004e-02
-1.10779526e-02
-4.44388855e-03
9.07775909e-02
1.00772688e-02
6.78186938e-02
-1.96807384e-01
-1.96352050e-01
8.22616890e-02
7.49376193e-02
-3.56686637e-02
-1.74968123e-01
-3.26069891e-01
-5.41871265e-02
6.58350214e-02
-2.21858278e-01
-1.96839646e-01
-3.88586938e-01
3.13371532e-02
-1.19010538e-01
-1.73278540e-01
-1.56255007e-01
-2.83883929e-01
-1.88349828e-01
-2.00290501e-01
-9.46726650e-02
-5.67594692e-02
-1.36925012e-01
1.50837883e-01
6.72343001e-02
-6.66979002e-03
1.20593188e-02
1.55321151e-01
-1.50425717e-01
-3.11674297e-01
-2.16984361e-01
3.87391299e-02
1.59987643e-01
-4.13550347e-01
-3.35737109e-01
-9.34963226e-02
1.24329189e-02
6.32767901e-02
-1.80791765e-01
-1.66752949e-01
-3.81232575e-02
1.68484837e-01
-2.03771554e-02
-3.10072929e-01
-5.04818968e-02
1.79332227e-01
2.21322671e-01
1.45164803e-01
-1.79741874e-01
-1.80623785e-01
-1.26443252e-01
-4.55451906e-02
-6.40279129e-02
-2.94316821e-02
5.41731492e-02
4.94755358e-02
2.35715713e-02
-9.68340039e-02
-5.22362590e-02
5.10365218e-02
8.33877325e-02
-3.61585207e-02
-2.88164169e-02
-4.39154766e-02
-1.93074830e-02
7.86049515e-02
-1.46541903e-02
7.44740590e-02
-7.56155103e-02
1.72920879e-02
9.19107422e-02
-2.71809660e-02
-1.69902090e-02
-8.23631659e-02
-5.21261878e-02
-1.41427338e-01
-4.53014635e-02
-2.48882733e-02
-3.47594246e-02
2.60950848e-02
8.38718191e-02
1.89391635e-02
-8.37685093e-02
1.00420140e-01
-9.26851109e-03
6.76458478e-02
7.22057968e-02
-4.73174043e-02
7.78948739e-02
-1.10851817e-01
-5.89236133e-02
9.40733850e-02
-1.64965801e-02
-2.16527954e-02
-1.34637952e-01
6.34836778e-02
1.26621619e-01
7.94539899e-02
-7.67012611e-02
3.29358205e-02
-3.02034356e-02
-8.66218843e-03
-1.25870869e-01
-3.87381949e-02
-2.73241941e-02
1.45011321e-01
-6.46118522e-02
-2.03807428e-01
-1.77930579e-01
-4.53200117e-02
9.92479399e-02
-2.48554125e-02
-1.34315908e-01
-1.47866886e-02
-2.12402511e-02
1.97691277e-01
1.97655857e-02
5.92481904e-02
4.80760634e-02
1.19408749e-01
2.27049198e-02
-5.80457896e-02
-8.09652265e-03
-4.17559184e-02
-2.61923164e-01
-1.75550923e-01
3.48988771e-02
5.92177399e-02
-2.95179654e-02
-2.01247320e-01
-1.36032015e-01
1.41257808e-01
1.68105707e-01
-1.23195790e-01
-3.25749874e-01
3.52585167e-02
1.48364425e-01
8.80436525e-02
-2.81538457e-01
-9.94509012e-02
2.43749514e-01
2.37369731e-01
4.50198799e-02
-1.64631709e-01
1.57562047e-01
2.88686514e-01
1.17013641e-01
3.92073439e-03
-3.40515636e-02
-1.51807055e-01
-4.14440781e-02
-6.65043145e-02
9.68083888e-02
1.56435698e-01
1.91174243e-02
-1.59668848e-01
-4.45101038e-02
1.58841014e-01
5.47105782e-02
-5.98202497e-02
-1.52874932e-01
-2.29665171e-02
6.07533231e-02
-1.54346466e-01
-1.65793374e-01
-1.89082548e-02
6.17543384e-02
-3.16685140e-02
-1.53413579e-01
-9.27222334e-03
4.60606301e-03
1.61727116e-01
-7.77410418e-02
-1.61472768e-01
-1.16402648e-01
1.74440863e-03
7.68725500e-02
1.03650302e-01
7.25794211e-03
4.73473035e-03
-4.67388183e-02
2.01453716e-02
4.63076420e-02
1.43018603e-01
6.60139024e-02
-3.69764282e-03
-1.71915311e-02
2.91316938e-02
-6.94878250e-02
-1.24482058e-01
-3.01487464e-02
6.91946670e-02
-8.80661085e-02
-2.83384579e-04
9.58280265e-02
8.31156597e-02
3.96079645e-02
-9.72125232e-02
3.88060473e-02
-3.65201719e-02
4.88048233e-02
5.34956669e-03
-3.14589739e-02
-3.41052562e-02
-1.02788709e-01
1.63687747e-02
1.51766226e-01
-1.21003486e-01
-2.43308067e-01
-1.00201026e-01
8.43763947e-02
3.78245227e-02
-2.97083348e-01
-1.05658993e-01
1.13508375e-02
3.10047686e-01
3.53153683e-02
-4.08444434e-01
1.07434310e-01
2.76021242e-01
2.91084111e-01
-1.60163000e-01
-1.87704355e-01
2.12852377e-02
-1.25287538e-02
-1.06743537e-02
-2.41359193e-02
1.61769450e-01
1.60321251e-01
-1.58481598e-02
-5.14684021e-02
3.50186788e-02
6.60508424e-02
8.77327025e-02
-1.98091462e-01
-4.28146213e-01
-3.72678727e-01
3.14991386e-03
-6.17137328e-02
-2.98103571e-01
-6.18508935e-01
-4.13426578e-01
1.59667745e-01
5.38836643e-02
-1.96788296e-01
-4.48196054e-01
-7.03312233e-02
1.65464327e-01
-1.07249647e-01
-5.66096604e-02
-1.28714919e-01
-8.94263014e-02
-1.72751904e-01
9.65167433e-02
-9.19059478e-03
-1.86365601e-02
-8.52936655e-02
2.58826129e-02
1.10833004e-01
8.19823667e-02
4.25333269e-02
1.20737121e-01
7.21021146e-02
-8.19459744e-03
7.75771216e-02
8.19597542e-02
-5.95324971e-02
-1.96066350e-01
-2.21285120e-01
-1.98097959e-01
-2.11579606e-01
-8.91790465e-02
-1.24309525e-01
-7.07221329e-02
-8.24224129e-02
-1.01841152e-01
-3.58917862e-02
-1.65785123e-02
2.15143561e-01
1.36886150e-01
7.25545064e-02
-5.49595580e-02
4.23357226e-02
7.41405739e-03
1.13836728e-01
1.79062951e-02
7.99491629e-02
8.50676522e-02
-1.74235061e-01
5.48106059e-02
1.35598660e-01
5.24888299e-02
-6.55163974e-02
-1.20621316e-01
-2.37707928e-01
-2.24565461e-01
-1.12812869e-01
-1.21396668e-01
-4.31597941e-02
-1.06342100e-01
-4.24828082e-02
2.55358825e-03
-9.56586078e-02
1.77548558e-01
1.20436974e-01
-6.88230917e-02
5.39109781e-02
-7.70071968e-02
1.04070902e-01
5.82720041e-02
4.80477437e-02
1.64962336e-02
-1.84656799e-01
1.09553412e-02
-1.50560625e-02
-1.17740825e-01
-6.64599836e-02
-2.16243848e-01
3.37093137e-02
-1.57620832e-01
-2.08961535e-02
-4.74429429e-02
-1.25420973e-01
-1.19225038e-02
1.03877275e-03
1.24031469e-01
1.00521885e-01
-5.06827123e-02
-4.91495291e-03
3.95824350e-02
8.89537409e-02
2.30161622e-02
1.02602661e-01
-5.79369292e-02
4.96110171e-02
4.20849435e-02
8.40154737e-02
1.34959176e-01
-1.99298277e-01
-1.01276442e-01
-1.82146966e-01
-2.60186404e-01
-1.03442304e-01
-7.80181736e-02
3.13680642e-03
-3.15967277e-02
-2.07767174e-01
-1.20186806e-01
-1.48258850e-01
-1.57474369e-01
-7.34431436e-03
-7.57287769e-03
-7.95498118e-02
1.53736621e-01
1.59536898e-01
4.06928919e-02
7.95309842e-02
2.35146731e-01
-1.60735976e-02
-6.82480484e-02
1.58997074e-01
2.91332006e-01
2.04065919e-01
-7.26246834e-02
9.91279334e-02
9.95466262e-02
1.39398098e-01
-7.24167675e-02
-2.82462150e-01
-2.53742725e-01
-1.67991713e-01
-1.34564219e-02
-8.31569955e-02
9.67585307e-04
-1.92071050e-02
-4.36901897e-02
-4.02332656e-02
-5.60982041e-02
-7.03455433e-02
1.10728890e-02
2.78359614e-02
6.27428666e-02
1.67840168e-01
-8.00861046e-02
-9.94036440e-03
7.34562203e-02
1.01302192e-01
1.33806944e-01
-1.21146098e-01
-1.86106175e-01
-6.79556206e-02
-1.54929444e-01
-1.38101459e-01
-3.25189382e-02
6.70838207e-02
6.38046674e-03
-6.79524615e-02
-5.92255667e-02
-1.11221999e-01
8.34700912e-02
1.00143790e-01
3.82894985e-02
1.58675611e-01
-1.14232317e-01
-2.90026423e-02
-3.70820868e-03
1.36589140e-01
1.19547382e-01
3.35868560e-02
-3.98106948e-02
-1.43873081e-01
-2.45260876e-02
-2.33907387e-01
-8.98699556e-03
-1.52211994e-01
-3.25633585e-01
-3.09671670e-01
-2.18250766e-01
1.37262987e-02
-1.68851793e-01
-1.34483948e-01
1.07063148e-02
-1.03966683e-01
8.07939321e-02
1.96057502e-02
-1.47235304e-01
-1.28271490e-01
1.40048727e-01
1.53384532e-03
-5.24750575e-02
2.66119856e-02
3.23874783e-03
5.16140610e-02
-1.35667399e-01
-1.14270404e-01
1.72901247e-03
5.14968522e-02
-2.23920166e-01
-1.30243212e-01
-1.66993350e-01
-1.13019347e-01
4.67132516e-02
5.79733364e-02
1.67180926e-01
8.24614689e-02
8.80648047e-02
1.03178479e-01
9.65279192e-02
2.51013637e-02
-1.14053406e-01
-1.22473091e-01
-6.55674934e-02
4.90230545e-02
6.56162053e-02
-7.98037276e-04
-1.17283002e-01
-1.39670178e-01
1.10273384e-01
7.26098120e-02
1.16916858e-01
-1.45107936e-02
-1.66478619e-01
-4.50826436e-02
-1.88389018e-01
1.51460171e-01
2.37284049e-01
-3.68668512e-02
-1.39086396e-01
-1.45751208e-01
1.54932346e-02
7.41137266e-02
1.25841632e-01
-1.33099273e-01
3.33571397e-02
2.74177101e-02
-2.68276483e-02
-1.10960267e-01
6.41560853e-02
1.15941174e-03
4.97046784e-02
3.29118706e-02
-6.52835965e-02
1.41384438e-01
-1.24482028e-01
1.16841197e-01
2.32564539e-01
2.93376800e-02
-1.17911763e-01
-1.93144307e-01
-3.73023376e-02
2.33835906e-01
1.66200623e-01
-6.65390268e-02
-1.01048894e-01
-6.15616925e-02
3.40050273e-02
7.89672658e-02
1.10720387e-02
1.14242867e-01
-1.15914214e-02
-1.31883681e-01
-9.48283300e-02
1.10094480e-01
-3.58310193e-02
2.53062367e-01
4.44852598e-02
-3.94589067e-01
1.71441123e-01
-7.74588957e-02
2.35827208e-01
2.48968214e-01
-1.38514534e-01
-1.57088563e-01
-5.14535308e-02
1.66369304e-01
2.11974442e-01
1.66503161e-01
-1.82083890e-01
-5.33033116e-03
1.16548929e-02
3.06056868e-02
8.86772946e-02
2.56095305e-02
-1.20823912e-01
2.00792187e-04
-1.44775095e-03
-8.62844065e-02
-1.22468598e-01
-1.04843490e-01
7.00240284e-02
1.23617448e-01
-4.83243391e-02
-3.23936254e-01
-1.81033954e-01
-6.04711808e-02
2.84022927e-01
-8.11975449e-04
-6.08648472e-02
-5.91485389e-02
-6.76626638e-02
1.00881368e-01
2.04630360e-01
9.41859037e-02
-9.49836448e-02
-1.84877992e-01
7.93052539e-02
2.16008440e-01
2.12537646e-01
-8.51389021e-02
-1.39699489e-01
7.55665312e-03
1.86837628e-01
1.37003049e-01
-9.81646497e-03
-1.36021331e-01
-3.16386223e-01
-6.42900914e-02
1.54115483e-01
-8.31145123e-02
-2.14879327e-02
-2.60973424e-01
-7.06814006e-02
2.05796003e-01
-6.60049394e-02
5.28303087e-02
-1.27252802e-01
-1.70291260e-01
3.44448583e-03
-1.45979196e-01
5.32564521e-02
2.67914888e-02
-5.83763458e-02
-2.60948569e-01
-1.37260677e-02
-3.44159477e-03
2.01737043e-03
-7.23471567e-02
1.39257545e-02
-1.05648942e-01
-9.83246788e-03
9.11275763e-03
-2.01634943e-01
-9.21186134e-02
-2.06474647e-01
-5.14100306e-02
3.84617038e-02
-1.14775673e-02
-9.38483849e-02
-1.85148939e-01
-2.45787650e-02
1.50735140e-01
5.52574322e-02
-2.01175790e-02
-7.82078877e-02
7.84789445e-04
9.01043564e-02
1.03915790e-02
-1.31874427e-03
-6.19612262e-02
-3.06640111e-04
1.44400388e-01
6.02510273e-02
1.46548346e-01
-4.71394099e-02
1.89929772e-02
-7.08144857e-03
-2.67851055e-01
1.67771086e-01
-3.25228237e-02
9.65520665e-02
-1.77675664e-01
-4.56787974e-01
3.42570208e-02
1.41729123e-03
6.55112565e-02
-2.94462815e-02
-3.87693495e-01
-3.76593210e-02
-9.33123529e-02
2.11228207e-01
9.51614156e-02
-7.32875690e-02
-1.19363174e-01
-3.27833407e-02
-3.13636474e-02
-4.24750112e-02
-8.51522312e-02
-7.10204542e-02
-1.21005520e-01
-2.15028882e-01
-1.95914973e-02
9.41952094e-02
-4.13909256e-02
-2.71433055e-01
-3.65093142e-01
3.66605446e-02
2.71053970e-01
4.59015891e-02
-2.08503142e-01
-4.88521159e-01
-1.45807803e-01
2.19340488e-01
1.68215707e-01
8.56814235e-02
2.26769451e-04
-4.37344573e-02
1.19067933e-02
-5.13589270e-02
-5.46710603e-02
-1.73261508e-01
-5.90882599e-02
1.56926387e-03
-1.02159888e-01
-1.16164520e-01
-1.74597770e-01
-6.36933371e-02
-1.64489597e-01
-1.01835631e-01
1.11795232e-01
4.91108233e-03
8.10166821e-02
1.01616412e-01
3.22652571e-02
7.61951134e-02
1.21323243e-02
1.78186268e-01
1.92862853e-01
1.27891183e-01
-1.34926632e-01
-2.16906384e-01
-2.50139475e-01
-2.02366903e-01
-1.71216786e-01
-8.13498646e-02
-9.54731703e-02
-8.05421621e-02
-5.39004542e-02
-3.23192263e-03
1.40074166e-02
2.91985031e-02
-1.00702226e-01
-3.99924591e-02
-1.64783761e-01
6.56123087e-02
1.74723357e-01
8.48276317e-02
1.49031535e-01
1.83536150e-02
-1.42734135e-02
4.97920439e-03
7.86483809e-02
1.97587922e-01
1.01769641e-01
-2.41659079e-02
-1.33511126e-01
-1.79251313e-01
-1.86270744e-01
-1.59917608e-01
-7.12997094e-02
-2.30057724e-02
-6.93326965e-02
-1.59745455e-01
-1.55915633e-01
-1.33514060e-02
-6.41597551e-04
-1.14569373e-01
-3.14018056e-02
-1.41684711e-01
4.51727211e-02
1.87525824e-02
9.62059423e-02
1.63433343e-01
1.06579363e-01
-7.62276947e-02
-4.99443188e-02
-1.41611826e-02
7.96863735e-02
-7.02908402e-03
-2.48277429e-02
-9.75103676e-02
-1.57508567e-01
-8.27001408e-02
-1.47796780e-01
1.10399043e-02
4.34921943e-02
-1.41806647e-01
-1.30103603e-01
-1.35263145e-01
3.10290419e-02
1.65069215e-02
-3.88265960e-02
-1.10438019e-01
-3.52847539e-02
9.26160514e-02
1.04992107e-01
1.33299291e-01
9.82862934e-02
1.84540331e-01
-4.50058514e-03
-1.16692252e-01
-2.58026958e-01
-2.42959931e-01
-9.06495973e-02
-8.47880691e-02
-4.50146534e-02
-2.69864172e-01
-2.46024653e-01
-1.88507810e-01
-4.39336523e-02
1.63657125e-02
1.38168320e-01
1.51331246e-01
-1.46190450e-02
-8.44908506e-02
-7.88269937e-02
-1.43114761e-01
-1.83022290e-01
-1.62357464e-01
1.83024555e-01
1.90547317e-01
2.22350135e-01
1.87743992e-01
2.67004937e-01
3.44924326e-03
8.48829895e-02
2.58025616e-01
3.44369084e-01
3.34932148e-01
-1.32142991e-01
-2.94936359e-01
-1.98495954e-01
-3.83587480e-01
-1.78389519e-01
-2.14205775e-02
3.23354378e-02
-8.10967311e-02
1.98805165e-02
-3.49393710e-02
-8.71378705e-02
-1.08997665e-01
-1.76710472e-01
-8.06628987e-02
1.43231591e-03
7.58370608e-02
7.85326213e-02
9.80079174e-02
2.50446409e-01
1.63882971e-01
4.00820747e-02
2.52894815e-02
2.86130831e-02
3.46169993e-02
2.46569533e-02
5.06734662e-02
-1.18909605e-01
-1.15472265e-02
-7.20185786e-02
-1.56685442e-01
1.31179050e-01
1.32505586e-02
1.81038473e-02
-2.45234948e-02
-3.13435644e-02
-8.20616027e-04
3.28408107e-02
6.35894239e-02
2.14493908e-02
6.46318421e-02
-4.95761894e-02
-1.15883090e-02
1.06117884e-02
4.96208854e-02
1.31953686e-01
-1.05646588e-01
-2.32531413e-01
-1.88915253e-01
-2.44430050e-01
-2.57916033e-01
-2.14263931e-01
-4.81550694e-02
-7.56280348e-02
8.69704410e-02
3.88021171e-02
-1.00539386e-01
-5.12898155e-02
-1.80052835e-02
-1.08586885e-01
-1.26921922e-01
1.87096093e-02
1.86796412e-02
6.01597317e-02
1.22359701e-01
7.24382773e-02
6.98996037e-02
7.49988183e-02
2.27563083e-01
3.12247664e-01
3.62371087e-01
-2.23954841e-01
-2.92067826e-01
-2.76847541e-01
-2.82962650e-01
-2.55451351e-01
-1.38974905e-01
9.16904733e-02
2.70827919e-01
1.77311182e-01
3.95767912e-02
-5.15603684e-02
6.50806949e-02
1.68711636e-02
-3.91026437e-02
-1.41487196e-01
-1.61266521e-01
-1.66431651e-01
-2.90226370e-01
-1.15826525e-01
6.64568832e-03
-1.48703352e-01
-1.74618900e-01
-8.44584107e-02
5.59713691e-03
3.10327522e-02
6.25682399e-02
8.26178566e-02
-3.63603234e-02
5.64789511e-02
6.63280189e-02
1.39091566e-01
2.76100375e-02
1.27258286e-01
1.03457384e-01
2.27263309e-02
1.61522962e-02
-5.17379567e-02
-6.98929578e-02
5.47095053e-02
-1.98100075e-01
-3.54741693e-01
-1.77070960e-01
-1.68681338e-01
-2.02252716e-01
-8.63888785e-02
-4.28803228e-02
-3.23318206e-02
-2.00012121e-02
-3.87702626e-03
5.29662184e-02
1.26209363e-01
1.12126648e-01
4.11381014e-02
5.06293215e-02
1.13541730e-01
1.31419897e-01
6.08690344e-02
1.39206618e-01
1.16356321e-01
1.23196812e-02
5.29306456e-02
-2.10361332e-02
-2.99663603e-01
-2.35056430e-01
7.70410150e-03
-2.35059187e-01
-3.40321004e-01
-2.48599008e-01
3.41616943e-02
-2.76143420e-02
-1.49621546e-01
-1.88549861e-01
-9.89488587e-02
-2.38793753e-02
-2.36528311e-02
5.93277179e-02
2.89257225e-02
3.43049169e-02
1.59735512e-02
5.32134175e-02
5.27969301e-02
5.47059998e-02
1.70129612e-01
1.31064594e-01
3.27465907e-02
5.26797166e-03
9.09105130e-03
1.92994252e-02
-4.19244217e-03
-1.64335176e-01
-1.01372473e-01
-1.63524494e-01
-2.28181049e-01
-1.69391051e-01
-7.09860027e-02
9.51896608e-02
7.69407973e-02
3.15352567e-02
1.07847206e-01
8.51559266e-03
9.61750001e-02
1.54498965e-01
1.58166483e-01
5.01683205e-02
-1.33966967e-01
-4.33985069e-02
-7.04056164e-03
7.48739541e-02
-9.60591137e-02
-1.30074367e-01
5.12979291e-02
2.12991402e-01
2.78472424e-01
-8.68506283e-02
-9.77849960e-02
-1.04061447e-01
-8.36371183e-02
-5.84855117e-02
1.32299867e-02
3.30984175e-01
7.70322978e-02
4.95029017e-02
-2.93585453e-02
1.68373004e-01
1.19602859e-01
6.35460913e-02
1.05795734e-01
3.34667154e-02
2.02222876e-02
8.17661136e-02
-9.61044058e-02
-8.19761828e-02
-2.64028776e-02
-1.06789619e-02
1.47693321e-01
-5.69318002e-03
2.31490377e-02
2.97161378e-02
-6.47389665e-02
-1.96289852e-01
-9.12119597e-02
-1.78391591e-01
-1.69558316e-01
-1.21656045e-01
4.18958329e-02
1.55153617e-01
2.27537490e-02
6.41707778e-02
6.36082143e-02
9.83060077e-02
6.52872995e-02
1.60039440e-01
6.17249534e-02
1.58094727e-02
-4.99138311e-02
-4.56724614e-02
-8.84127319e-02
-2.57238504e-02
9.53293368e-02
1.43063981e-02
7.19623938e-02
1.22315682e-01
-2.76359618e-02
-2.63261199e-01
9.82901603e-02
1.13919720e-01
-6.12787008e-02
-1.82236046e-01
1.33213401e-01
1.85306206e-01
-9.69504789e-02
-1.22876046e-02
5.19590601e-02
1.37382656e-01
-9.64877382e-02
6.59063109e-04
-1.02617726e-01
-3.95137854e-02
-4.39360626e-02
-1.27152205e-01
-6.16483241e-02
-4.90355082e-02
-1.40835330e-01
-2.48838872e-01
-1.23873845e-01
-2.61560202e-01
-1.66342422e-01
-1.34823784e-01
-6.65899664e-02
2.21103132e-01
4.25240099e-02
-7.78252557e-02
4.44356985e-02
1.74053878e-01
1.42429188e-01
1.44290805e-01
8.62090737e-02
1.32583082e-01
-1.18219042e-02
-1.10559814e-01
-4.44729663e-02
-5.49730025e-02
-1.08541891e-01
-1.72784746e-01
4.19524759e-02
-2.66407311e-01
-3.82968664e-01
-3.28289449e-01
4.88402462e-03
1.88407272e-01
-8.31516981e-02
-1.03574023e-01
-7.91438371e-02
-6.50624111e-02
-1.66423842e-01
-9.74454805e-02
-6.31637052e-02
-8.94312281e-03
7.29126716e-03
-8.97576194e-03
7.92009458e-02
-9.30906534e-02
-1.18431240e-01
-2.92173252e-02
3.52452397e-02
8.15597475e-02
6.36815503e-02
2.91268826e-02
-7.07440376e-02
5.67655303e-02
-3.29931490e-02
1.73514962e-01
2.54894704e-01
1.66656837e-01
-1.28839165e-03
-5.74821942e-02
-3.65884937e-02
-7.71293864e-02
4.82203849e-02
-7.71204755e-02
-2.32672337e-02
-1.09058127e-01
-1.73605472e-01
4.74630632e-02
-8.43554549e-03
9.37863439e-02
4.09319922e-02
-8.33763853e-02
-1.34334445e-01
6.81970268e-02
-2.06184387e-02
2.38801733e-01
2.20681876e-01
2.83888038e-02
-3.77334505e-02
-2.35085309e-01
-2.34837644e-02
1.78230181e-01
1.16830491e-01
7.99316615e-02
-1.92079186e-01
-5.31388856e-02
-8.64151791e-02
8.77164677e-03
1.37085607e-02
-2.49516629e-02
-1.06333837e-01
-1.17940836e-01
-7.85841271e-02
-2.22030636e-02
1.63003623e-01
1.54244900e-01
-1.02927379e-01
-2.10231647e-01
-1.44581735e-01
7.77864158e-02
2.29431316e-01
8.68397057e-02
-4.93701920e-02
-2.21498072e-01
-2.14184135e-01
8.85481089e-02
9.23018456e-02
-2.14031357e-02
-2.16436282e-01
-3.44435200e-02
-1.95190068e-02
3.24600637e-02
7.73932924e-03
1.29093185e-01
4.17476374e-04
1.27891585e-01
-6.37572538e-03
-2.76167914e-02
3.43410186e-02
-1.18754014e-01
2.41413880e-02
-6.85636252e-02
-1.14546783e-01
2.65600011e-02
-5.93354739e-02
4.37796898e-02
-8.41586739e-02
-1.37671111e-02
3.78847048e-02
-1.67615265e-01
-2.80609339e-01
-3.01718533e-01
-1.77056983e-01
-7.16539994e-02
-1.19829131e-03
5.20701986e-04
9.02030692e-02
-4.32156399e-02
-7.09054470e-02
-1.13048688e-01
-9.56677645e-02
3.15747112e-02
1.27229318e-01
6.81486204e-02
-9.43285897e-02
-1.77427560e-01
-1.19093135e-01
-6.40611425e-02
1.08802438e-01
9.17265937e-02
1.18838325e-01
1.55731350e-01
1.13298170e-01
2.69859046e-01
-1.54595012e-02
1.54950500e-01
1.78371862e-01
1.85197443e-01
8.74520540e-02
1.56394973e-01
8.04422721e-02
-4.41893935e-02
-2.63870023e-02
-1.49539011e-02
4.65618111e-02
6.82395473e-02
-4.04354781e-02
6.67664856e-02
1.15491144e-01
-1.16324864e-01
-3.51588358e-03
-9.26887710e-03
-7.75468498e-02
5.19831963e-02
-1.56593900e-02
-2.82055289e-02
7.42650479e-02
1.87927842e-01
1.56669870e-01
-1.47375971e-01
-1.45090923e-01
-2.34120097e-02
-2.43582204e-02
-2.81663965e-02
-1.49799109e-01
-5.23299575e-02
1.20826937e-01
7.28470460e-02
4.50939219e-03
3.21148634e-02
6.86648190e-02
1.20090663e-01
1.88297667e-02
-3.49238366e-02
-4.99084219e-02
5.23831360e-02
5.74189164e-02
-8.83567929e-02
-7.03086033e-02
-2.93067330e-03
-4.66078185e-02
-4.66040410e-02
-1.12362541e-01
-6.93885460e-02
-9.65245068e-02
-2.03059256e-01
-2.14911848e-01
-3.03776830e-01
-2.83039510e-01
1.82262599e-01
3.47435847e-02
-5.02474904e-02
-7.94462673e-03
1.66892529e-01
1.31510161e-02
-4.10529599e-02
5.04644588e-03
-4.59912829e-02
6.82458431e-02
-1.96817517e-01
-1.80928037e-01
-1.90060344e-02
2.85404734e-02
-1.99553967e-02
-3.60594690e-01
-2.52980441e-01
9.86146629e-02
1.61835521e-01
7.89793208e-02
-2.90130615e-01
-3.08719784e-01
-1.06266938e-01
1.21294327e-01
1.03407562e-01
-1.14929885e-01
-6.95614219e-02
3.15840691e-02
4.06671390e-02
4.36971411e-02
-9.92781073e-02
-1.14825562e-01
1.74873248e-02
-1.33096009e-01
-1.35167405e-01
-9.29940566e-02
6.12992607e-02
1.12077348e-01
6.49476647e-02
-8.00398216e-02
4.61045944e-04
-5.46990037e-02
-4.87472564e-02
2.64467541e-02
3.95815261e-02
1.42114028e-01
2.53028460e-02
2.59878933e-02
-4.71669547e-02
-9.19029564e-02
-4.31170426e-02
-9.20267999e-02
-7.56671280e-03
1.22067250e-01
8.30519646e-02
3.41830142e-02
6.32834360e-02
-2.57396828e-02
6.28009737e-02
-1.42423630e-01
-2.61050509e-03
8.10933337e-02
3.82844061e-02
1.48039252e-01
-2.87107080e-02
-7.41487667e-02
-1.02401129e-03
-3.89184318e-02
-7.92359561e-03
3.20715010e-02
4.65808343e-03
5.08441813e-02
-1.76095543e-03
-3.04223150e-02
-1.15264021e-01
-1.13838390e-02
-7.24840313e-02
-1.92248505e-02
3.02979872e-02
-6.41122684e-02
8.24017376e-02
2.32887920e-03
-1.20467385e-02
6.75928965e-03
-7.76755624e-04
3.60786729e-02
1.98894925e-02
9.91031080e-02
1.18209675e-01
6.26917481e-02
9.12251417e-03
9.22443494e-02
2.31135990e-02
-7.95966685e-02
5.07605867e-03
-7.99941495e-02
-1.48578677e-02
-1.25563880e-02
-1.39555275e-01
-4.32455204e-02
6.83756778e-03
-1.13685519e-01
-5.20415455e-02
-8.91301185e-02
-1.26208335e-01
1.05092384e-01
-3.78820188e-02
-9.39765871e-02
-2.40163282e-02
1.28807267e-02
-1.61691401e-02
-6.48586079e-02
7.88629521e-03
3.29582877e-02
1.35256648e-01
7.32718222e-03
-4.41852910e-03
1.41518295e-01
1.38654143e-01
8.65609646e-02
1.48242891e-01
8.97521749e-02
1.61892265e-01
6.01540804e-02
-1.27085030e-01
-1.12873707e-02
1.37785763e-01
1.46345839e-01
9.70370248e-02
6.07952029e-02
-3.13431323e-02
6.96320385e-02
-5.04141077e-02
-1.89589724e-01
-3.08087379e-01
-1.03691988e-01
-2.55520761e-01
-3.34443241e-01
-3.42510730e-01
-1.44014433e-01
-1.40825331e-01
-1.70095608e-01
-1.67368025e-01
6.86298776e-03
1.63351241e-02
1.96082145e-01
2.44379267e-01
1.65803015e-01
4.25648503e-02
-9.83710662e-02
-4.69591841e-02
-1.49170727e-01
-1.37317047e-01
-1.57852918e-01
-1.39549926e-01
5.69672659e-02
-1.17769971e-01
-7.23352134e-02
3.09239398e-03
-1.29436150e-01
-3.93755063e-02
-6.15532510e-02
9.39433649e-03
4.44991924e-02
1.06038362e-01
8.29752907e-02
8.50722194e-02
6.98797256e-02
1.62726175e-02
-6.22582398e-02
1.97793484e-01
1.46756351e-01
1.54580940e-02
5.28839193e-02
-1.19675733e-01
6.28638566e-02
1.34564117e-01
6.99929744e-02
-4.39652335e-03
-3.35132420e-01
-1.64177045e-01
-6.48815632e-02
-1.75740555e-01
-1.35658860e-01
-1.99278146e-01
-1.94188461e-01
-2.13094771e-01
-2.07844466e-01
-3.86796717e-04
5.84932184e-03
-1.28617078e-01
7.71353720e-03
8.05186108e-02
1.43275008e-01
-1.75022498e-01
1.95933990e-02
8.71594399e-02
1.08376309e-01
3.31005640e-02
-1.15219988e-01
5.95570169e-02
-8.79453570e-02
-9.16007012e-02
-3.35354991e-02
-5.43746538e-02
2.01304972e-01
1.56674966e-01
2.14381546e-01
1.98455036e-01
1.35252625e-01
8.10234100e-02
1.27961144e-01
1.21728331e-01
7.92821348e-02
1.28964156e-01
3.10266107e-01
1.51511729e-01
6.70711473e-02
-6.43465221e-02
-1.77082747e-01
1.86232850e-01
6.73518749e-03
-2.30101421e-01
-3.75213385e-01
-1.95456326e-01
-1.84742399e-02
-1.77540444e-02
-5.96044250e-02
-8.63136500e-02
-1.78008415e-02
-9.63371396e-02
-9.34733525e-02
-2.27870662e-02
-3.21279000e-03
5.38144149e-02
-2.59071767e-01
-3.50328267e-01
-9.03161392e-02
9.56921279e-02
1.50049090e-01
-2.77831499e-02
-1.25661775e-01
-1.70455292e-01
-3.69133234e-01
-2.41156474e-01
1.61527276e-01
8.43249485e-02
1.41811773e-01
7.57442117e-02
6.68796152e-03
5.98788559e-02
8.77871364e-03
-1.08316250e-01
-2.16310867e-03
-2.97888890e-02
-4.33246680e-02
2.68748719e-02
-4.38529029e-02
1.07594788e-01
5.57794757e-02
-9.90871042e-02
-2.80593097e-01
-3.11750978e-01
-4.85786013e-02
6.02350608e-02
3.22446339e-02
2.36531370e-03
9.77540505e-04
-1.40093848e-01
-3.03890318e-01
7.42089823e-02
2.88109984e-02
1.48112610e-01
1.41954616e-01
1.48183316e-01
3.58386002e-02
-1.43212611e-02
7.69160837e-02
8.50975066e-02
1.21365145e-01
-8.84372145e-02
-2.37282589e-01
-2.32590232e-02
2.42456213e-01
8.99754539e-02
-1.38051897e-01
-3.70684445e-01
-4.00062472e-01
-2.20293254e-01
-1.74204275e-01
5.27624935e-02
-1.16859451e-01
-6.82754666e-02
-1.04577042e-01
-1.01274580e-01
1.07237503e-01
7.38872886e-02
7.89776444e-02
1.05722226e-01
1.19358353e-01
-6.97550550e-02
1.42170087e-01
7.81047195e-02
-4.89922240e-02
1.67782716e-02
-1.76288914e-02
3.97704951e-02
-1.93231404e-02
-3.97696234e-02
1.37062252e-01
1.01907231e-01
-1.03819206e-01
-2.31754839e-01
-4.31306750e-01
-5.32348096e-01
1.30544141e-01
2.83699557e-02
-8.23440328e-02
-1.25939652e-01
-1.41806751e-01
8.29666182e-02
1.13816708e-01
2.34029405e-02
1.75312042e-01
1.01623572e-01
-8.82477611e-02
1.38318874e-02
-8.79972130e-02
-1.31117880e-01
8.21322426e-02
2.80921441e-02
1.14062361e-01
5.24766296e-02
7.97395632e-02
2.61282563e-01
-2.07769409e-01
-2.22376004e-01
-1.46783233e-01
7.23694563e-02
1.71788409e-01
-3.41013893e-02
1.15700185e-01
-7.03232139e-02
-3.93895954e-01
-3.05562615e-01
8.36063623e-02
7.19217137e-02
1.29847884e-01
1.66463137e-01
2.25080401e-01
-1.11594833e-01
-2.01625768e-02
-1.34897590e-01
-9.91502851e-02
7.19113648e-02
-4.61209863e-02
-1.37498870e-01
-2.17818126e-01
-1.93682149e-01
3.03382017e-02
-3.01384018e-03
-9.43030566e-02
-3.83961231e-01
-4.29824740e-01
-3.08117121e-01
4.43805195e-02
1.01021998e-01
8.05573910e-02
-2.91823642e-03
-1.31821722e-01
-3.37841883e-02
1.53579578e-01
1.61305845e-01
1.53711855e-01
1.58446163e-01
9.78179858e-04
1.05777770e-01
1.96733788e-01
1.08444586e-01
2.15515211e-01
7.89004266e-02
-2.11612415e-02
-6.08644225e-02
1.14611313e-01
1.56730026e-01
6.38175523e-03
-2.08291575e-01
-2.19686672e-01
-1.34887949e-01
-2.07039073e-01
-8.25755596e-02
-1.46769166e-01
-2.06240728e-01
-1.18459515e-01
-1.02708586e-01
5.90792224e-02
-2.34387238e-02
-1.54701874e-01
-3.58654223e-02
2.52361968e-03
-9.87820104e-02
-2.27911398e-01
-2.70554632e-01
-1.94143489e-01
2.37210728e-02
-1.85212582e-01
-2.75394142e-01
-4.61751670e-01
-3.13449740e-01
9.40850824e-02
1.19526565e-01
7.11687729e-02
-6.42239749e-02
-2.63794363e-01
-2.83133715e-01
8.28194544e-02
2.95974553e-01
3.22000414e-01
2.35384941e-01
1.74887478e-01
-3.86134610e-02
9.50131118e-02
1.34385809e-01
3.35272044e-01
4.22350913e-01
1.38832048e-01
9.47411284e-02
-3.46534774e-02
-1.11254252e-01
-3.18865292e-02
5.51419221e-02
9.38885510e-02
5.11526205e-02
-5.53228185e-02
-6.02265932e-02
1.03408555e-02
-4.42960905e-03
8.77918601e-02
8.06869194e-02
-5.08520082e-02
9.72371325e-02
1.29457712e-01
7.41220936e-02
3.62680270e-03
3.30657251e-02
8.77468288e-02
8.91304910e-02
2.30175024e-03
2.42378116e-02
-1.79356784e-01
6.41008243e-02
5.58340587e-02
6.40845113e-03
-8.98027420e-02
5.55200242e-02
3.28559354e-02
4.76252362e-02
8.36901069e-02
2.86231879e-02
-2.35085096e-02
2.73406170e-02
-4.20377776e-02
6.42435774e-02
3.17746811e-02
1.41656429e-01
1.56592980e-01
1.25678122e-01
1.44654494e-02
-2.10703467e-03
3.80981974e-02
1.40729062e-02
3.82828563e-02
2.18597744e-02
-3.13915536e-02
-3.82447094e-02
1.79371268e-01
1.33984998e-01
-1.07011363e-01
-2.08151415e-01
-9.98260751e-02
1.02175705e-01
-2.06744112e-02
3.85091528e-02
8.22577253e-03
-1.25523731e-01
1.07189454e-01
-3.00208032e-02
9.40450840e-03
1.71984918e-02
-7.39016756e-02
1.76820934e-01
5.32785654e-02
2.80463267e-02
-1.71220209e-02
-9.45421830e-02
-3.98453185e-03
-6.89780787e-02
-4.21273634e-02
-6.81039542e-02
-5.48429452e-02
-4.27565761e-02
4.29684818e-02
1.28867641e-01
-1.09198261e-02
-7.80983716e-02
-7.64295906e-02
6.99104667e-02
2.83682663e-02
-2.43709963e-02
-1.84242390e-02
-1.00008696e-01
7.94908032e-02
9.62565467e-03
3.57547887e-02
6.23864196e-02
-1.90893948e-01
-7.36770779e-02
-6.60508648e-02
-1.67974718e-02
6.95113018e-02
-2.68950582e-01
-9.42702368e-02
-1.58870649e-02
-1.18578732e-01
-4.81093824e-02
-6.88063949e-02
9.70252603e-03
1.35215759e-01
2.07551122e-01
2.12409928e-01
-7.74886310e-02
1.22652128e-02
-5.43928556e-02
1.04026817e-01
1.21183597e-01
3.30259874e-02
6.06488511e-02
-9.41737182e-03
1.18006155e-01
9.28876922e-02
1.75138131e-01
1.91175699e-01
9.25912037e-02
1.13104805e-01
-1.05286427e-01
7.15520307e-02
1.82990342e-01
1.15861595e-01
-3.83358151e-02
-2.02749774e-01
4.26529162e-02
1.02865897e-01
1.39466017e-01
8.18029419e-02
2.98360344e-02
4.91254851e-02
-6.76284544e-03
8.02816302e-02
8.02158043e-02
7.53052607e-02
7.39524141e-03
7.29184002e-02
7.43513033e-02
-4.54400759e-03
6.56057224e-02
-1.07258551e-01
3.52306478e-02
5.15017323e-02
9.13529769e-02
4.51629497e-02
-1.75492764e-01
-1.23612225e-01
-5.13641313e-02
-7.67126158e-02
4.16688994e-02
5.13155200e-02
-4.10990641e-02
-1.80716559e-01
-7.28801712e-02
1.99047718e-02
1.96139645e-02
3.70904654e-02
-3.68646711e-01
-2.96634525e-01
-1.53101951e-01
1.00841753e-01
4.22154786e-03
-3.29822958e-01
-2.56140053e-01
-2.01453745e-01
-3.32904980e-02
-1.84991032e-01
-1.99663639e-01
-9.34827253e-02
-2.00588241e-01
-8.56565535e-02
-1.47848547e-01
-7.06243962e-02
3.83840650e-02
-1.96544044e-02
-2.21587971e-01
-4.96227071e-02
-2.65910029e-02
1.33251801e-01
2.04788670e-01
-1.83811307e-01
-1.27572507e-01
-2.86498666e-02
1.17520958e-01
2.27157444e-01
-1.57438993e-01
-2.12699920e-01
-1.32168271e-02
1.29351661e-01
1.91145018e-01
-3.25598627e-01
-7.53572285e-02
1.15834579e-01
6.70804381e-02
1.90900899e-02
-7.22299814e-02
1.13304220e-01
1.22981697e-01
-9.85001214e-03
-4.74874564e-02
1.38402805e-02
-8.86579789e-03
-1.34577438e-01
-2.84101665e-01
-2.64023840e-01
1.03073595e-02
5.53076155e-02
-4.87840623e-01
-1.58873871e-01
-7.88125768e-02
6.34599403e-02
-1.57215685e-01
-4.91145611e-01
1.86171965e-04
1.11506581e-01
-3.28327753e-02
-1.66337401e-01
-2.88679987e-01
-2.74237525e-02
2.64521502e-02
-3.69968964e-03
4.17123623e-02
-3.08333375e-02
4.64998335e-02
5.39420098e-02
5.54407714e-03
2.72554271e-02
-1.11292399e-01
-1.10978872e-01
-2.72162259e-01
-1.32309878e-02
1.28651291e-01
-2.34815687e-01
-4.05243069e-01
-1.01852104e-01
-7.88361058e-02
8.05612057e-02
-3.65325630e-01
-3.54457140e-01
3.55189703e-02
-7.83902779e-02
8.03677272e-03
-2.72781521e-01
-1.40162602e-01
1.35457680e-01
-4.93048504e-03
9.91655141e-02
-6.14668205e-02
-8.38321373e-02
3.73442806e-02
3.90844010e-02
7.45628551e-02
-2.69743770e-01
-1.50137082e-01
-2.57330183e-02
1.70504659e-01
4.08113748e-02
-5.33543527e-01
1.63276374e-01
1.73502535e-01
1.84453338e-01
-6.63889125e-02
-3.62947255e-01
1.51281863e-01
1.91909060e-01
1.16568416e-01
-1.14309035e-01
-1.57765970e-01
1.16344452e-01
1.24258578e-01
2.62783393e-02
-4.69317399e-02
-2.82160621e-02
6.03741333e-02
5.91802299e-02
5.96225932e-02
2.18955517e-01
6.28087893e-02
-2.71404028e-01
-3.90684664e-01
1.97999090e-01
2.01230019e-01
1.81596447e-02
-4.28990811e-01
1.62752390e-01
1.34716228e-01
9.09989774e-02
-2.86299717e-02
-1.50631517e-01
2.79423237e-01
7.76236951e-02
1.20420925e-01
-1.02147624e-01
-6.83624819e-02
2.06296891e-01
2.42536720e-02
4.79627289e-02
1.18513536e-02
1.25866234e-01
8.30620527e-02
-2.46469751e-02
-7.58431153e-03
-2.32145220e-01
-6.68420732e-01
-5.04655957e-01
4.55073714e-02
-7.58695528e-02
-5.91835856e-01
-7.14881063e-01
-2.03192160e-01
9.18884180e-04
-9.51742828e-02
-6.75223351e-01
-2.61652410e-01
2.57599242e-02
-6.27780780e-02
-1.64681017e-01
-3.52337539e-01
3.09158321e-02
1.37112126e-01
7.40099102e-02
-4.13421169e-02
-7.36937150e-02
1.61434971e-02
9.55418572e-02
9.29740593e-02
9.48466510e-02
-8.91864896e-02
-4.00005907e-01
-3.06833029e-01
4.14793007e-02
9.38398540e-02
-2.93759294e-02
-4.91522431e-01
-1.62068347e-04
1.39518827e-02
5.26994653e-02
-1.23225033e-01
-2.29654804e-01
1.01076648e-01
-4.88604307e-02
1.33558530e-02
-1.10518947e-01
-8.81511867e-02
7.72649050e-02
4.76348540e-03
5.35978526e-02
-3.37657854e-02
-1.70873525e-03
6.50160536e-02
5.53282835e-02
1.86331436e-01
-1.32078037e-01
-2.06522778e-01
5.41566014e-02
2.37208277e-01
3.44931871e-01
-3.26474518e-01
1.52138948e-01
2.84356952e-01
2.58452713e-01
2.47826248e-01
-2.43808940e-01
9.79551300e-02
2.04473093e-01
2.53045708e-01
6.76755905e-02
-5.16852178e-02
1.15856268e-01
1.54422089e-01
1.05583251e-01
-7.52678290e-02
5.98639771e-02
1.39555514e-01
1.46991372e-01
9.75665823e-02
4.45192493e-02
-1.81789488e-01
-2.99523443e-01
3.69482413e-02
-6.41415194e-02
6.99725049e-03
-1.34851426e-01
-1.48388073e-01
4.73561585e-02
-1.34570122e-01
-1.13811940e-01
-1.76455736e-01
-1.42121240e-01
-8.77854005e-02
-1.95898429e-01
-1.04091272e-01
9.50817168e-02
-1.21441290e-01
-1.03017524e-01
-3.39341573e-02
2.00554714e-01
1.59836367e-01
-4.46222723e-02
-2.08761036e-01
-2.48285662e-02
-1.00993395e-01
-2.56632477e-01
-3.00047491e-02
-3.69048193e-02
3.10495589e-02
8.63641128e-02
8.76944214e-02
-5.41824801e-03
-8.45475569e-02
-1.71645880e-01
4.37020883e-02
7.90148303e-02
1.60792381e-01
-1.08264521e-01
-5.65893315e-02
-5.11591248e-02
1.82563085e-02
9.87514779e-02
-6.52162880e-02
-1.44487731e-02
3.38459155e-03
-1.14355786e-02
-3.05940509e-02
-1.79767050e-02
2.47836038e-02
5.83742261e-02
-1.43802896e-01
-2.04166532e-01
-7.35091371e-03
-1.27535030e-01
-7.50826718e-03
1.64501578e-01
1.98980104e-02
1.33960852e-02
-9.54825655e-02
-1.03936240e-01
1.33162206e-02
1.22671746e-01
9.95180160e-02
-1.70612577e-02
-4.33511275e-04
-5.87453730e-02
-1.55480765e-02
6.45241886e-02
8.19148049e-02
-5.14650671e-03
-7.12726638e-02
9.22217406e-03
1.39601216e-01
3.48385535e-02
2.14829319e-03
-1.65000618e-01
-1.11474931e-01
-8.84925202e-02
-8.24945718e-02
1.67053670e-01
1.58676058e-01
1.77441478e-01
-1.14744127e-01
-3.57992452e-04
-8.88591353e-03
8.70334432e-02
2.23438635e-01
4.47317325e-02
-1.76695567e-02
-4.37962487e-02
-5.48757762e-02
6.53016567e-02
-9.85328481e-03
2.70589758e-02
-2.60435212e-02
-1.92832410e-01
-9.89239737e-02
-4.14592884e-02
-2.27656305e-01
5.90822995e-02
1.38320178e-02
-1.83411717e-01
-1.16068222e-01
-2.14512050e-01
-8.55867788e-02
6.97744861e-02
1.14592083e-01
1.28884330e-01
-1.77836623e-02
-1.40831321e-01
-5.03916144e-02
1.75007790e-01
2.69315571e-01
3.53910364e-02
-1.46915734e-01
-6.62026107e-02
1.69604614e-01
3.31382960e-01
-7.48278201e-03
-1.65152326e-01
-1.77175134e-01
-1.56040564e-02
1.42222926e-01
6.79819807e-02
-1.09061517e-01
-2.89002098e-02
-7.06525296e-02
-8.76369625e-02
7.94228613e-02
9.96809974e-02
-6.03512265e-02
-1.11268245e-01
-1.84267715e-01
2.28244327e-02
4.55992185e-02
-7.62441829e-02
-1.55511424e-01
-2.17364952e-01
-3.35939601e-02
7.08253980e-02
5.45824394e-02
-2.95888484e-02
-2.19874844e-01
2.13004053e-01
1.30251393e-01
2.20072433e-01
1.46225259e-01
3.05177514e-02
7.03181252e-02
3.48565876e-02
1.27927233e-02
-1.34714216e-01
-9.90276188e-02
-5.46314642e-02
4.60725054e-02
8.59605223e-02
7.83897117e-02
-8.38212762e-03
-5.47181219e-02
-3.96310315e-02
8.86030942e-02
9.49579403e-02
1.33189693e-01
-7.88177848e-02
-1.28989844e-02
-2.14205272e-02
1.67333968e-02
3.86072136e-02
-4.84043807e-02
-6.55877590e-03
-4.98039909e-02
-6.44328147e-02
2.60826759e-02
-7.29793981e-02
-3.88443135e-02
-7.98427686e-02
-2.16538250e-01
-9.24175233e-02
7.75633082e-02
-3.44124138e-02
-2.64021844e-01
-2.54406244e-01
-4.97490875e-02
9.73692685e-02
1.03143297e-01
-1.21605374e-01
-8.03854242e-02
-1.30713582e-01
1.45934105e-01
1.23204775e-01
-2.04014163e-02
6.22465201e-02
2.75330655e-02
-1.21985776e-02
-3.91937867e-02
3.95121761e-02
2.88662225e-01
1.47903636e-01
-6.86303452e-02
1.49656236e-01
1.39843017e-01
1.08028077e-01
-6.00531027e-02
-1.02683350e-01
-2.89223325e-02
4.71797250e-02
1.86541155e-01
8.94939154e-02
5.84369302e-02
-4.85211909e-02
-1.94124326e-01
-5.15202694e-02
-8.31566676e-02
2.57639661e-02
-5.59492521e-02
-2.70942926e-01
-3.35162789e-01
-2.31285647e-01
-4.95467894e-03
6.73163533e-02
1.24890497e-02
-1.03078812e-01
-1.18339188e-01
7.89574310e-02
-1.74498245e-01
-1.72939524e-01
1.61088314e-02
2.11619828e-02
2.77050752e-02
-1.53384611e-01
-2.38433167e-01
-1.08829938e-01
-1.01948224e-01
-5.70456237e-02
-9.80378240e-02
-8.63555744e-02
-3.61947231e-02
-6.82604909e-02
-4.86378148e-02
-2.65983585e-02
-2.63696276e-02
1.58956759e-02
4.64147106e-02
-6.62074536e-02
-6.81558810e-03
6.82381942e-05
1.20649096e-02
7.49359280e-02
1.58101916e-01
4.68083918e-02
-1.73514783e-01
-1.23241529e-01
-5.25874160e-02
1.03490777e-01
-7.52732828e-02
-2.60364562e-01
-1.61322534e-01
-1.02292500e-01
6.52638674e-02
-1.42861649e-01
-1.90113455e-01
-1.00818813e-01
-8.96568038e-03
-1.29990980e-01
1.37306824e-02
-4.76003848e-02
1.13786021e-02
1.45325497e-01
-1.16091706e-01
-6.55394047e-02
1.13128042e-02
2.49737892e-02
1.66094258e-01
6.48185760e-02
-2.79421538e-01
-2.27604568e-01
8.89529809e-02
-8.21764842e-02
-2.61299253e-01
-3.00045133e-01
-1.03463642e-01
9.17860772e-03
-1.13827690e-01
-2.66383976e-01
-3.08057386e-03
1.36562549e-02
-8.13725963e-02
-1.00437216e-01
-8.16471223e-03
2.45319605e-02
-2.00286210e-02
2.92892642e-02
7.77835445e-03
-4.24511358e-03
-6.78922758e-02
-1.11873560e-01
-3.85029912e-02
-7.30176980e-04
1.51500523e-01
2.59975016e-01
-1.67930543e-01
-3.44009399e-01
9.04224813e-02
1.15344219e-01
-8.46807659e-02
-5.18013597e-01
-1.68126523e-01
1.80899128e-01
-2.43549719e-02
-2.59650379e-01
-1.37054712e-01
8.14246014e-02
9.56476256e-02
-8.21982771e-02
-4.70053889e-02
1.15936898e-01
-5.96140139e-02
-1.36311608e-03
-1.40833974e-01
1.54669806e-01
1.16234794e-01
-9.18863248e-03
6.41822144e-02
2.31801167e-01
-9.79528204e-03
-1.28776446e-01
-2.71077245e-01
-7.15079606e-02
2.74733096e-01
-3.61142725e-01
-4.18395698e-01
4.97474596e-02
1.01599269e-01
2.42266413e-02
-2.37084299e-01
-6.49247095e-02
1.29483506e-01
1.02187604e-01
-6.68368489e-02
-3.36769149e-02
1.04211688e-01
5.48212491e-02
5.88549115e-02
-6.81163669e-02
2.27580462e-02
1.52265532e-02
1.19227819e-01
1.89668387e-01
7.36773685e-02
1.53325647e-01
-2.07757130e-01
-1.22792535e-01
2.75110807e-02
-1.40090575e-02
-2.42548212e-01
-3.64598483e-01
-7.60466233e-02
3.69043499e-02
4.77957865e-03
-6.26896694e-02
-5.02453893e-02
-3.58962975e-02
-2.58580707e-02
-1.32536486e-01
-3.74095067e-02
-2.44204309e-02
-2.07664911e-02
4.04406711e-02
-6.87635243e-02
5.81872743e-03
8.37825835e-02
8.37349296e-02
1.22736111e-01
1.85257360e-01
-2.87599057e-01
-7.78248832e-02
6.78598061e-02
1.70533180e-01
-1.80833101e-01
-3.12312454e-01
-5.19926585e-02
2.40758002e-01
2.06580609e-01
-4.07994330e-01
-1.00406773e-01
1.25169158e-01
1.90001830e-01
-2.00180411e-02
-4.51454222e-02
1.60413802e-01
7.37748891e-02
-1.94044188e-02
-2.24088714e-01
1.11468270e-01
2.69452911e-02
-3.43464054e-02
-2.44944364e-01
-2.63304770e-01
-1.45543600e-03
-1.97366536e-01
-2.78763473e-01
-2.61385709e-01
-5.07909544e-02
-5.61299138e-02
-1.52893826e-01
6.89089000e-02
8.38505924e-02
-1.17325544e-01
2.19269600e-02
6.82758465e-02
1.76667303e-01
-8.64835158e-02
-2.46668682e-01
1.18848421e-01
4.17621061e-02
-1.09667711e-01
-3.48289073e-01
-5.36793703e-03
1.02082670e-01
-1.21988513e-01
-3.47328752e-01
-1.23041891e-01
3.90625000e-02
