-1.50374947e-02
1.57310396e-01
8.87554288e-02
1.10131361e-01
2.99832318e-02
7.48983622e-02
2.13041291e-01
1.95583105e-01
3.01955670e-01
2.54068106e-01
-1.50085583e-01
-1.78556621e-01
2.11672504e-02
2.32557043e-01
1.26619607e-01
-2.76658595e-01
-2.30499491e-01
-1.31677151e-01
1.65683120e-01
8.88948292e-02
-5.88750057e-02
4.54524048e-02
-2.26657212e-01
-1.82754755e-01
-1.53642491e-01
-3.92184332e-02
2.36263946e-02
1.80311784e-01
-3.12658399e-02
-1.42309293e-01
9.56896693e-02
5.81913888e-02
2.02131066e-02
-6.26990199e-02
-1.52054787e-01
-1.98766977e-01
2.95456052e-01
3.22099507e-01
1.57041088e-01
7.32772350e-02
-3.42751950e-01
1.43911496e-01
2.60389391e-02
1.45050883e-02
-5.19989245e-02
-4.05615896e-01
-1.08386189e-01
-1.41716078e-01
-6.07332140e-02
1.19736359e-01
9.84137058e-02
1.46085784e-01
-4.83130589e-02
-1.90804720e-01
5.60352467e-02
-1.55378163e-01
-2.32296046e-02
2.86044687e-01
-3.34661864e-02
1.06449366e-01
-1.75118789e-01
1.14514165e-01
4.99118213e-03
2.42248267e-01
-2.85281129e-02
-3.51142824e-01
-3.43343228e-01
2.54153550e-01
3.56840640e-01
2.42460042e-01
-3.55618924e-01
-2.14185759e-01
2.56602634e-02
-5.49713261e-02
2.26035088e-01
-8.75694975e-02
5.74802645e-02
8.87263492e-02
9.17706937e-02
-3.13271821e-01
-3.04869469e-02
3.17565531e-01
2.03772709e-01
-3.21399093e-01
-2.99366474e-01
2.35266089e-01
2.74897426e-01
2.35066921e-01
-2.78720260e-01
-4.25170153e-01
3.26103419e-01
3.16825032e-01
1.28085017e-01
-1.17842674e-01
-3.98902483e-02
1.26114920e-01
9.86044034e-02
-4.83203381e-02
-9.66811255e-02
-1.19954616e-01
-3.15842807e-01
-3.78063321e-01
-1.87773913e-01
2.61206985e-01
-5.47361746e-03
-1.01642646e-01
2.31674135e-01
2.82603949e-01
2.25768194e-01
3.88763249e-01
3.75141710e-01
3.48438025e-01
3.13732505e-01
4.23574597e-01
1.72949582e-01
-1.66401453e-02
4.37053554e-02
-2.20478877e-01
-1.89020738e-01
-9.33878124e-03
-2.33647183e-01
-1.79937541e-01
-4.79331553e-01
-5.35852373e-01
-2.61573702e-01
-1.02839053e-01
-4.88527827e-02
-5.84002398e-02
-1.00304142e-01
-8.75162259e-02
5.35764126e-03
-1.54974505e-01
1.79118425e-01
-8.12669918e-02
-2.21487835e-01
1.95107490e-01
2.34381467e-01
1.32538900e-01
1.74604684e-01
1.60972610e-01
2.08019853e-01
-2.57839262e-02
8.19141120e-02
1.62660867e-01
1.98289491e-02
-3.92889194e-02
4.13738005e-02
-1.01810679e-01
-1.25161573e-01
-1.47045135e-01
-9.39861611e-02
-3.85132968e-01
-2.07531482e-01
5.08378409e-02
2.21811578e-01
-1.84427708e-01
-4.32797790e-01
-1.19856149e-02
2.48921886e-01
2.80498058e-01
-5.68349302e-01
-3.22823733e-01
2.78053552e-01
1.65447429e-01
4.27994490e-01
-1.96463674e-01
6.59029558e-02
3.02485138e-01
2.39211902e-01
3.28721479e-03
-2.76427597e-01
2.78402358e-01
2.84750581e-01
3.76906157e-01
-9.83209908e-02
-5.14437854e-02
-2.61908919e-01
-3.99784356e-01
-2.80397475e-01
-2.75216758e-01
1.20890483e-01
-2.59717047e-01
-5.86005509e-01
-4.35193479e-01
-1.89952359e-01
-4.26330790e-03
-1.85740590e-01
1.98387876e-02
6.78204745e-02
1.80442199e-01
2.75004715e-01
2.46414989e-01
2.83163548e-01
2.50984013e-01
2.00053260e-01
3.14145625e-01
3.92868191e-01
3.50806147e-01
3.92361522e-01
-2.30111796e-02
