1.56003445e-01
1.08090423e-01
7.71769276e-03
-1.33165598e-01
-5.89472093e-02
-4.93892320e-02
-1.94808096e-02
2.77256910e-02
-1.33677691e-01
-7.72496164e-02
3.41975167e-02
1.50830135e-01
-5.74769042e-02
5.54764681e-02
6.77544102e-02
1.11879498e-01
1.95885390e-01
-7.14847632e-03
1.02431513e-02
-1.98559001e-01
-1.60310827e-02
-3.50203663e-02
-6.48642927e-02
-2.21212581e-02
-9.89631489e-02
-1.13897417e-02
2.95249447e-02
2.12416902e-01
-1.22995369e-01
3.61162014e-02
-1.77161768e-02
1.01115867e-01
-2.29606368e-02
-5.68456203e-03
-9.99247003e-03
3.20671827e-01
-5.22422930e-03
6.67665340e-03
6.23331629e-02
-3.58698741e-02
3.79722007e-02
1.34883858e-02
5.18583832e-03
-3.13058845e-03
6.78095669e-02
8.67502838e-02
-5.32477200e-02
3.02467495e-02
6.13501109e-02
1.57440268e-02
-1.04927838e-01
-1.66696757e-01
6.49536252e-02
6.93387464e-02
3.86659503e-02
-1.17761448e-01
3.67009975e-02
5.70347160e-02
-1.25053534e-02
-6.50114566e-02
2.07301788e-02
2.13466883e-02
-4.81498167e-02
1.07207410e-02
1.13811173e-01
-2.12157369e-02
-1.52509063e-01
1.83819123e-02
4.33642901e-02
-1.19151380e-02
-2.23897547e-02
-2.42298953e-02
1.47781730e-01
-6.39015250e-03
-3.93823534e-02
-2.98189074e-02
4.29380201e-02
-7.28417933e-02
-1.73210353e-01
-9.50121135e-02
-6.02533780e-02
-1.15213156e-01
8.81239623e-02
-7.89009780e-02
-1.74357399e-01
-7.59531111e-02
9.43323076e-02
-7.23275170e-02
-5.68518005e-02
-3.09169199e-02
7.21300161e-03
2.33219236e-01
-8.74980073e-03
9.93476734e-02
1.51292309e-01
7.28104115e-02
-1.27172142e-01
-7.38383383e-02
3.74583527e-02
1.19131498e-01
-1.77699402e-02
-3.14537883e-02
9.11899582e-02
-3.28595378e-03
3.29855969e-03
8.22958797e-02
-7.09019750e-02
4.05916236e-02
1.42850682e-01
8.58475417e-02
-7.67516494e-02
-1.84730683e-02
-8.36566761e-02
5.55545874e-02
-2.60204226e-02
-1.48568135e-02
-1.90961152e-01
9.59217995e-02
-4.69132774e-02
-1.02333732e-01
-1.22026138e-01
-8.73366930e-03
-2.05801185e-02
1.43469572e-01
-6.39156699e-02
-8.29020888e-02
5.33098243e-02
1.81264430e-01
1.54821500e-01
2.32852306e-02
-3.34732458e-02
-6.74980730e-02
9.03073177e-02
5.28810173e-02
-7.01060593e-02
2.80707963e-02
4.16418463e-02
-5.31499051e-02
7.45720565e-02
1.40373170e-01
1.06832087e-01
-1.07208034e-02
-2.88016498e-02
3.42425122e-03
-3.83570716e-02
-2.47461852e-02
1.32216990e-01
-5.86295761e-02
-9.38447863e-02
2.86178710e-03
-8.59238789e-05
1.20403051e-01
1.12647181e-02
7.44910166e-03
-3.97736877e-02
-1.01898769e-02
1.11050352e-01
-5.03069088e-02
1.79269880e-01
1.25610813e-01
4.07932848e-02
-2.69294181e-03
1.47244930e-01
1.29326060e-01
6.69056550e-02
-3.02280840e-02
2.18891874e-02
-1.49812577e-02
-4.00842912e-02
-6.60575926e-02
-6.44923672e-02
-5.83004691e-02
-6.97959960e-02
-2.45066211e-02
-2.90027168e-02
1.80225670e-02
6.46099672e-02
8.72331709e-02
4.38016877e-02
5.66345118e-02
-1.40602201e-01
3.03282891e-03
-8.15455541e-02
-4.26128507e-02
-2.10997581e-01
9.21848491e-02
-2.71004234e-02
-5.82101308e-02
-1.84269711e-01
1.21200066e-02
9.27579552e-02
-1.41359051e-03
-3.63674462e-02
9.82102677e-02
-8.32113400e-02
-4.21069451e-02
-4.77037318e-02
-2.37792507e-02
8.70622881e-03
3.33278999e-02
1.52730003e-01
8.80977288e-02
5.45199737e-02
-2.72946693e-02
1.20357506e-01
8.48309472e-02
-6.88185543e-02
5.64320944e-03
-3.86577062e-02
-2.04457283e-01
-1.75337300e-01
-5.85438237e-02
4.88102846e-02
-8.36918429e-02
7.69123668e-03
6.77192435e-02
-2.82737743e-02
-9.65304151e-02
-6.20785281e-02
6.21779077e-02
2.19888106e-01
-1.01200473e-02
-7.91628659e-02
2.22987961e-02
-2.36489754e-02
1.50398239e-01
3.16314995e-02
3.56213301e-01
9.73351672e-02
1.25100203e-02
8.62200782e-02
9.93126631e-02
5.65194972e-02
8.57524015e-03
5.71092926e-02
-1.27130434e-01
-4.08519767e-02
-8.01666006e-02
-1.12087198e-01
5.13449730e-03
3.37190926e-02
6.25819014e-03
-4.79806475e-02
-7.65143856e-02
3.02614551e-02
2.66130771e-02
-2.08989516e-01
1.33437663e-01
1.36271000e-01
-2.71513965e-02
-2.36471947e-02
2.30994821e-01
1.17474519e-01
-3.85984816e-02
-2.65711639e-03
4.98139532e-03
-7.28737656e-03
-1.61256209e-01
-1.95989162e-02
7.03778490e-03
9.44952760e-03
1.35894213e-02
5.45107275e-02
-2.63986364e-02
2.86734924e-02
-3.04340906e-02
-1.62439391e-01
-1.44831324e-02
-1.41152814e-01
-2.35639021e-01
-1.00647666e-01
-1.80280078e-02
-1.77193135e-01
2.65028607e-02
-7.98906852e-03
-1.67460069e-01
9.71981138e-02
6.39765933e-02
-2.68389642e-01
7.38468429e-04
-6.72482103e-02
-2.56686985e-01
-1.60297882e-02
-2.30406458e-03
-1.20857902e-01
-1.39260560e-01
-1.72041636e-02
-8.65938067e-02
-1.08019903e-03
-1.40428707e-01
-1.06756054e-02
3.11152227e-02
-4.76588272e-02
2.76605366e-03
-1.24362580e-01
-1.06393518e-02
-1.70087129e-01
4.86704484e-02
3.76775041e-02
-2.55094450e-02
-1.55564427e-01
-2.35284306e-02
2.94398107e-02
-9.37882364e-02
-3.33890840e-02
-6.55396059e-02
-4.31400277e-02
-4.72866893e-02
-1.32325932e-01
3.99460532e-02
-8.28818679e-02
-1.84304222e-01
4.86640893e-02
-1.33469120e-01
-1.38813168e-01
-9.23263747e-03
-4.90729548e-02
-1.54919967e-01
1.63602922e-02
2.56631374e-02
-1.93320550e-02
6.13472890e-03
-1.35968074e-01
1.61179453e-02
-4.39662524e-02
-8.33333582e-02
-1.03601821e-01
4.55195718e-02
-8.00441504e-02
-1.11739524e-02
-1.99382715e-02
-1.34253353e-01
-1.52396724e-01
-3.11503727e-02
1.83009580e-02
9.56596062e-03
-2.21879169e-01
-1.63842052e-01
-1.55920023e-02
1.64216049e-02
1.04515404e-01
3.50026116e-02
-9.74237099e-02
-2.07012311e-01
-2.80598328e-02
-2.54179463e-02
1.40723018e-02
2.85795927e-02
-5.01328483e-02
-7.94023927e-03
-8.28104317e-02
-7.11991563e-02
-5.12650795e-03
-1.49039980e-02
-8.31632167e-02
5.26804551e-02
-1.32316768e-01
-2.03255862e-02
-1.12183832e-01
-6.59967512e-02
-1.42993942e-01
-8.71188939e-02
6.25211373e-02
-6.46531433e-02
-1.22430637e-01
-3.93193699e-02
1.93462521e-02
-7.05376118e-02
-1.46230191e-01
4.25841585e-02
1.80535745e-02
1.46366423e-02
-3.63866752e-03
-1.21246343e-02
2.52346462e-03
-6.57420084e-02
-8.18306431e-02
-3.06400424e-03
-8.44655335e-02
-1.29099399e-01
-6.13134392e-02
-1.02159388e-01
-2.28644535e-01
-9.07649845e-02
-6.98214117e-03
7.68424496e-02
-1.94949917e-02
-7.33916983e-02
2.70064324e-02
-8.27771053e-02
-2.95058843e-02
-7.54226521e-02
-9.93157476e-02
-4.44802828e-02
3.41919027e-02
1.15422271e-02
-8.87973420e-03
-3.59801911e-02
-1.19692951e-01
-1.37104586e-01
-7.97708146e-03
5.18868975e-02
-2.24249456e-02
-8.25066715e-02
-4.09464240e-02
-7.44952857e-02
6.09235168e-02
-4.98659573e-02
-6.89083652e-04
-8.82160440e-02
-5.75311249e-03
1.10973299e-01
-1.20181255e-01
-1.41787454e-01
-9.35795158e-02
-8.14096481e-02
8.27875435e-02
2.45368052e-02
-8.92310217e-02
2.47427523e-02
-1.92265436e-01
-6.60045594e-02
2.90986579e-02
5.29202297e-02
-8.43019262e-02
-2.63073482e-02
2.98660900e-03
1.10327955e-02
-2.73621660e-02
8.44363645e-02
-9.88591239e-02
-6.90494701e-02
-7.06379414e-02
-7.08281249e-02
-1.65801376e-01
-1.33039311e-01
-4.66609336e-02
-2.69659068e-02
4.88236360e-02
-1.95006710e-02
-5.71498796e-02
-2.79599186e-02
-8.68486390e-02
-4.43570688e-02
2.03729525e-01
1.21285535e-01
-1.33653387e-01
4.32255352e-03
-5.29110655e-02
7.43144425e-03
6.66413307e-02
-1.09513924e-01
2.51882039e-02
2.75102351e-02
-6.83123693e-02
-3.46189290e-02
-5.76526262e-02
-4.46018018e-02
-2.51141507e-02
-1.75763458e-01
-1.29464805e-01
-1.39046222e-01
-7.78779984e-02
-1.06089368e-01
-2.23848131e-02
-1.60634235e-01
-8.64133686e-02
-1.67162001e-01
-1.56768024e-01
-6.45231679e-02
-1.30318582e-01
-1.35599867e-01
7.70845860e-02
1.27962634e-01
-2.09036082e-01
-7.21541643e-02
5.62099069e-02
-1.12514906e-01
-9.08765867e-02
4.16996144e-02
-7.66763762e-02
-1.02883272e-01
-4.35630865e-02
2.75831055e-02
-2.83477968e-03
-5.06552234e-02
-1.48529798e-01
7.88629577e-02
-1.84709206e-01
5.02409972e-02
-3.25944112e-03
-1.05464101e-01
-7.60771781e-02
-8.77073780e-02
7.38124549e-02
-9.39730033e-02
-3.46053354e-02
8.29379112e-02
-9.75800678e-02
-1.44025236e-01
4.70308959e-02
-2.60770828e-01
4.85134944e-02
-7.78336599e-02
-6.34429827e-02
2.54258700e-02
2.07013078e-02
-9.29115042e-02
-1.53567910e-01
2.97680236e-02
-5.02848402e-02
-1.59295797e-02
2.11568885e-02
4.12266552e-02
-1.76717732e-02
-1.73087399e-02
4.02156934e-02
4.31743115e-02
-9.03279483e-02
-2.28187777e-02
-1.10071421e-01
-6.93159625e-02
4.70593013e-02
1.63881946e-02
-4.10383046e-02
-1.58763267e-02
-3.20982486e-02
9.55163091e-02
6.47814274e-02
1.47753090e-01
1.40075803e-01
2.28023864e-02
2.43736893e-01
2.26039693e-01
1.62824631e-01
-1.39931247e-01
-8.88697505e-02
9.49201658e-02
1.43608093e-01
-5.77366911e-02
5.23502268e-02
2.16365438e-02
8.00497234e-02
1.06560998e-01
-1.34666979e-01
2.23829579e-02
-8.28567520e-03
-1.41187325e-01
-1.92785561e-01
-3.77612049e-03
-1.59608677e-01
-6.03521839e-02
-2.63275206e-01
-3.77341434e-02
6.89036772e-03
2.55955104e-02
-5.90046532e-02
-2.22826283e-02
-1.10899314e-01
1.54446691e-01
1.65268704e-01
2.25974694e-02
1.11419864e-01
8.40294808e-02
-5.19240946e-02
-1.61693871e-01
6.03503212e-02
9.95734558e-02
-9.07286480e-02
-6.56693950e-02
1.07514709e-01
1.01872198e-01
-3.68129537e-02
1.01435974e-01
9.10949484e-02
1.73313394e-02
-1.41375616e-01
-1.46359906e-01
1.50338143e-01
4.40924317e-02
-2.37441704e-01
-8.57287124e-02
9.75507945e-02
-1.34480536e-01
-1.28096431e-01
-1.87939201e-02
5.96097298e-02
2.78066136e-02
1.14402458e-01
1.86660234e-02
3.12103312e-02
8.25242698e-02
3.87966596e-02
4.00356054e-02
2.93140132e-02
7.15518487e-04
8.88867080e-02
1.22755893e-01
-4.26683649e-02
2.13898793e-02
-1.10852430e-02
3.31200510e-02
2.26106383e-02
1.22544922e-01
3.59214395e-02
6.37171343e-02
-7.45473951e-02
-2.21880171e-02
3.71507034e-02
-1.39045909e-01
4.89391647e-02
-1.36180580e-01
-3.80229563e-01
-2.40809456e-01
5.75827025e-02
-9.15738940e-02
-1.23318046e-01
-2.08662912e-01
-5.69722466e-02
-7.78141692e-02
1.28033862e-01
-5.18037789e-02
-2.64907181e-02
-1.77837778e-02
1.60437927e-01
4.24253978e-02
2.69216578e-02
-1.31582901e-01
6.05489723e-02
-5.82992472e-02
3.51832137e-02
1.23817146e-01
-2.78150346e-02
3.79603617e-02
6.65193871e-02
6.81912005e-02
-5.13187833e-02
2.22196411e-02
3.61583903e-02
5.78295551e-02
-8.77796859e-02
-8.51161033e-03
1.25211887e-02
-3.90507244e-02
6.96256831e-02
-7.13866502e-02
-4.25901413e-02
1.06234431e-01
1.64549708e-01
1.16616674e-01
-1.29367188e-01
2.29047444e-02
-2.60772407e-02
2.31659990e-02
1.14357896e-01
1.80214480e-01
-9.04393569e-03
-2.92549487e-02
-8.95593911e-02
-5.35704456e-02
-2.10715100e-01
-6.56148046e-02
1.09752966e-02
-1.18699163e-01
1.96711905e-02
-4.38621938e-02
-3.75530194e-03
4.80952710e-02
3.61281633e-02
5.91750070e-02
-2.88314912e-02
-4.39881869e-02
1.41931176e-02
8.64330754e-02
-3.25768068e-02
-1.31018206e-01
-1.18954629e-01
-1.00561893e-02
-5.34166582e-03
6.56509474e-02
4.76680696e-02
-7.36629888e-02
-7.31459558e-02
-2.77784001e-02
1.11685190e-02
1.20434657e-01
5.85058592e-02
1.24412432e-01
1.75161719e-01
-1.01390645e-01
7.03504756e-02
9.47800502e-02
-4.92573231e-02
-1.49749503e-01
2.59956252e-02
1.15180366e-01
4.88027371e-02
7.24601075e-02
-2.25906987e-02
2.65993830e-02
4.29252714e-01
1.19629622e-01
7.69775808e-02
1.40400469e-01
9.17270780e-02
-4.95042726e-02
5.10921590e-02
3.90554443e-02
-2.75056809e-01
-1.29984975e-01
2.25149356e-02
6.69689476e-02
-4.01191562e-01
-1.47403076e-01
-1.05369901e-02
-1.88052878e-02
-1.79673314e-01
6.59978986e-02
1.94809139e-02
-2.08453350e-02
-2.65401095e-01
-6.32748008e-02
3.85359824e-02
1.89302891e-01
-5.25062196e-02
2.45708022e-02
8.78963619e-02
1.01077713e-01
2.12448999e-01
-2.46930253e-02
1.45036737e-02
-4.70596589e-02
5.47351614e-02
-7.22287670e-02
1.30811399e-02
-7.77699798e-02
-1.46785095e-01
8.19876418e-02
3.73434238e-02
-2.93691866e-02
-1.40276715e-01
-7.35832155e-02
-1.26482714e-02
-4.25065607e-02
-1.84886321e-01
-7.87301511e-02
6.32779002e-02
1.67819075e-02
-7.54295215e-02
-1.10208787e-01
-6.79496080e-02
-5.94208278e-02
-2.75357682e-02
6.40232712e-02
5.51700853e-02
-1.12599760e-01
-5.57508655e-02
1.03958815e-01
1.50745600e-01
1.22946888e-01
-1.04394658e-02
2.06952512e-01
-1.06730178e-01
6.41542971e-02
4.13556024e-03
2.23899540e-02
4.44460474e-02
1.28502473e-01
3.73679353e-03
6.57822296e-04
1.03223007e-02
-5.88020310e-02
-6.75607547e-02
-6.66247457e-02
1.24920094e-02
7.13314563e-02
-6.03165710e-03
-1.26900906e-02
-4.44710255e-02
6.11363538e-03
-5.16439490e-02
-9.79141220e-02
-3.63186710e-02
-7.62317255e-02
-8.31863750e-03
-2.48429663e-02
-1.63079984e-02
-3.80266830e-02
-3.97693366e-02
-1.88562255e-02
-4.93442360e-03
-1.97334774e-02
-4.45098579e-02
1.11015104e-02
1.13868890e-02
2.97037028e-02
-1.21348597e-01
-4.17176485e-02
-3.65785398e-02
-7.61726871e-02
-7.63843656e-02
-2.28577182e-02
3.60381566e-02
4.43720892e-02
-3.00162137e-02
-2.29603201e-02
-7.64627755e-02
-2.49137618e-02
1.12375077e-02
-2.45945342e-02
-4.08063456e-02
3.54268886e-02
-7.92900696e-02
-2.40020454e-02
-7.31954873e-02
-6.04688302e-02
-4.98159193e-02
-4.80759181e-02
-5.95058240e-02
1.35034062e-02
-3.88588458e-02
5.23053855e-02
4.46622893e-02
-3.50637771e-02
-8.03920999e-02
-5.97542375e-02
-3.91708277e-02
-6.49319217e-02
1.70488339e-02
-7.80328885e-02
-9.49365571e-02
-4.89729457e-02
-3.66456993e-02
1.29071129e-02
1.19589921e-02
-4.41352129e-02
4.39185053e-02
2.98512424e-03
-3.38185579e-02
-8.81469622e-02
3.42667587e-02
1.09033398e-02
-6.53956234e-02
-1.24149183e-02
3.36483754e-02
-3.70237269e-02
-4.22935896e-02
2.45831292e-02
-1.45181820e-01
1.72099229e-02
-4.29604091e-02
1.99158080e-02
-1.67007651e-03
-1.06438585e-02
-2.36647930e-02
7.88882449e-02
-6.62342366e-03
2.45729927e-02
-2.63564587e-02
-6.55098483e-02
-3.06552220e-02
8.87228307e-05
-1.63143873e-02
-1.07975103e-01
-9.86160040e-02
-6.10378906e-02
-1.39999494e-01
-6.10419624e-02
-9.26762745e-02
3.98493484e-02
-8.71308744e-02
-2.33708248e-02
-3.92541178e-02
1.04857096e-02
-5.67530729e-02
-4.71840333e-03
-3.65659967e-02
9.05604381e-03
-4.35247757e-02
-7.42255971e-02
-1.20081306e-02
8.57964344e-03
4.33884971e-02
3.48064601e-02
-4.50743595e-03
-1.14860646e-01
-1.45282280e-02
1.70242153e-02
-6.38648793e-02
-3.60733308e-02
-3.73586677e-02
-4.87194993e-02
-8.40051547e-02
-1.02342563e-02
-5.45548759e-02
-1.29996777e-01
-6.17730245e-02
-6.17797673e-02
-5.40886633e-02
1.41437277e-02
3.61318476e-02
-1.14367910e-01
-3.39061581e-02
-1.15947872e-01
-2.47570351e-02
-4.85945381e-02
-1.00230843e-01
-1.65404975e-02
-5.53492717e-02
-3.93755361e-02
4.82857190e-02
3.02689914e-02
9.03245714e-03
-6.41658828e-02
-1.26142744e-02
-4.58413363e-02
-1.45768058e-02
1.62424278e-02
2.07718974e-03
-2.68155634e-02
-1.08405076e-01
-2.81988028e-02
-2.06067003e-02
-2.48174742e-02
8.11083522e-03
-5.84448352e-02
-1.11196131e-01
-4.09304611e-02
-3.57920192e-02
-1.59864593e-02
-7.44989216e-02
-2.09143735e-03
-4.10348102e-02
-8.93673301e-02
-1.21629335e-01
-7.68120512e-02
-5.09630665e-02
-5.29651679e-02
4.08359952e-02
2.62222216e-02
6.78567961e-02
2.87269000e-02
4.65068556e-02
3.80931981e-02
-4.55856733e-02
-6.22973125e-03
-4.20233905e-02
-9.99496952e-02
-6.97844326e-02
1.60737596e-02
-1.39307631e-02
-4.59870957e-02
1.66938901e-02
-8.50600451e-02
6.06003255e-02
-5.21163680e-02
-8.10660496e-02
2.63017230e-02
1.17407553e-02
6.53488189e-02
-1.14890069e-01
-9.67652202e-02
2.80957785e-03
1.78497732e-02
-5.84175512e-02
-4.80521955e-02
-3.58480029e-02
-4.98955958e-02
-8.76389518e-02
-1.09780535e-01
-2.85335053e-02
-9.16922167e-02
-1.24682747e-01
9.86959040e-03
-1.10452902e-02
-1.56352937e-01
-7.02785105e-02
2.52482183e-02
-3.06161493e-02
-4.50083166e-02
-1.82833783e-02
-1.21608796e-02
-2.11458728e-02
-1.24958649e-01
-1.28807528e-02
1.35333240e-02
-1.83824934e-02
-2.10196283e-02
5.19133098e-02
-2.59969514e-02
4.49990779e-02
1.74814966e-02
-9.73787829e-02
-7.20187351e-02
-5.68296462e-02
7.96452072e-03
-6.66490346e-02
-1.03322290e-01
-6.17124001e-03
-1.71872079e-02
-5.37140556e-02
2.85034627e-03
-9.90251824e-02
-6.69756308e-02
-7.03142583e-03
-2.96951719e-02
-2.95819156e-02
-9.49765518e-02
-1.13417268e-01
-9.33455080e-02
-3.61548481e-03
2.65095942e-02
3.54351699e-02
-2.22642231e-03
9.49846487e-03
-9.24396366e-02
-6.23938814e-02
-6.72388896e-02
-8.08046106e-03
3.11696995e-02
-4.94069699e-03
1.74046829e-02
3.17245722e-02
1.82897355e-02
9.30810347e-02
9.65483710e-02
8.09298679e-02
4.24288251e-02
3.76051031e-02
5.65468520e-02
-1.05007393e-02
1.65784761e-01
4.46993597e-02
-1.18333921e-01
-3.84914763e-02
6.18324429e-02
-7.51487985e-02
-7.88210332e-02
-4.59226556e-02
-4.54647765e-02
-7.01278225e-02
1.33006386e-02
-1.61501821e-02
3.33209813e-01
-7.14589581e-02
8.11252859e-04
-6.07484467e-02
2.03918651e-01
-7.07442611e-02
1.05325744e-01
-4.44918871e-02
-2.90033631e-02
-2.16512562e-04
-3.20994966e-02
-1.94385111e-01
-8.25585574e-02
2.15207780e-04
2.93510314e-02
-8.92509148e-02
-1.23534679e-01
8.09329562e-03
1.53164733e-02
6.13666773e-02
6.76459000e-02
2.70509496e-02
8.13893974e-03
-1.30955856e-02
7.26245865e-02
2.68471967e-02
-8.52101296e-02
-6.18155822e-02
-4.37050946e-02
-9.67175514e-02
-2.02357234e-03
-3.33997793e-02
1.24925859e-02
-2.62477435e-02
1.01756006e-01
-5.20801954e-02
1.01539694e-01
-1.03869364e-01
8.31096619e-02
2.05532834e-03
-5.63067384e-02
-1.68133616e-01
2.83374637e-02
1.81191489e-02
-7.00095994e-03
1.04179606e-01
-2.23959349e-02
7.96948820e-02
1.14259794e-01
1.18367426e-01
1.48930252e-01
3.40654738e-02
1.95087448e-01
1.14607997e-02
8.81342962e-02
-1.27926886e-01
-9.23361480e-02
1.61923453e-01
1.12483412e-01
4.51077484e-02
-3.43390629e-02
4.47241701e-02
6.57036975e-02
5.64851519e-03
-1.08861551e-03
-3.86896022e-02
-3.11424918e-02
-1.71824882e-04
2.68084705e-01
-8.13035518e-02
-1.13988698e-01
3.71671207e-02
4.61292863e-02
-9.24165696e-02
-2.37151943e-02
-6.30945433e-03
-4.77141887e-02
1.94411889e-01
1.17647506e-01
-1.60924330e-01
-1.46176070e-01
2.15420216e-01
1.70460027e-02
4.58472520e-02
-1.01282820e-01
1.10815931e-02
4.94115651e-02
1.05708219e-01
-1.90331228e-02
-7.45323524e-02
4.20503803e-02
1.05225360e-02
-5.16854264e-02
8.49853307e-02
9.32927579e-02
1.97687805e-01
1.60422340e-01
1.37183871e-02
-4.05734293e-02
1.73753873e-02
1.10799797e-01
-3.10568674e-03
-1.56352334e-02
6.03657067e-02
1.51438370e-01
-2.07956761e-01
-8.28003734e-02
-1.01579831e-03
-6.90743551e-02
-4.32366654e-02
5.12961075e-02
1.09824069e-01
2.12207586e-01
-2.71433920e-01
-1.13054685e-01
-1.09578306e-02
9.51291248e-02
-1.03089467e-01
-7.70875439e-02
1.39401257e-01
1.61450431e-02
-1.69730894e-02
-1.10916846e-01
-9.47909523e-03
-1.04670025e-01
1.03112169e-01
-7.33682215e-02
-8.25929418e-02
5.81217818e-02
2.52943137e-03
-5.06614745e-02
6.08044118e-02
6.90787360e-02
-1.13823168e-01
-3.74662727e-02
1.67726278e-02
4.80657741e-02
9.94561911e-02
7.71582350e-02
-1.20670237e-01
-7.67845437e-02
-2.73951031e-02
2.11178586e-02
1.21479807e-03
1.00288531e-02
-1.84438214e-01
3.15386467e-02
-6.13406524e-02
-6.85964301e-02
8.63376483e-02
3.75760384e-02
-1.05773993e-01
-2.89429463e-02
-1.09308809e-01
-1.01350360e-01
-1.59557480e-02
-1.89146668e-01
4.82106060e-02
1.39023364e-01
1.29406676e-01
-1.01854056e-01
1.55596314e-02
1.09891795e-01
1.02568148e-02
7.84479231e-02
-1.14937991e-01
-8.06785598e-02
1.94685552e-02
7.44181499e-02
-3.43314022e-01
6.07030243e-02
-8.82350877e-02
-1.58863619e-01
1.15052745e-01
-3.67603675e-02
-4.98656780e-02
-9.26228389e-02
2.67872989e-01
-7.33473152e-02
6.07682429e-02
-1.01221360e-01
3.94359306e-02
-7.86722600e-02
7.63890743e-02
4.79406789e-02
-1.73396155e-01
-9.60404202e-02
-3.92674282e-02
-1.63552538e-02
-6.35709474e-03
3.95321064e-02
1.19543985e-01
3.27186808e-02
-2.01839924e-01
-6.73085004e-02
4.47981693e-02
-3.53310965e-02
-3.56305540e-02
1.34686574e-01
1.92013029e-02
-9.61081609e-02
-3.59973637e-03
1.31510094e-01
5.82883917e-02
-9.53930914e-02
3.92728560e-02
3.34268138e-02
-1.39714330e-01
-2.09126145e-01
8.65442902e-02
3.32208276e-02
-3.86604406e-02
-1.11729987e-01
4.85667437e-02
5.21141179e-02
-6.18095603e-03
-5.50062507e-02
1.99070740e-02
-3.70641239e-02
6.63149953e-02
1.13778356e-02
-8.73216707e-03
-4.90014516e-02
1.02365324e-02
1.02508590e-01
-1.51048005e-01
-1.26079857e-01
-1.38402674e-02
1.99475855e-01
2.63774768e-03
1.46292569e-03
7.64366910e-02
-1.48568779e-01
6.46631867e-02
-1.12588830e-01
-2.59844195e-02
-8.37310851e-02
5.86834289e-02
5.62626794e-02
1.34856328e-01
-1.13909811e-01
-1.28639668e-01
-4.75903265e-02
3.16808163e-03
-9.46187079e-02
-7.97961280e-02
4.06956673e-03
-1.14164092e-01
8.13031495e-02
-4.55467263e-03
1.09758005e-01
1.56915328e-03
3.60940062e-02
6.07748106e-02
6.77827224e-02
1.36227503e-01
-1.99694410e-01
-6.09604158e-02
-6.73379302e-02
-1.08999565e-01
2.75380984e-02
-1.28449768e-01
1.22999810e-01
3.80205065e-02
1.97438180e-01
-3.14068981e-02
1.11611865e-01
9.14408714e-02
2.17411686e-02
1.76386274e-02
-4.88940328e-02
5.98515533e-02
2.23286331e-01
7.53588825e-02
6.74327761e-02
-2.82905679e-02
-1.14867918e-01
-3.87874059e-02
-7.25060701e-02
-7.02265427e-02
-7.11726025e-02
6.94420934e-02
-7.46238083e-02
-2.13291552e-02
1.92785397e-01
1.39636800e-01
1.15634836e-01
-1.93238452e-01
-1.97601229e-01
2.97940839e-02
1.39124289e-01
-6.14503399e-03
-5.21412492e-02
8.64405092e-03
-8.50131884e-02
1.00516543e-01
1.41294867e-01
1.41405061e-01
1.46429399e-02
5.88499047e-02
-5.45566576e-03
7.19561428e-02
-4.92964908e-02
-6.81615099e-02
1.02847237e-02
2.21554451e-02
2.84146667e-02
-3.64936739e-02
2.01933365e-02
3.17730792e-02
-9.72182825e-02
9.88813639e-02
-8.73964578e-02
2.27969661e-01
-1.66067943e-01
-3.73824984e-02
-1.44887045e-01
-3.45517211e-02
-6.71378821e-02
1.00670546e-01
8.50139838e-03
-5.95166795e-02
-1.24318421e-01
-8.93536806e-02
8.45439285e-02
-1.44252390e-01
-8.40011239e-02
-1.57385811e-01
7.22346604e-02
4.18078415e-02
2.26078928e-02
1.00065477e-01
1.13792755e-01
-1.93059981e-01
8.16530064e-02
8.74890462e-02
6.52156174e-02
4.76257764e-02
2.35634893e-01
2.42524538e-02
3.75527963e-02
-9.87022743e-02
7.60756899e-04
-6.56413808e-02
-2.03948274e-01
-1.33307874e-02
8.83135945e-02
9.47861671e-02
4.43111407e-03
-4.95061427e-02
-5.93657047e-02
-7.99082741e-02
-1.10340431e-01
-1.47245303e-01
-4.64990847e-02
-2.16786534e-01
4.56345975e-02
-3.05137008e-01
-2.67021686e-01
-2.31462643e-01
3.30778100e-02
7.21908286e-02
5.86817227e-02
4.13230918e-02
9.30414200e-02
2.56314836e-02
8.08883235e-02
6.52841628e-02
-1.35200933e-01
-2.12152465e-03
7.98083283e-03
-6.23674542e-02
3.53976488e-02
-2.02120580e-02
-1.13253012e-01
-7.03204423e-02
6.10534400e-02
2.09405914e-01
3.60470489e-02
-3.62692885e-02
9.27903876e-02
-8.91555101e-02
-5.94610423e-02
1.76039729e-02
-4.73930687e-02
-1.10550644e-02
-4.59390692e-02
-5.92144392e-02
4.62589338e-02
-7.01926649e-02
-6.59456924e-02
-7.90130645e-02
4.37174030e-02
1.78345159e-01
-2.96558943e-02
1.99866183e-02
1.53140530e-01
2.65276758e-03
-1.60127580e-02
2.68911310e-02
-4.01615910e-02
3.69270928e-02
1.23347389e-02
9.40986425e-02
-1.50880069e-01
1.83930814e-01
1.84261259e-02
3.59730050e-02
-1.15968227e-01
3.03869471e-02
6.29420951e-03
6.25428837e-03
1.25440553e-01
7.83176497e-02
-9.41535756e-02
1.57306641e-02
-9.42532420e-02
4.52482961e-02
4.93797241e-03
-1.16869979e-01
-6.18486404e-02
-3.92508805e-02
4.67127115e-02
3.41859199e-02
3.74045339e-03
-2.65276790e-01
-4.70970161e-02
3.34875770e-02
1.89479738e-01
-1.29388615e-01
7.50673786e-02
1.66187435e-02
-9.84254852e-03
-6.05454035e-02
4.29605953e-02
-9.99764204e-02
4.42537591e-02
3.38519476e-02
5.06234691e-02
6.08943179e-02
-1.44844288e-02
-1.52404550e-02
1.26975104e-02
-6.20031953e-02
2.33521033e-02
-3.80117744e-02
-2.02976763e-01
-4.02240008e-01
-5.54741211e-02
1.26473308e-01
-8.16643462e-02
5.38941547e-02
9.50871930e-02
-2.14513615e-02
-1.59458265e-01
5.63401803e-02
1.94129854e-01
1.91812918e-01
-4.52263653e-02
1.24329654e-03
6.40206784e-02
6.17679507e-02
1.56276599e-01
8.61065164e-02
1.49543002e-01
-6.59308434e-02
6.02177233e-02
-4.01605144e-02
-1.57347769e-01
9.84230712e-02
1.09960563e-01
-9.05343145e-02
-1.30882606e-01
-1.10989273e-01
-4.88067120e-02
-6.86722063e-03
-2.42923964e-02
7.74499178e-02
1.14184711e-02
5.53157181e-02
-1.91802353e-01
-3.51711572e-03
3.49471308e-02
-8.48696232e-02
6.78108037e-02
2.14849412e-01
1.53639968e-02
7.94207379e-02
2.90767074e-01
1.83168575e-01
-1.00091659e-01
-3.39300893e-02
-1.65379476e-02
6.58035204e-02
2.04858463e-02
-5.83966672e-02
-3.60459526e-04
5.12485392e-02
1.52837321e-01
5.65511584e-02
2.03162376e-02
3.31745520e-02
6.69180304e-02
5.05375490e-02
3.47518399e-02
-6.00556545e-02
-8.90036970e-02
1.13721564e-02
4.99734804e-02
5.79648465e-03
-2.46783495e-02
4.55735102e-02
9.76383761e-02
5.32633765e-03
-7.12117404e-02
4.48393486e-02
2.32472736e-03
2.95572523e-02
-5.27955852e-02
6.79405686e-03
-1.77743062e-02
-5.06003127e-02
5.44718355e-02
2.86175068e-02
8.35584179e-02
1.23189405e-01
-1.35122370e-02
9.35898945e-02
-8.90587792e-02
9.71481800e-02
1.83556117e-02
1.04801834e-01
5.91560006e-02
-8.99872035e-02
7.63304457e-02
-1.21595152e-01
-5.73487617e-02
-1.33933783e-01
-3.37317237e-03
-2.93505155e-02
-1.69344712e-02
-1.19412251e-01
-1.76409006e-01
-3.14500108e-02
-1.42098188e-01
5.33302426e-02
-1.73403695e-02
3.88070233e-02
1.23406671e-01
1.94803938e-01
-5.52806444e-03
3.81844044e-02
2.25681886e-02
-1.58804372e-01
-9.52127203e-02
9.11580399e-02
5.83001822e-02
-1.21716924e-01
-4.36062627e-02
5.35082892e-02
2.40036733e-02
-1.06220499e-01
-5.85529059e-02
1.79924481e-02
1.28846452e-01
-1.73578262e-01
3.77361961e-02
-1.11421542e-02
8.01696926e-02
-1.14360936e-02
1.17866032e-01
1.99727908e-01
-1.74756981e-02
2.08753068e-02
-3.14778537e-02
4.73472662e-03
-7.52618387e-02
7.07097873e-02
1.12256110e-01
7.80023187e-02
6.33495301e-02
-6.62847012e-02
-7.73074925e-02
2.33652699e-03
-5.47929481e-02
-1.20289110e-01
-2.09824353e-01
-5.01643345e-02
4.03961688e-02
1.68255702e-01
5.78145385e-02
2.42901202e-02
5.89013137e-02
-7.73669556e-02
-1.54990740e-02
-5.72604537e-02
7.91183114e-02
-9.14863423e-02
-1.26352519e-01
-1.57924354e-01
-1.62614331e-01
-2.57175148e-01
-1.00907803e-01
-2.49470640e-02
-1.82324007e-01
9.86098349e-02
3.70424874e-02
1.62039381e-02
-7.02030119e-03
5.06751463e-02
4.06141914e-02
2.03633979e-01
2.40395665e-02
1.31281868e-01
8.51146057e-02
-2.37636361e-02
-3.35483365e-02
-2.74076641e-01
-2.22744256e-01
2.81751733e-02
-2.29366403e-02
9.44237486e-02
3.10596060e-02
-2.73837764e-02
2.70541441e-02
-5.15924990e-02
1.39817577e-02
2.46675998e-01
1.00917086e-01
2.23546010e-02
-2.29839105e-04
-6.46443591e-02
4.83099520e-02
-1.20479479e-01
-1.37952983e-01
1.20027564e-01
-1.49463952e-01
1.67470098e-01
1.27878934e-01
8.03231299e-02
6.27202094e-02
1.56438332e-02
1.59543082e-01
2.31235884e-02
-2.58896463e-02
-6.45638183e-02
1.28374035e-02
6.10222928e-02
5.69004714e-02
-1.27694800e-01
-1.94838554e-01
-2.01116055e-01
-1.21955387e-01
2.34909616e-02
1.07008569e-01
3.68985943e-02
6.50383756e-02
-3.40079069e-02
3.87893319e-02
1.31789908e-01
5.10804821e-04
3.67993526e-02
-3.60509679e-02
3.52579765e-02
-3.83794867e-02
1.31349757e-01
-5.34858182e-02
-2.69842207e-01
-3.75966579e-01
9.13527980e-02
1.20001763e-01
1.08907288e-02
-9.76981372e-02
9.88022611e-02
8.06240141e-02
2.66382489e-02
-3.74650881e-02
6.84462488e-02
3.85651924e-02
-2.94393077e-02
-9.41312313e-02
-1.06101938e-01
-3.85483891e-01
-3.42050791e-02
-6.31760955e-02
4.94194888e-02
-1.89950748e-04
1.36189722e-02
-9.86067429e-02
1.15539610e-01
5.29580303e-02
-2.94040367e-02
4.82604187e-03
4.47453707e-02
5.31286746e-02
-2.12549493e-02
1.08267590e-01
-2.12959290e-01
-1.45642385e-01
-1.18551016e-01
-5.46471775e-03
-3.39328013e-02
-1.60004944e-01
-3.58649306e-02
4.33344282e-02
-3.88857885e-03
-7.18338490e-02
9.14574601e-03
-2.86400672e-02
-7.43139461e-02
-5.78410178e-03
1.13390163e-01
-1.70486003e-01
-1.02219462e-01
4.79014441e-02
5.01071066e-02
-2.63077840e-02
6.91997446e-03
4.80433814e-02
2.54262984e-02
-1.07277244e-01
6.65165186e-02
5.66193424e-02
-1.53973959e-02
2.34958548e-02
3.76278162e-02
5.53092025e-02
-6.23367354e-02
2.75238398e-02
3.13754082e-02
2.33773626e-02
-1.57915324e-01
-5.20587675e-02
-1.15884759e-01
-9.06496495e-02
-4.14312184e-02
7.54586086e-02
-2.55441666e-02
-1.12143643e-02
8.48192573e-02
-2.31574550e-02
-4.58661541e-02
9.32634175e-02
7.39967972e-02
3.46612781e-02
-2.24749558e-02
1.61476433e-02
4.71512601e-02
7.46779144e-02
1.08313702e-01
2.00705491e-02
7.10581020e-02
7.15721622e-02
-1.46953687e-02
5.13735525e-02
1.03006549e-01
-1.23082493e-02
-1.07051376e-02
1.17867135e-01
-1.03069488e-02
-1.49499118e-01
-4.50069131e-03
9.34950337e-02
-3.91267836e-02
-1.04949079e-01
-1.27215430e-01
-8.35900083e-02
-1.99707747e-02
3.53101902e-02
-5.35398237e-02
-1.15849264e-02
-1.36221632e-01
-1.18436277e-01
2.45315686e-01
7.15522468e-02
-1.98067337e-01
-3.87457550e-01
3.54295552e-01
1.33231789e-01
-4.39241296e-03
8.09298828e-02
1.39735550e-01
5.49771115e-02
-5.29048331e-02
-1.46053433e-01
7.80203864e-02
2.74640266e-02
-5.91447763e-02
1.58860460e-01
3.85058038e-02
1.63173079e-02
8.70307758e-02
9.93850455e-02
3.61006744e-02
-2.48483568e-01
-1.15114711e-01
-2.71156393e-02
-2.40415316e-02
1.19472362e-01
3.39268632e-02
-1.02345049e-02
8.07628501e-03
1.78856969e-01
-8.58059302e-02
-1.95817333e-02
8.05189982e-02
2.41411496e-02
-7.02044666e-02
-2.98641235e-01
1.43481478e-01
3.65437120e-02
-1.52409906e-02
-9.25775394e-02
8.96281153e-02
9.06761065e-02
-1.70442760e-01
-1.91292137e-01
8.87509361e-02
-1.06047623e-01
4.11253534e-02
-5.45672476e-02
-9.34597850e-02
-3.71338040e-01
-1.55043826e-01
8.37285072e-02
-8.77804086e-02
-2.79255271e-01
5.70876226e-02
-2.04205001e-03
1.19632654e-01
1.84387788e-01
6.10628761e-02
4.51816469e-02
9.65652913e-02
3.62492763e-02
5.99679351e-02
1.23838238e-01
1.30366459e-01
1.13204837e-01
-1.54009089e-01
-1.41572952e-01
1.32249415e-01
-9.41801369e-02
-4.00111377e-02
-6.56807572e-02
1.21223226e-01
3.37329388e-01
-1.39826313e-01
-2.28010580e-01
-2.59541795e-02
9.34053808e-02
-1.58332214e-01
2.14447044e-02
-3.45154516e-02
1.81821734e-02
-2.99984049e-02
5.07197902e-02
-3.30230981e-01
-7.11258501e-02
-1.58471167e-01
-1.36499032e-01
1.45722002e-01
4.88413423e-02
-6.26004636e-02
8.97738524e-03
2.21321769e-02
-1.55331260e-02
4.12661433e-02
1.62309721e-01
9.60741416e-02
8.22158065e-03
9.75949168e-02
1.49930984e-01
7.34883593e-04
-1.24806166e-01
-1.77580476e-01
-1.29655758e-02
-5.69909103e-02
9.51742381e-02
3.94184999e-02
7.10512474e-02
-2.27227695e-02
-1.61324143e-01
6.54149428e-02
6.63574189e-02
4.70893048e-02
7.28795677e-02
-3.94767448e-02
1.08096443e-01
-1.04170896e-01
-7.29973391e-02
8.29558372e-02
3.19439098e-02
3.98580916e-02
8.32594037e-02
8.71325582e-02
1.66252464e-01
1.81561649e-01
4.01070453e-02
1.75257642e-02
1.75882414e-01
7.58793801e-02
-6.09431528e-02
7.12490901e-02
8.66413414e-02
-3.12298775e-01
1.60350818e-02
-8.36454779e-02
-1.18016496e-01
5.73570952e-02
1.14537247e-01
-6.04999550e-02
-1.15273923e-01
7.41862655e-02
-6.69267848e-02
2.51632351e-02
-4.48773541e-02
2.13628169e-02
-1.32896621e-02
7.67547637e-02
7.32273236e-02
1.29469723e-01
-7.65422955e-02
9.78322774e-02
1.49340266e-02
-2.02921368e-02
1.65970661e-02
7.35755339e-02
-2.63330843e-02
-1.55271247e-01
-3.37054916e-02
2.00022697e-01
1.16185494e-01
1.83948994e-01
-1.13526553e-01
1.68741718e-01
1.40923396e-01
1.48880780e-01
-1.19037107e-01
-4.29280289e-02
2.07268428e-02
2.00663507e-02
1.06416037e-02
-3.43388543e-02
1.01714790e-01
1.07552446e-01
2.59208858e-01
-7.07831606e-02
2.73492225e-02
5.86730056e-02
1.71943709e-01
-1.19235098e-01
-3.89595958e-03
-4.01773632e-01
-7.43147545e-03
-1.23089410e-01
-6.78447634e-02
-1.34126514e-01
-2.49562025e-01
6.73395302e-03
4.09556590e-02
7.56836161e-02
-6.87936544e-02
6.84294524e-03
-7.24896714e-02
1.48825459e-02
-1.43229067e-02
-1.47933319e-01
-1.51356295e-01
-3.95228952e-01
4.00073640e-02
-4.88399379e-02
-4.43533696e-02
2.01232091e-01
-2.02005178e-01
-8.84925425e-02
-3.92443806e-01
1.36986151e-01
7.29688406e-02
-1.92303911e-01
-1.39119640e-01
-9.67986882e-02
-1.41332150e-02
1.18316012e-02
1.60261735e-01
-6.83288351e-02
-1.36252284e-01
7.28942677e-02
1.09721377e-01
-1.24180779e-01
-1.45268768e-01
-1.49504080e-01
1.80184379e-01
4.93145287e-02
-9.38273370e-02
-1.43155262e-01
-1.75957114e-01
-1.68012688e-03
-1.92380622e-01
-1.44883946e-01
1.61138639e-01
-7.19256029e-02
-8.27437416e-02
1.33806109e-01
1.28202006e-01
1.65019751e-01
-7.91765377e-02
-2.36808702e-01
-2.44539976e-01
2.47700252e-02
-7.71245062e-02
-1.50086775e-01
-1.27265453e-01
-7.16240704e-02
6.56122481e-03
6.23707287e-02
9.93394256e-02
-2.07054347e-01
-2.47126259e-02
-1.70601178e-02
5.30072451e-02
7.37069771e-02
-1.33533135e-01
-1.24922439e-01
3.73565964e-03
2.56715361e-02
1.51761860e-01
2.65868958e-02
-4.20414396e-02
5.77491056e-03
1.15354761e-01
9.25722122e-02
1.42041389e-02
-5.71135655e-02
5.82364574e-02
9.24211368e-02
8.89193565e-02
-9.72702261e-03
-3.61408405e-02
-1.50664076e-01
-2.79317170e-01
3.34517583e-02
9.76721942e-02
-5.73292002e-02
-1.02680117e-01
-2.54473090e-02
7.92119130e-02
3.33035849e-02
9.20310467e-02
1.02460362e-01
-7.15746582e-02
-2.21644282e-01
2.35966578e-01
-2.26732001e-01
-1.31059796e-01
7.02795535e-02
5.51240109e-02
-1.47116423e-01
3.30487965e-03
8.00754279e-02
4.50729616e-02
-1.03655651e-01
4.48488481e-02
1.55829236e-01
-4.01738323e-02
-2.12517247e-04
1.06595665e-01
-2.61134673e-02
1.10569187e-02
-1.68339834e-01
4.55087610e-02
6.99315667e-02
2.64516938e-02
4.83181840e-03
1.30939052e-01
6.33828156e-03
-1.92100853e-01
1.22936167e-01
-3.41464207e-02
-3.73482294e-02
4.92534749e-02
2.07157925e-01
-1.68393970e-01
-9.73869264e-02
2.06077948e-01
5.75604732e-04
-2.22188056e-01
-2.57410794e-01
-1.41656652e-01
-7.32831582e-02
-7.90228229e-03
-9.05079171e-02
-1.49305731e-01
-6.27199337e-02
2.96690743e-02
7.02160820e-02
8.93084407e-02
-5.44107798e-03
4.27113287e-02
4.73347679e-02
1.15825742e-01
2.66492041e-03
3.24187726e-02
5.66621013e-02
-2.03254282e-01
-2.83628851e-01
8.00474286e-02
1.09141551e-01
4.23927419e-02
7.25307390e-02
-1.69042163e-02
-2.89662406e-02
1.72877070e-02
1.16257660e-01
8.67139921e-02
-9.54634473e-02
3.44531834e-02
5.02119064e-02
-2.15708390e-01
-2.34469101e-01
-1.48134589e-01
-5.29275276e-02
-9.84925684e-03
-1.30095622e-02
1.18813075e-01
-6.23496957e-02
-2.07278449e-02
-6.43145293e-02
2.00363591e-01
-1.83510885e-01
1.12734139e-02
-3.67729999e-02
4.12615314e-02
-5.14076576e-02
-7.75231048e-03
-1.39934152e-01
-1.98229894e-01
9.73876715e-02
-2.68527344e-02
2.22753510e-02
1.80086251e-02
8.73956159e-02
2.63072848e-02
-1.69415385e-01
2.12715194e-02
5.74370623e-02
-5.80161996e-03
3.55246873e-03
1.58536032e-01
1.30568203e-02
-2.94835567e-02
8.59762914e-03
-1.19968519e-01
-9.99274924e-02
3.61174271e-02
1.30347103e-01
-7.30333908e-04
2.34534051e-02
-2.41753832e-02
-5.59935980e-02
8.64117220e-02
-2.22837348e-02
5.67203807e-03
2.95319203e-02
-2.59416383e-02
-2.64491737e-02
1.03717774e-01
3.05494089e-02
-9.33217704e-02
-1.77920926e-02
-1.38985097e-01
3.75348283e-03
5.97297587e-02
-1.85734108e-01
-2.98937149e-02
-5.61987497e-02
1.29172020e-02
-5.59298135e-02
3.13798003e-02
3.13870274e-02
1.35254949e-01
-8.71565640e-02
-1.59333766e-01
-2.26274468e-02
1.40425548e-01
-2.84357101e-01
-1.19719647e-01
-3.82694155e-02
1.75320923e-01
-1.36859640e-01
-3.23720984e-02
8.37758649e-03
-3.51742320e-02
2.13874709e-02
1.16641082e-01
1.18963748e-01
-1.35991633e-01
1.31230950e-01
-1.37953073e-01
-5.42209968e-02
-1.31382450e-01
-1.78847805e-01
6.75739115e-03
5.05966060e-02
1.06158391e-01
-3.45954925e-01
6.90674111e-02
7.92878568e-02
-1.86885912e-02
-1.21735781e-01
4.21133712e-02
3.55606675e-02
1.55815687e-02
-1.40159771e-01
3.90916504e-02
3.47507358e-01
2.27745533e-01
-1.84228793e-02
7.52588138e-02
1.42020002e-01
1.44870384e-02
3.10398359e-02
-3.28282677e-02
-1.27566811e-02
-6.64584562e-02
1.92672744e-01
4.36703824e-02
-1.77467614e-02
-1.02746770e-01
1.19244859e-01
1.44995630e-01
6.57523721e-02
-2.02039629e-01
2.69560330e-02
4.80118133e-02
2.92371791e-02
-1.82895720e-01
-5.80820888e-02
1.00246035e-01
2.52080169e-02
1.88910857e-01
3.66603285e-02
-7.25932941e-02
8.53729025e-02
-5.63045847e-04
-6.77200556e-02
-1.44343609e-02
-6.05452992e-02
9.04542729e-02
-4.99736667e-02
3.39934602e-02
2.91980337e-02
1.80475429e-01
3.10847051e-02
1.06686160e-01
-2.84982417e-02
8.89900774e-02
1.63968563e-01
-2.04301272e-02
1.22179322e-01
1.53374895e-01
8.71121436e-02
2.32763533e-02
5.52291935e-03
-3.94243449e-02
1.06021293e-01
-1.05866216e-01
2.72669122e-02
4.12458740e-02
4.33334429e-03
-1.06187761e-01
1.11488424e-01
1.26495287e-01
-8.39382857e-02
6.93090037e-02
9.68971029e-02
9.16936919e-02
1.22075774e-01
-6.54979050e-02
-4.70776744e-02
-2.11756527e-01
-1.48608424e-02
1.74385394e-04
2.47536916e-02
6.79351091e-02
1.44662568e-02
9.56184417e-02
-6.76580844e-03
2.15835109e-01
-7.18931034e-02
-1.06742658e-01
9.47557483e-03
1.43404916e-01
-6.44249395e-02
9.61836055e-02
8.43929418e-04
1.74208865e-01
-1.35532180e-02
1.42680751e-02
-2.44672094e-02
-1.17609622e-02
-8.66578072e-02
6.31853566e-02
-4.35304530e-02
1.64448515e-01
9.16936398e-02
9.88359675e-02
-6.41527846e-02
-5.71010038e-02
-1.39574870e-01
-9.80028659e-02
-6.08958900e-02
-3.95343490e-02
-1.21755488e-01
2.19120830e-02
9.21689942e-02
-1.63963094e-01
-3.28903124e-02
2.27658078e-02
-5.38933463e-02
-6.26998097e-02
1.28080025e-01
7.04826191e-02
1.19920364e-02
-1.52584063e-02
-4.29592468e-02
-4.20088693e-02
2.62424275e-02
-2.30946057e-02
3.01767327e-02
2.93773767e-02
-7.84025714e-02
1.30372923e-02
5.94961047e-02
1.47362165e-02
-8.41495320e-02
-7.81350359e-02
-5.34571745e-02
-2.41468415e-01
-3.73884678e-01
-1.03205435e-01
5.85488006e-02
-2.71652155e-02
3.76445800e-02
-9.65044871e-02
1.03692785e-02
-4.86755967e-02
-1.77269578e-02
-4.80475500e-02
-8.06019530e-02
3.30438977e-03
4.07177955e-02
9.97788161e-02
9.80284512e-02
1.77936535e-02
-1.86063128e-03
1.17912382e-01
-1.18445314e-01
-3.38853970e-02
1.35858074e-01
7.88446632e-04
-3.23059619e-03
1.14086270e-01
2.01184265e-02
-1.86051596e-02
-6.85677081e-02
2.60631721e-02
-5.28122224e-02
5.91056794e-02
1.84862763e-01
1.89027861e-02
-8.07516649e-02
-1.38870642e-01
1.00165438e-02
6.23048060e-02
6.20593615e-02
-2.23398749e-02
-4.18001041e-02
-6.35342821e-02
-4.46922854e-02
-2.29758862e-03
-1.37961492e-01
5.81029756e-03
-8.86971876e-02
-3.40643041e-02
-8.85818526e-02
6.31689280e-03
-4.09104787e-02
1.03171617e-01
5.64723462e-02
-1.09521458e-02
5.99936768e-02
-7.97143355e-02
5.73178753e-02
6.24799915e-02
-6.93854764e-02
1.46294966e-01
1.61914229e-01
-5.11695165e-03
7.71836331e-03
1.05812155e-01
1.62904933e-01
3.51565890e-02
-1.10345185e-01
4.63948324e-02
7.24524558e-02
-6.59725815e-02
9.28904414e-02
-1.08310580e-01
-4.87041101e-02
-7.12014139e-02
6.03602678e-02
1.36052951e-01
-8.57340917e-02
-5.47284782e-02
9.81855243e-02
-6.21348657e-02
8.19469541e-02
-6.99157566e-02
-5.31303138e-03
5.60792834e-02
4.70639840e-02
-2.37138849e-02
6.15907125e-02
5.76678291e-02
5.07757440e-02
8.89784768e-02
2.21990771e-03
-6.61116689e-02
8.68992358e-02
-3.11388187e-02
-6.00490458e-02
2.50536716e-03
-1.92424804e-01
-1.76230911e-02
4.03906107e-02
2.79876560e-01
2.10021511e-01
7.65875503e-02
4.00945470e-02
-4.93368646e-03
-1.28293484e-02
-5.70663400e-02
-2.30287258e-02
-1.23702222e-02
-2.78373718e-01
-3.62338796e-02
5.59297949e-02
-3.38015258e-02
7.83624947e-02
6.28139377e-02
-6.04811683e-02
-1.47112180e-02
7.12714493e-02
2.89151035e-02
5.79171851e-02
9.92133021e-02
-1.27065077e-01
-3.34815285e-03
4.01765807e-03
8.50985665e-03
-1.39523119e-01
5.77676184e-02
1.02675483e-01
5.68949766e-02
1.07716955e-01
8.90580267e-02
1.94171872e-02
6.24161251e-02
-2.38118749e-02
-1.76242307e-01
-1.09848611e-01
2.74670608e-02
-6.25738576e-02
-6.97283819e-02
1.22512765e-02
1.55595168e-02
-8.29252042e-03
-6.64337277e-02
-5.15103787e-02
-7.20206946e-02
1.61757082e-01
-4.96603772e-02
-1.75048098e-01
4.81693452e-04
-7.44335726e-03
1.13482691e-01
6.90852627e-02
2.04665333e-01
-9.34868772e-03
-8.77694488e-02
-3.02300043e-03
7.11256489e-02
7.77258351e-02
3.93093079e-02
6.32658675e-02
2.60033458e-02
-6.48914278e-02
-4.10893075e-02
-5.54089099e-02
5.47957867e-02
5.29082604e-02
-2.39877310e-02
-1.40742689e-01
-1.86920941e-01
7.27891922e-02
-7.65388715e-04
-1.15611374e-01
7.85774812e-02
8.23028833e-02
6.58714399e-02
-1.13753621e-02
1.38020411e-01
5.03997765e-02
-1.43088579e-01
-7.71342292e-02
-4.34431713e-03
-1.09557979e-01
-6.78277761e-02
4.10108175e-03
5.90224937e-02
-3.29965875e-02
4.95968647e-02
-1.76812913e-02
-6.87872991e-03
4.74212803e-02
5.78658655e-02
4.16731611e-02
4.75898944e-02
5.30781224e-02
7.73442015e-02
-2.26984620e-02
-1.39679000e-01
-7.80841894e-03
8.18269998e-02
5.05781099e-02
-1.37885949e-02
-5.62259033e-02
-5.63977733e-02
3.26815853e-03
3.79165448e-02
-1.45180270e-01
-1.24659173e-01
4.24237773e-02
-3.05022094e-02
5.33862226e-02
1.38544604e-01
3.05934716e-02
-5.23433350e-02
3.58051527e-03
-4.94270772e-02
-1.12334557e-01
2.02970624e-01
3.38142850e-02
-3.75731066e-02
1.88105956e-01
8.08850080e-02
1.28691286e-01
6.02212735e-03
9.33508426e-02
5.60241006e-02
5.40407337e-02
-5.36895357e-02
-1.09937117e-01
-4.94997390e-02
-6.35297224e-02
9.67200994e-02
-6.69583306e-02
-8.61332286e-03
9.28729028e-02
4.12275009e-02
-3.34522314e-02
-2.54291687e-02
7.10513815e-02
-7.68781677e-02
1.24759220e-01
4.90328623e-03
1.63429305e-02
-1.66296922e-02
4.55134176e-02
-8.39890987e-02
-3.56823578e-02
-5.86937973e-03
-3.84563170e-02
-9.49774534e-02
6.03080615e-02
-1.92918871e-02
-4.16135490e-02
-7.79844522e-02
9.77204740e-02
-4.64849733e-03
-2.43899040e-02
1.71783641e-01
-1.25842407e-01
-7.78567046e-02
1.09773986e-02
9.14588496e-02
-2.60676853e-02
-3.59599069e-02
2.86698947e-03
5.83523475e-02
-1.29365660e-02
1.19950864e-02
1.03563644e-01
9.94938836e-02
-3.97142358e-02
3.83904651e-02
-1.30909001e-02
-2.27381289e-02
1.41861022e-01
-6.71395585e-02
-5.06643057e-02
-9.87661257e-02
-1.02578677e-01
-4.46573980e-02
2.35085431e-02
8.86217356e-02
1.42936409e-01
7.63012171e-02
1.23644061e-01
1.91282809e-01
1.79486230e-01
9.61225852e-02
-1.68182738e-02
6.33021742e-02
-8.32407400e-02
-2.20642313e-02
-1.41271159e-01
2.58363690e-02
-2.62182981e-01
-1.17235638e-01
-4.84813079e-02
1.20333910e-01
-7.84362108e-02
1.46360621e-01
9.91286244e-04
1.08726323e-01
1.36404172e-01
7.61218742e-02
-2.52127256e-02
-6.51586205e-02
2.91524474e-02
3.26255597e-02
-7.73093775e-02
-1.37197196e-01
8.21877792e-02
-2.79695280e-02
-2.32195668e-02
9.87343024e-04
4.38704938e-02
7.81408623e-02
8.00802335e-02
-1.13416007e-02
-6.81073070e-02
-3.65429595e-02
1.92525815e-02
-4.24132943e-02
-2.19776437e-01
-1.01022720e-01
-8.31221417e-03
-7.87556469e-02
-3.89171764e-02
6.74885046e-03
1.83236208e-02
1.64891154e-01
4.22667526e-02
2.61945166e-02
4.44403440e-02
-4.40393910e-02
1.97166681e-01
1.40802801e-01
-8.76567140e-02
-9.05352533e-02
-6.93633631e-02
-5.64178303e-02
-6.43572882e-02
-9.91596952e-02
-1.60141625e-02
-3.13866958e-02
3.04761585e-02
-1.23575982e-03
6.23749755e-02
1.00426516e-02
1.01793751e-01
7.11222887e-02
-9.78024378e-02
-6.32722229e-02
-1.64966360e-02
-1.73349187e-01
7.23991022e-02
-8.52346327e-03
9.91492346e-02
-2.11014256e-01
-2.16084853e-01
-4.71005738e-02
-6.06349483e-02
-2.01829635e-02
3.64996567e-02
-7.66815036e-04
-1.04192659e-01
-6.90493882e-02
9.56711397e-02
1.04058087e-01
5.11528738e-02
1.28815894e-03
1.58615217e-01
-5.38813025e-02
8.82320702e-02
-1.21166622e-02
-2.87575305e-01
-1.00766905e-01
-2.51361746e-02
5.28475046e-02
3.96953709e-02
4.78521213e-02
1.06806364e-02
6.95206448e-02
1.91150203e-01
1.55857624e-02
4.70487364e-02
3.51155479e-03
1.60668846e-02
1.31170107e-02
-1.18497819e-01
-8.48880261e-02
3.29951979e-02
-7.27191707e-03
-2.26545110e-01
-2.18127407e-02
1.24853969e-01
5.24971671e-02
-9.19212252e-02
1.18806232e-02
1.83543209e-02
-7.95353018e-03
8.61779787e-03
4.32166234e-02
-2.61560887e-01
-2.74431407e-02
1.03070557e-01
1.78436879e-02
-8.17663129e-03
-8.15743506e-02
-7.87010193e-02
7.56882218e-05
4.18672860e-02
-7.45215267e-03
5.27692698e-02
-1.52604030e-02
4.38259169e-02
4.15234417e-02
1.19620292e-02
3.74389403e-02
1.24978922e-01
6.51738197e-02
-1.46923885e-01
-2.94968626e-03
8.29269886e-02
2.59468649e-02
6.92524537e-02
-7.98169244e-03
1.03057541e-01
2.61124708e-02
6.47244015e-05
-4.96768542e-02
8.56663883e-02
-8.82158354e-02
-1.76740885e-01
8.09718017e-03
-9.99151245e-02
-1.19362853e-01
8.94220993e-02
1.78877726e-01
5.72817884e-02
8.16200078e-02
-1.68382879e-02
2.91231349e-02
1.07103392e-01
5.71052507e-02
2.64472943e-02
-7.04004895e-03
-1.09530456e-01
-1.09582439e-01
-1.24614164e-01
7.14953691e-02
3.34688909e-02
-1.75193865e-02
-4.71046515e-05
1.14403948e-01
1.60332650e-01
1.01818852e-01
1.39384598e-01
-2.68515319e-01
6.95995614e-02
-7.92460889e-02
-1.78704746e-02
-1.19322702e-01
-1.08844198e-01
5.26519977e-02
8.54421109e-02
4.81411740e-02
-2.04101250e-01
-3.44723687e-02
-1.52868889e-02
1.10015541e-01
-1.99205279e-01
-9.54659376e-03
-5.57059646e-02
1.67717151e-02
-2.90930104e-02
-1.68911237e-02
-5.34041636e-02
1.53331190e-01
2.83521041e-02
-9.44840834e-02
-7.20750615e-02
-1.63701952e-01
1.44348904e-01
7.00925887e-02
-4.74057272e-02
-1.86255097e-01
2.30170146e-01
1.53334349e-01
2.01078001e-02
-1.11492291e-01
3.84505314e-04
-3.69122159e-03
7.69075528e-02
-2.54401863e-01
-9.45639834e-02
6.82542101e-02
1.91809107e-02
-3.89437973e-02
-8.20175186e-02
-3.92570645e-02
2.55195964e-02
1.02034584e-01
1.29946142e-01
-4.49039154e-02
-1.22722104e-01
-1.25348225e-01
6.92646578e-02
-3.98740619e-02
-2.10445616e-02
-1.47270504e-02
-1.11661078e-02
5.63317351e-02
-8.26786831e-02
-2.54675616e-02
9.81091857e-02
-8.89284257e-03
-2.38389596e-01
-1.98259190e-01
-2.36229170e-02
3.81291407e-04
2.58862004e-02
-1.38426423e-02
2.91732769e-03
-4.46844697e-02
-1.49314906e-02
2.09108032e-02
-5.73699214e-02
-8.92777555e-03
-9.20878798e-02
8.29426292e-03
-5.26368693e-02
1.23383060e-01
2.47044712e-02
5.84545266e-03
-3.06408536e-02
-2.81301171e-01
1.19720168e-01
-6.10854384e-03
9.80122015e-02
-1.15634780e-02
-1.46534210e-02
-1.08876094e-01
-3.75930034e-02
7.12314174e-02
-2.99020242e-02
1.99738760e-02
1.33060515e-01
2.03467757e-01
3.57893184e-02
-1.75783306e-01
-2.88709998e-02
-4.18153293e-02
5.53417169e-02
1.95146292e-01
-4.08634543e-02
-9.99168530e-02
-3.65097895e-02
-9.47790779e-03
-1.70059144e-01
-3.63195688e-02
3.44546400e-02
4.33989018e-02
-1.38541162e-01
3.92982699e-02
6.17054626e-02
-3.43781244e-03
-3.13174948e-02
7.31140971e-02
-5.24610616e-02
-5.80943488e-02
6.37707040e-02
-3.80544923e-02
-7.30147138e-02
8.39813575e-02
2.75004413e-02
-2.07029283e-02
1.65001247e-02
1.19092213e-02
7.29985237e-02
-6.74167201e-02
1.21634519e-02
-1.45300170e-02
1.83917955e-02
-1.08793847e-01
-9.66818929e-02
-7.45837539e-02
-5.13886213e-02
-7.98885524e-02
-1.07298024e-01
-5.44196293e-02
2.71996614e-02
-5.31863570e-02
5.99712878e-02
2.01020036e-02
-6.56525567e-02
1.54534489e-01
2.58255750e-01
1.30526185e-01
6.54603392e-02
-2.22962033e-02
-1.34090558e-01
1.20372418e-02
-1.76145270e-01
-1.80910081e-02
3.98223326e-02
9.57940295e-02
-6.19944464e-03
6.43171966e-02
8.36463124e-02
8.64547677e-03
-3.93616319e-01
-1.02820396e-01
2.18600795e-01
3.59090388e-01
-2.80123204e-02
1.34229720e-01
9.22802761e-02
1.41262934e-01
-1.57041043e-01
-4.84443782e-03
1.33025363e-01
7.73488730e-02
-5.21819770e-01
-1.78491175e-01
8.13227743e-02
-6.34784773e-02
-2.44494885e-01
7.42785111e-02
8.66845474e-02
1.14602603e-01
7.65959918e-02
1.85093477e-01
1.72118526e-02
5.87216914e-02
7.42445216e-02
-4.96175475e-02
-1.54932603e-01
-1.20212778e-01
3.58894281e-03
2.29136832e-02
-9.11388621e-02
-8.88475999e-02
1.63079537e-02
7.05162063e-03
-1.29218930e-02
1.32527007e-02
7.09604472e-02
1.08697861e-01
4.13975269e-02
1.69022247e-01
-9.76893082e-02
2.64754035e-02
-6.51014820e-02
-3.55387256e-02
1.05089881e-01
2.66618039e-02
-5.39517887e-02
-1.44297048e-01
1.65864885e-01
-5.63198812e-02
-2.37736362e-03
-9.82874446e-03
-2.46182978e-01
-5.33436872e-02
-1.36722982e-01
9.24770012e-02
-1.15264095e-01
-7.91155472e-02
3.99709642e-02
8.13155323e-02
1.76479183e-02
-1.12464443e-01
9.81183127e-02
-9.46617778e-03
8.84456635e-02
3.51031870e-02
2.23717019e-02
-2.29738820e-02
1.26081839e-01
1.43790379e-01
-9.24567804e-02
-1.26339436e-01
3.98458317e-02
-6.42846525e-02
-4.05062884e-02
2.18160660e-03
-1.04495995e-01
1.32255629e-01
8.81549492e-02
5.14984019e-02
5.21437414e-02
5.61126731e-02
9.90484934e-03
-8.27784240e-02
-8.34119022e-02
5.46289086e-02
1.50224879e-01
2.97481343e-02
-4.44585010e-02
9.48882103e-02
1.54496491e-01
6.72906265e-02
2.02868376e-02
-5.59561849e-02
-4.71548773e-02
-6.23133034e-02
-3.90521623e-02
-4.55042645e-02
-6.93180338e-02
-1.98954776e-01
-6.11849651e-02
1.62509501e-01
3.61321494e-02
-3.43511641e-01
6.45805821e-02
1.29684597e-01
5.87496571e-02
9.63155255e-02
-1.18729308e-01
1.08417474e-01
3.82859930e-02
-9.71390121e-03
-1.17140993e-01
-1.85189366e-01
-2.76738614e-01
-7.55579323e-02
-1.40316725e-01
1.66608408e-01
1.79278906e-02
3.84132825e-02
-8.95850882e-02
5.89003488e-02
-9.52755809e-02
-7.69571355e-03
2.98239309e-02
5.21110818e-02
-6.57413155e-02
8.17155018e-02
5.20595536e-02
1.07925564e-01
4.41012532e-02
-1.27077281e-01
2.80083381e-02
1.47573024e-01
6.10212833e-02
-6.61498159e-02
-9.51901078e-03
4.71996292e-02
2.43076459e-02
-2.37184800e-02
-1.47486269e-01
1.18273266e-01
-8.00477266e-02
-5.80199882e-02
-8.39415267e-02
-6.12489395e-02
-1.37885790e-02
-3.12181320e-02
1.56980306e-02
9.11683515e-02
-8.02832469e-02
-2.66536959e-02
6.60818294e-02
5.63299209e-02
2.56156716e-02
-6.94772527e-02
-2.31845537e-03
6.03695251e-02
-1.08351231e-01
-2.97492683e-01
-9.45389364e-03
5.63998111e-02
-4.73885611e-02
8.10098182e-03
-5.24848467e-03
5.19309156e-02
1.74929634e-01
-1.40272314e-02
-8.28280393e-03
4.71625105e-02
2.75670178e-02
-1.04004048e-01
-5.54594956e-02
-8.17036331e-02
-8.00406635e-02
-8.83553922e-02
-6.74764439e-02
-5.01295850e-02
-1.68833852e-01
-2.39585400e-01
-1.31290793e-01
-1.16769128e-01
1.21438764e-01
1.16877586e-01
-2.12626513e-02
-5.45565933e-02
-2.78022531e-02
-1.38482630e-01
1.08159341e-01
5.37179932e-02
8.96058306e-02
6.22652359e-02
-7.73380231e-03
6.28929585e-02
2.45011132e-02
7.81976432e-02
-8.18096176e-02
-4.11883602e-03
-1.11786341e-02
-2.90911328e-02
-2.35076398e-01
-8.71178135e-02
1.23212129e-01
-2.41579004e-02
9.49256495e-03
-6.60480708e-02
-7.82245547e-02
-1.84016004e-01
-1.47123933e-01
-2.11280007e-02
-7.89200217e-02
-2.46277064e-01
2.88291480e-02
1.70912221e-01
2.13667434e-02
-8.72882754e-02
7.19364882e-02
-3.72299515e-02
-1.88442226e-02
-7.59382844e-02
-1.10338591e-01
1.03053458e-01
-5.13283117e-03
-9.76715162e-02
5.61102889e-02
-1.42077088e-01
-2.69815862e-01
-4.35230955e-02
-8.32377002e-02
5.16897887e-02
1.61611676e-01
-1.16106402e-02
-1.22439332e-01
-8.83632526e-03
7.51088709e-02
5.41786849e-03
-8.60854387e-02
1.39393220e-02
7.99759701e-02
2.35767867e-02
1.87286995e-02
-1.62828248e-02
1.63512900e-01
1.17850415e-01
-1.10364519e-01
-4.33514081e-02
-5.74828796e-02
6.08109869e-02
-2.94424482e-02
1.13727972e-01
4.79100533e-02
-1.11268222e-01
-1.41444743e-01
7.77943805e-02
-1.71865210e-01
4.46167812e-02
-2.34150082e-01
6.59182370e-02
3.13480794e-02
3.73444438e-01
-1.39204655e-02
9.52478051e-02
1.06347881e-01
1.36155233e-01
-5.25025800e-02
8.72989222e-02
-9.39884260e-02
-1.89679340e-02
-2.95640171e-01
-2.13396817e-01
-6.82988316e-02
4.81302962e-02
1.77288026e-01
1.09734446e-01
-1.04666680e-01
8.07113051e-02
-3.65200937e-02
1.57469198e-01
1.39922455e-01
-1.93630885e-02
-5.57884686e-02
-2.30430458e-02
2.47430131e-02
-2.52490547e-02
-4.61141877e-02
-5.78932241e-02
1.35672139e-02
-1.62081465e-01
-1.09822027e-01
-2.62205955e-02
6.91378070e-03
-4.86592650e-02
3.30443531e-02
9.42881312e-03
-1.22509807e-01
-6.50178716e-02
3.85751203e-03
8.89564455e-02
-1.26650259e-01
-7.30864182e-02
7.02856481e-02
-4.59282659e-02
2.02157488e-03
2.16042902e-02
-2.47124080e-02
-1.51424050e-01
5.25707565e-02
2.68539414e-02
-1.85296968e-01
1.28287673e-01
2.21189409e-02
1.14241622e-01
-1.10788964e-01
5.22727296e-02
5.68621196e-02
1.15989238e-01
8.16836581e-02
2.09244099e-02
1.17228426e-01
7.82651976e-02
9.43583064e-03
1.40994385e-01
1.64462402e-01
2.03211918e-01
7.68960863e-02
1.41935244e-01
7.75829032e-02
-5.62029965e-02
-7.68072251e-03
1.33357450e-01
8.25656354e-02
-1.29523262e-01
-1.21820264e-01
7.19001442e-02
2.87736654e-02
-7.93394148e-02
-8.80909115e-02
-4.18362208e-02
-3.39330256e-01
-1.51602134e-01
8.61062855e-02
6.20897561e-02
1.59179326e-02
-2.24495754e-02
-3.04989796e-03
-1.34158775e-01
-6.78784251e-02
-2.24169940e-02
1.16888694e-02
1.07715093e-01
-1.27534345e-01
2.05118135e-02
-1.80426035e-02
6.44052923e-02
2.50704810e-02
1.49102500e-02
2.91043222e-02
9.85950083e-02
-3.60600203e-02
1.91430375e-03
1.93835925e-02
8.49521682e-02
9.03056711e-02
-1.01336064e-02
9.86303389e-02
1.16558827e-01
9.08910558e-02
1.74792141e-01
1.09277725e-01
8.68986025e-02
7.85710216e-02
1.28406703e-01
-7.15840142e-03
6.85484037e-02
1.12331584e-01
2.07841963e-01
-3.25020403e-02
-1.32941082e-01
-1.44669577e-01
4.42310609e-02
-8.20127800e-02
-9.53734517e-02
-1.69733137e-01
-1.29898638e-01
2.81874090e-03
-1.80558488e-01
-3.57577801e-01
-1.66552216e-01
-4.51852903e-02
-5.72476629e-03
-1.02893792e-01
7.97952060e-03
-3.47914249e-02
-4.55430858e-02
-2.09536776e-02
1.08742416e-01
-1.15826540e-02
9.11581591e-02
2.53144708e-02
1.07253239e-01
5.78637533e-02
1.27758771e-01
1.50179686e-02
-7.03465268e-02
1.93071850e-02
6.49463609e-02
1.18035272e-01
1.43892884e-01
2.51420271e-02
5.31150661e-02
9.93240848e-02
9.51016024e-02
2.31999401e-02
7.46211153e-05
-5.81068126e-03
-1.71158500e-02
1.69345170e-01
-8.16531330e-02
-2.31736973e-01
-2.90316105e-01
7.84794167e-02
-3.10660247e-02
2.04866156e-02
-1.35913968e-01
-1.17268480e-01
-1.24135509e-01
-5.77440597e-02
1.54168859e-01
1.08583607e-01
-7.04981536e-02
-6.50377423e-02
-5.34690358e-02
3.31280567e-02
1.22950546e-01
6.31817728e-02
1.12669803e-02
-1.25474870e-01
-2.74278484e-02
2.27572303e-02
6.35768697e-02
-5.40403873e-02
-6.02675043e-03
-1.31713077e-01
9.82897952e-02
-6.61508441e-02
-2.24181831e-01
-1.46599263e-01
-1.40411764e-01
2.44696327e-02
4.49427925e-02
-1.47474527e-01
-3.04927558e-01
4.16945405e-02
8.56791213e-02
4.10927683e-02
-4.81850430e-02
-9.70185399e-02
-1.72316119e-01
-2.66446739e-01
-9.88787860e-02
-1.66270182e-01
-2.08124578e-01
-2.99895089e-02
-4.78444621e-02
-5.65491691e-02
5.45062982e-02
5.58800139e-02
3.93282212e-02
1.58397797e-02
-1.13065124e-01
4.33812961e-02
3.18328887e-02
1.80717849e-04
-9.84577313e-02
-2.28776321e-01
-2.84926802e-01
8.46461505e-02
-3.31715830e-02
-1.05381370e-01
-1.20681591e-01
1.21746577e-01
6.95306584e-02
2.86070127e-02
1.04475081e-01
-3.00350934e-02
-1.86567426e-01
-8.31116140e-02
8.44940841e-02
-1.73024222e-01
-1.71555921e-01
-2.14984581e-01
1.05479658e-02
-4.12462391e-02
-7.37457201e-02
-1.54374316e-01
-5.49769849e-02
2.05873456e-02
6.61979020e-02
-1.18196502e-01
-1.70497730e-01
3.06922738e-02
8.77468660e-02
4.84529883e-02
-7.98111781e-02
3.62333246e-02
-6.24037795e-02
-6.92505464e-02
-1.92054495e-01
1.69122845e-01
-2.47341264e-02
-7.41420016e-02
-1.58150613e-01
9.13148001e-02
4.98874520e-04
3.44582908e-02
-5.16016446e-02
6.48197308e-02
-1.51148111e-01
-1.08966872e-01
-2.13628173e-01
-1.77759528e-01
8.54341593e-03
-1.92799866e-01
-2.56628722e-01
-1.57016180e-02
-3.80136864e-03
-3.54833640e-02
-3.49185616e-02
-3.86169583e-01
1.52652055e-01
1.61420852e-01
-8.80162641e-02
1.16828166e-01
-1.19158849e-01
-1.49544269e-01
1.40458066e-02
-9.29197595e-02
-2.19997346e-01
-4.86000925e-02
5.00303581e-02
-3.49398404e-02
8.06361204e-05
-1.23992160e-01
-3.91308852e-02
4.92844172e-02
-1.91103835e-02
-1.41969845e-01
-1.62464097e-01
7.65111670e-02
-1.09030865e-01
-9.07359347e-02
-3.92227210e-02
1.78488523e-01
4.08382639e-02
2.00924501e-01
9.83437598e-02
1.29277604e-02
7.66255781e-02
1.79218546e-01
1.04238316e-01
3.96824218e-02
7.24706352e-02
2.98937745e-02
3.05271130e-02
2.45943833e-02
2.17745043e-02
1.50397867e-01
1.74717396e-01
-3.13733406e-02
-5.97609580e-02
9.34881996e-03
8.48792270e-02
-1.37736246e-01
-9.44836661e-02
-3.86193961e-01
-1.79188281e-01
-6.93101883e-02
-1.57927915e-01
-3.06305528e-01
-2.22784385e-01
-6.62760530e-03
-4.26005982e-02
7.86750857e-03
1.57211080e-01
9.47381854e-02
2.28046980e-02
-9.70014408e-02
2.13891789e-02
1.86525717e-01
3.03776264e-02
1.60667181e-01
2.14130372e-01
8.09945315e-02
-8.55883807e-02
5.97590171e-02
2.27810428e-01
1.35579377e-01
5.05139790e-02
2.87803132e-02
-3.65933627e-02
4.49557938e-02
-1.82239674e-02
-2.98214816e-02
-4.60615568e-02
-4.50264476e-02
-4.27030884e-02
-4.87535484e-02
-1.09310523e-01
-4.60584685e-02
1.13419637e-01
-8.24151635e-02
-8.71491525e-03
2.16680825e-01
1.46484897e-01
-1.13512855e-02
-6.75809234e-02
-4.22284640e-02
8.46015215e-02
5.48891611e-02
7.04951510e-02
-1.77564517e-01
1.84816250e-03
-4.66107689e-02
-2.23191246e-01
1.45778164e-01
-2.20298264e-02
6.56075999e-02
-2.64951158e-02
8.50975886e-02
-7.51277357e-02
-5.24957068e-02
8.55383277e-02
-6.50092289e-02
2.89197844e-02
1.00123748e-01
-1.81431428e-01
-9.40621048e-02
-4.40450013e-03
2.43409239e-02
6.82503507e-02
-1.16519746e-03
-6.59684539e-02
-7.68356323e-02
2.69493997e-01
1.33394867e-01
1.03389122e-01
-5.24076782e-02
-1.39994949e-01
-1.58074573e-01
7.35225827e-02
8.19224585e-03
8.52215514e-02
-1.09680638e-01
-1.44954566e-02
1.30121282e-03
-3.42694595e-02
2.61542527e-03
-6.23162165e-02
2.30719037e-02
7.87364244e-02
5.45054115e-02
6.75892979e-02
-1.41510461e-02
4.76511158e-02
-1.11589037e-01
-5.91846928e-02
-1.94776803e-02
-6.09146692e-02
-8.91721025e-02
-1.53248042e-01
-5.85145410e-03
7.63938129e-02
4.18548249e-02
1.07984312e-01
2.35040516e-01
7.66545087e-02
7.75886923e-02
8.84932056e-02
1.09884188e-01
-7.54886419e-02
1.69999346e-01
5.66343255e-02
5.92819043e-02
1.55247832e-02
-7.66253397e-02
-5.32362685e-02
-2.11525038e-02
-1.12235866e-01
1.09084241e-01
-2.45141927e-02
2.66441964e-02
3.08105163e-02
-1.73022032e-01
9.25535634e-02
-1.67651158e-02
-3.76610644e-02
-2.61433601e-01
-7.31779858e-02
9.31840613e-02
3.30077037e-02
-6.47811294e-02
-9.68857631e-02
3.19143222e-03
2.53084414e-02
-5.09502888e-02
2.59217601e-02
-1.27759855e-02
8.82125571e-02
4.23593633e-02
1.30766749e-01
9.71558467e-02
-4.60502021e-02
8.87670889e-02
1.12614222e-01
6.64965734e-02
-2.26996318e-01
6.43008649e-02
4.97325882e-02
-3.58450972e-02
1.76836383e-02
5.11180423e-02
2.52202600e-02
-1.25233844e-01
2.70944461e-02
-8.20288882e-02
-1.17337584e-01
4.68206108e-02
9.83435586e-02
1.44802317e-01
-2.69336291e-02
1.46698421e-02
-1.00461617e-01
1.72682688e-01
1.19017296e-01
-1.19237872e-02
1.04332238e-01
-1.03118479e-01
-1.01245053e-01
6.04565181e-02
-7.71983862e-02
-4.56513986e-02
3.87850367e-02
1.83636276e-03
-2.85180788e-02
-5.23192175e-02
-2.14689057e-02
-5.86153269e-02
-4.17263359e-02
4.41717207e-02
1.23425037e-01
2.09547635e-02
9.65304598e-02
-1.34102777e-01
-2.55383439e-02
-1.02270566e-01
-1.09611295e-01
-2.04183947e-04
1.57948621e-02
8.64346251e-02
-1.55360820e-02
1.46419404e-03
-5.47537208e-02
-7.44626373e-02
3.33088636e-02
2.86606769e-03
-8.14654380e-02
2.09723879e-02
-1.72876045e-02
7.16794506e-02
-5.73507287e-02
6.18394576e-02
-7.51168504e-02
1.11810938e-01
-7.46622607e-02
-1.45436255e-02
-5.40880784e-02
9.79854763e-02
-1.37450799e-01
1.11559676e-02
7.32822269e-02
1.08335018e-01
5.30309277e-03
7.87658170e-02
2.46551377e-03
3.23131204e-01
-5.45122512e-02
5.61880916e-02
1.02897979e-01
1.62352845e-01
3.78781855e-02
-5.32130264e-02
-3.12701007e-03
-8.54621753e-02
5.28182685e-02
8.05492699e-02
-2.42750021e-03
-1.55606523e-01
-9.94492918e-02
-1.36900157e-01
9.24373716e-02
-2.53097326e-01
-4.82565351e-03
-2.53561214e-02
4.57438678e-02
-1.84318170e-01
-3.95838678e-01
-1.89469725e-01
9.30597037e-02
1.03794284e-01
1.16787225e-01
1.08353101e-01
1.31685793e-01
2.99485344e-02
3.05999462e-02
8.80085751e-02
5.07665984e-02
-8.86110067e-02
-2.64335237e-02
-3.75451483e-02
5.31510543e-03
1.17851287e-01
9.21890289e-02
1.11452460e-01
-1.98191293e-02
-9.47227478e-02
-5.10432012e-02
6.31626025e-02
-9.60382074e-02
-8.21892321e-02
-1.07803844e-01
-3.86775620e-02
3.50557677e-02
8.29822421e-02
5.06031476e-02
-7.27304146e-02
1.43954396e-01
-3.81707586e-02
-4.38412884e-04
-1.27555966e-01
-9.71754342e-02
6.54596230e-03
1.14849441e-01
1.29888311e-01
-5.17314710e-02
6.26625121e-02
-2.46043503e-03
3.87970768e-02
2.65123770e-02
-1.13405138e-01
-3.08466759e-02
1.04306079e-01
5.33323810e-02
1.14498034e-01
4.83275019e-02
3.37098427e-02
1.02685243e-01
4.94584329e-02
-5.16029820e-02
1.72412157e-01
6.57682791e-02
1.60117298e-02
4.54018777e-03
-7.53058195e-02
-3.38666961e-02
-8.64521116e-02
5.71766570e-02
-1.76451507e-03
-8.27780440e-02
1.15844868e-01
-2.65295394e-02
-4.87277955e-02
-1.99544445e-01
5.02202362e-02
2.44494434e-02
9.07006711e-02
1.46703601e-01
-1.42549332e-02
1.05225086e-01
-1.65114570e-02
5.90943359e-02
4.94323857e-02
-1.46625843e-03
3.61434780e-02
1.10298656e-01
-1.98353594e-03
4.05983999e-02
-9.16270986e-02
-1.32551575e-02
-1.33628156e-02
1.40515581e-01
1.38990477e-01
-3.30248587e-02
-4.83424403e-02
-8.72273520e-02
3.83173823e-02
1.61008745e-01
9.05687958e-02
-3.06596868e-02
-1.32901341e-01
6.37676045e-02
5.42753972e-02
6.84800148e-02
1.97136751e-03
-9.18903202e-03
-1.33762330e-01
3.65204662e-02
-2.43092515e-03
-6.59214929e-02
-9.00642872e-02
2.48967893e-02
6.22265600e-02
-1.32638514e-02
1.97314069e-01
-1.10607808e-02
-6.08219244e-02
-1.98593251e-02
-6.21344484e-02
-6.00602888e-02
-7.54694715e-02
-1.72900125e-01
-2.94133108e-02
2.96413098e-02
1.50154727e-02
-1.12216577e-01
5.51135950e-02
-4.58898917e-02
8.27951580e-02
-1.97409093e-02
-2.72524711e-02
-1.24692142e-01
-2.09739342e-01
-3.62183899e-02
5.94345257e-02
6.99190497e-02
9.18522105e-02
-1.48064494e-02
1.34020314e-01
8.84836167e-02
2.97809038e-02
1.05632462e-01
6.17867485e-02
1.52237741e-02
-6.52804896e-02
5.85056003e-03
4.16154191e-02
-1.47815719e-02
1.70488544e-02
-8.24939236e-02
-2.00308159e-01
1.47504762e-01
2.75348555e-02
6.51467824e-03
-2.16329265e-02
8.26371238e-02
-8.99036303e-02
-7.03933975e-03
-1.95810553e-02
1.69740189e-02
-5.96793368e-03
1.14785798e-01
1.06505685e-01
-8.22101310e-02
-2.79596094e-02
-1.38826534e-01
6.42504245e-02
3.80494408e-02
3.35646197e-02
9.34964046e-02
1.71598032e-01
1.38894722e-01
-4.00756858e-03
1.08245663e-01
6.16706163e-02
-1.51420454e-03
-3.08591407e-02
-1.05161890e-01
7.16623291e-02
8.47495347e-03
-1.12450726e-01
-4.42809463e-02
-7.56748989e-02
-3.07283681e-02
1.40918633e-02
6.00324497e-02
5.54845445e-02
2.56804097e-03
-2.19787844e-02
-1.46992281e-02
1.08751900e-01
5.75181097e-03
-2.40240321e-02
1.88905261e-02
1.10254392e-01
2.01955102e-02
-1.52018279e-01
-8.91811475e-02
-4.16829437e-02
9.49530825e-02
8.20635334e-02
1.11562110e-01
7.17558041e-02
3.87048908e-02
8.50588977e-02
5.59943542e-02
-4.71732132e-02
-5.72790094e-02
2.29179841e-02
5.39609455e-02
8.13935418e-03
1.04944699e-01
1.09661724e-02
-5.92884272e-02
-7.04366714e-02
-4.60881069e-02
-4.23428081e-02
2.79942192e-02
8.01679417e-02
-1.80918388e-02
1.56411342e-02
-1.73796881e-02
2.82945726e-02
4.20690849e-02
6.29542246e-02
4.94318604e-02
-1.35449762e-03
1.13427922e-01
1.15286209e-01
3.24266165e-01
-4.08178680e-02
-3.14927995e-02
-2.55058967e-02
2.28620972e-02
2.16836691e-01
-4.82790172e-02
2.95059085e-02
-5.14265224e-02
1.61319584e-01
-7.48635754e-02
2.90292520e-02
1.18313441e-02
1.79741725e-01
3.44062485e-02
-3.17927562e-02
2.50741214e-01
-7.59053230e-02
1.72501653e-01
5.03186211e-02
1.90911412e-01
-9.58745405e-02
3.40809189e-02
4.52469178e-02
-4.18911576e-02
-1.44028813e-01
3.56698362e-03
-2.36123987e-02
-2.64100190e-02
-1.18530273e-01
7.16659203e-02
2.66155275e-03
6.72601610e-02
-9.65390801e-02
-1.57803103e-01
-2.71530837e-01
-1.72737539e-01
-1.71687324e-02
4.15823795e-02
-9.53917801e-02
-4.97476421e-02
4.17503305e-02
-1.68134242e-01
5.16524948e-02
-8.57892558e-02
1.33381292e-01
1.34203255e-01
-6.20522387e-02
9.95131657e-02
-1.28050633e-02
-4.73544970e-02
-5.27036712e-02
5.05756922e-02
-1.64079294e-02
-6.54490571e-03
1.20804301e-02
-7.57939741e-02
2.45552715e-02
1.89056117e-02
1.13798775e-01
1.20252401e-01
5.40980622e-02
6.98369276e-03
6.68597892e-02
2.46350765e-01
6.77772164e-02
1.16059696e-02
-1.34480093e-02
-1.29066631e-01
-3.73025276e-02
-2.60795970e-02
-1.78451851e-01
-4.49989587e-02
4.30556014e-02
5.51303439e-02
-3.39105017e-02
-5.60586154e-02
-6.62217289e-02
-2.70909369e-02
4.11338285e-02
8.28655735e-02
1.06725737e-01
-1.20138787e-01
1.46557658e-03
-3.71574581e-01
9.69595388e-02
-2.80421451e-02
7.36455340e-03
-2.69422561e-01
8.63635316e-02
1.57667875e-01
2.18246132e-02
4.71927552e-03
6.55775964e-02
4.77425903e-02
2.44092960e-02
1.00934222e-01
-8.14853534e-02
9.32104886e-03
-6.24035075e-02
-1.09030932e-01
6.56199530e-02
-1.56805106e-02
-3.85748804e-01
-1.35604933e-01
1.61821410e-01
-4.79688570e-02
-1.58156395e-01
-4.40197736e-02
3.98686528e-02
9.89697427e-02
5.72944693e-02
5.52056469e-02
1.00529708e-01
6.73965812e-02
8.81107971e-02
5.70938103e-02
-5.25796115e-02
-1.43680153e-02
-9.46337581e-02
3.54584083e-02
-6.47886768e-02
7.69378096e-02
5.16841263e-02
1.58485025e-01
-2.74900589e-02
1.01420842e-02
-9.63373557e-02
3.35491836e-01
-1.22447468e-01
3.47268619e-02
-3.90834630e-01
-1.52437031e-01
-2.18686655e-01
-1.18550166e-01
-9.34101418e-02
-7.80464783e-02
1.88592687e-01
-1.07739441e-01
2.65269224e-02
3.05969617e-03
1.36253044e-01
1.67301521e-02
5.07274121e-02
1.36171773e-01
-1.99592024e-01
-1.02901682e-01
5.46858646e-02
1.60578176e-01
-9.79131013e-02
-3.15902494e-02
-3.17724645e-02
1.01719186e-01
1.11135095e-01
-1.10498354e-01
1.59413397e-01
7.67867938e-02
7.27627501e-02
-6.90376982e-02
-6.89963065e-03
-1.95746019e-01
8.17315578e-02
-9.31860693e-03
-8.38831961e-02
-1.10774457e-01
6.40292466e-02
-2.31757592e-02
-1.19051680e-01
1.42970365e-02
6.82027414e-02
5.82557619e-02
5.08915223e-02
3.14192533e-01
5.57153001e-02
-2.25037411e-02
-7.69495741e-02
9.11117420e-02
1.80388406e-01
1.48302227e-01
1.33822367e-01
3.42721380e-02
-1.73912376e-01
2.36522555e-02
-2.64195446e-02
6.41313493e-02
-2.41855979e-01
-2.64899153e-02
1.46806790e-02
-3.07642501e-02
1.72341511e-01
9.64972377e-02
7.73841813e-02
-1.51552232e-02
1.47373304e-01
-8.26540515e-02
-7.45273158e-02
-1.89551815e-01
1.34292826e-01
8.33946317e-02
1.47950068e-01
2.61060238e-01
8.73623937e-02
1.95750386e-01
9.64689925e-02
2.44826108e-01
-1.13767860e-02
-1.46655634e-01
-7.98412226e-03
1.44179687e-01
-6.97350651e-02
-1.83421932e-02
-4.58814874e-02
-7.66969323e-02
-5.24041019e-02
-4.75015827e-02
1.08373076e-01
2.20605001e-01
2.90440232e-01
-7.12876320e-02
-3.37956175e-02
2.33712032e-01
-2.28695218e-02
-9.19512138e-02
-2.52332181e-01
-1.76248088e-01
2.13459376e-02
-1.20038940e-02
-2.81441566e-02
-1.63945574e-02
-2.80624293e-02
-4.55956757e-02
3.38750929e-02
1.68555245e-01
6.39828146e-02
2.63362713e-02
-2.44572666e-03
1.66054457e-01
-3.40552591e-02
4.85384800e-02
-1.40224770e-01
1.72378764e-01
3.15572284e-02
-4.59497198e-02
-2.47430988e-02
-8.98411050e-02
1.54670656e-01
3.96766663e-02
1.69979736e-01
1.43970652e-02
1.20072074e-01
1.76499393e-02
3.50676961e-02
4.42083031e-02
-1.27235085e-01
-1.88024063e-03
-2.65743554e-01
-1.71493605e-01
1.03405483e-01
1.70923978e-01
5.95458671e-02
1.13491938e-01
2.43974134e-01
2.19849944e-01
1.19826831e-01
2.10682675e-02
-1.87731892e-01
-7.81246871e-02
2.95218844e-02
2.56049223e-02
-1.20406840e-02
1.30072329e-02
-3.08166713e-01
-2.05377135e-02
7.13175535e-02
1.75249964e-01
-1.19210174e-02
4.10979390e-02
-3.49195786e-02
-9.80233848e-02
-1.21803261e-01
2.70704664e-02
-1.66677050e-02
1.18374847e-01
-2.79799681e-02
7.76149449e-04
1.42837882e-01
-1.27653986e-01
4.27617356e-02
8.57495442e-02
4.09739278e-02
2.51983106e-01
1.95939824e-01
2.41759241e-01
-8.23110938e-02
-1.20115496e-01
1.07611921e-02
5.35073429e-02
1.18270792e-01
-1.04640849e-01
-1.08733982e-01
-6.84598237e-02
2.19420165e-01
-9.00814235e-02
-3.89120281e-02
-9.60047543e-02
1.28755391e-01
6.91457978e-03
5.96118569e-02
-3.17725097e-03
-3.50368805e-02
7.14373216e-02
-1.17546812e-01
-1.70356512e-01
4.86220531e-02
1.56267375e-01
8.82312283e-02
8.31482857e-02
-1.33383006e-01
2.04984117e-02
3.75312902e-02
1.45974487e-01
-8.23114142e-02
-2.93204430e-02
-1.56787157e-01
6.25052229e-02
7.91727565e-03
-4.31673266e-02
-3.18825394e-02
1.39281824e-01
7.05900788e-02
1.92661118e-02
5.27643599e-02
1.10332973e-01
-3.65824215e-02
3.30082364e-02
6.55284151e-02
-1.46608636e-01
1.04929134e-02
-3.68604553e-04
4.48141433e-02
2.08800524e-01
-1.92364845e-02
2.20859088e-02
-2.09852830e-02
-3.33976299e-02
-1.02329336e-01
9.69954953e-02
-1.53841907e-02
1.80306286e-02
-1.13299690e-01
-6.07726835e-02
8.55807364e-02
1.63772199e-02
-2.25727446e-03
4.74561527e-02
1.16259262e-01
-2.82953471e-01
8.06439295e-02
2.47124527e-02
-1.45868540e-01
-1.55958548e-01
3.81476134e-02
1.86260734e-02
-4.56710085e-02
9.86417532e-02
-5.03484793e-02
4.82525937e-02
2.31502354e-02
1.02971673e-01
1.98952220e-02
-2.58582830e-02
1.25597995e-02
8.43453780e-02
4.09989469e-02
-1.01108551e-01
4.22209920e-03
2.31439862e-02
-1.31914824e-01
-1.03401043e-01
2.49979347e-02
3.57081369e-02
-1.12951677e-02
-7.43051842e-02
-7.64373019e-02
2.20732298e-02
1.46505222e-01
8.99808779e-02
-3.99130359e-02
-7.74817616e-02
5.87518234e-03
6.71127588e-02
6.32821694e-02
-1.10221431e-01
-4.40460220e-02
9.03810840e-03
-1.18871547e-01
-1.80077143e-02
4.30783480e-02
1.33433461e-01
-2.30324734e-02
9.35345050e-03
9.71680880e-02
-5.25193214e-02
-9.26068574e-02
-1.62072852e-01
8.91197249e-02
1.12072878e-01
-9.59670637e-03
-1.39516629e-02
9.98588502e-02
-1.01806261e-01
-4.49333526e-02
-1.26388967e-01
6.67689815e-02
-2.61868209e-01
-2.59666681e-01
-3.28606904e-01
1.17847934e-01
9.74149108e-02
1.53461583e-02
1.45157084e-01
1.01471663e-01
-4.48945127e-02
-1.78014472e-01
-3.41819935e-02
3.67279425e-02
1.49187315e-02
-7.90095180e-02
9.89066586e-02
-1.54899145e-02
1.20304070e-01
-8.81582592e-03
7.63013959e-02
-5.95029630e-02
1.68731764e-01
-6.59993738e-02
7.15008080e-02
-3.36621888e-02
5.60350679e-02
8.82565393e-04
1.09635897e-01
-1.63041860e-01
-5.37460148e-02
-7.22733885e-02
3.56915034e-02
1.63220525e-01
-8.04423820e-03
-1.25934705e-01
-1.60802320e-01
9.21238493e-03
7.43776038e-02
4.98870015e-02
1.50880083e-01
-1.32188648e-01
-8.79656300e-02
-9.72946137e-02
8.50304291e-02
-2.10023299e-01
-6.97745532e-02
-2.46799961e-02
1.49395511e-01
4.27537262e-02
-2.87102796e-02
7.78540298e-02
1.23361893e-01
-1.73696782e-02
-9.09936707e-03
3.82338837e-02
6.59895390e-02
-3.71612050e-02
3.68053280e-02
-1.66810945e-01
8.09806660e-02
3.37719470e-02
-7.20088705e-02
-3.49418856e-02
8.99842829e-02
1.67616755e-01
1.88628674e-01
-7.33805299e-02
1.21973000e-01
1.46509660e-02
5.75535521e-02
2.02310830e-02
6.07187003e-02
-5.68769276e-02
-1.44298032e-01
-6.75281435e-02
8.66230130e-02
-2.64545735e-02
-9.10028741e-02
1.21595962e-02
1.06572948e-01
1.87905610e-01
1.14124164e-01
1.73160061e-02
7.14889467e-02
-3.37316841e-02
-4.59074043e-03
-9.78207737e-02
-1.37627602e-01
3.39340344e-02
5.50894029e-02
6.56551588e-03
-4.69118990e-02
2.04652816e-01
7.42647052e-02
7.93631524e-02
-8.29612911e-02
1.71728134e-02
7.10113794e-02
1.52410701e-01
1.15468115e-01
4.84588072e-02
1.69733595e-02
1.41186967e-01
1.16316099e-02
5.55185936e-02
6.35768520e-03
4.82469089e-02
2.73320395e-02
-1.26677036e-01
-1.17022313e-01
1.23192780e-01
4.92591932e-02
2.89523304e-02
7.86911622e-02
1.81419507e-03
-2.77216081e-02
2.51944102e-02
2.18359262e-01
3.05650514e-02
-8.15680344e-03
1.18808607e-02
8.34021866e-02
1.25935767e-02
-2.37392187e-02
2.47241301e-03
1.44732827e-02
8.94960687e-02
2.60152072e-02
1.01674996e-01
7.33001158e-02
1.96489636e-02
3.72469611e-02
9.91746634e-02
2.56495774e-02
-3.08949590e-01
-2.21000642e-01
-5.54181337e-02
-1.43479198e-01
8.64470843e-03
-5.39751910e-02
2.00373735e-02
-8.10568109e-02
4.25331518e-02
-5.10225911e-03
-2.48378739e-02
5.30241318e-02
-2.76420712e-01
-6.28829151e-02
3.62433419e-02
6.11095736e-03
2.88978387e-02
-3.43367681e-02
-1.22862719e-02
-3.82986777e-02
1.39984321e-02
6.07413948e-02
-1.25386968e-01
-1.73647031e-02
1.09705910e-01
4.39278334e-02
-7.27074547e-03
-1.01235896e-01
3.64444070e-02
7.34065324e-02
1.19332068e-01
9.96524245e-02
3.47401947e-02
-1.27161101e-01
8.01794156e-02
-8.22729766e-02
-8.81005675e-02
-2.42027700e-01
9.62890163e-02
-4.71248245e-03
9.67210159e-02
1.09723866e-01
1.07970804e-01
1.16866445e-02
8.63199458e-02
3.15438323e-02
-7.91653171e-02
1.66618135e-02
7.48858675e-02
1.11944847e-01
-6.33000769e-03
4.55603413e-02
1.95871264e-01
6.58289194e-02
3.41931432e-02
8.69233385e-02
1.87378656e-02
-1.15143247e-01
1.96830486e-03
1.00352541e-01
-2.43084803e-02
-9.36963558e-02
2.93132309e-02
-6.51317313e-02
6.03074916e-02
-1.08855188e-01
-1.74618941e-02
-8.33606347e-02
-6.17786348e-02
1.15822323e-01
-3.50982277e-03
4.64657396e-02
-7.85984024e-02
6.79716617e-02
2.91720890e-02
-2.14276053e-02
6.48928359e-02
6.39108196e-02
-7.54509568e-02
1.50874387e-02
-4.44324464e-02
-8.47356766e-03
1.41115785e-01
1.05756760e-01
3.08447294e-02
-1.49608463e-01
-6.73285425e-02
4.55750301e-02
5.29409712e-03
1.11140542e-01
2.84282444e-03
-1.14866853e-01
7.37468898e-02
1.34159356e-01
-3.68944481e-02
4.54327464e-02
-9.75720584e-02
4.02931497e-02
-1.91200390e-01
2.91168094e-02
4.16138321e-02
-3.93333063e-02
-7.09274933e-02
2.24157926e-02
1.11525953e-02
1.03401981e-01
1.96471214e-01
-4.45627309e-02
-1.99658386e-02
-3.58646326e-02
-4.95189726e-02
9.25917923e-03
-7.37603828e-02
-6.60307780e-02
-3.17042805e-02
2.92134341e-02
-8.52625147e-02
-1.08134501e-01
8.12943205e-02
-9.92568657e-02
1.03622608e-01
-2.32207403e-02
1.30167380e-01
-5.23764268e-02
-6.07968494e-02
8.34694281e-02
-6.02338091e-02
5.28155640e-02
2.82395594e-02
-9.55399685e-03
1.31022319e-01
1.41624227e-01
3.56243290e-02
-3.08664478e-02
6.74824342e-02
6.63003251e-02
6.22248976e-03
-9.67363920e-03
1.01398617e-01
-2.17610667e-03
8.49027652e-04
-3.24102379e-02
-1.87479332e-01
1.03371382e-01
2.73904912e-02
6.11905195e-02
7.81956762e-02
1.36023656e-01
-1.05812490e-01
-1.29430322e-02
-1.61734164e-01
-1.04414541e-02
8.76389816e-02
2.77307443e-02
3.78209800e-02
-1.74140781e-01
5.45430072e-02
6.31710663e-02
1.02900732e-02
1.56816188e-02
1.40096918e-02
-2.12253770e-03
2.94071555e-01
1.51465893e-01
-4.66772467e-02
1.19771935e-01
7.20400289e-02
5.38994968e-02
-5.62001914e-02
-1.63621992e-01
1.22571774e-01
-6.45072991e-03
1.37598887e-02
-1.98220816e-02
1.42290452e-02
9.70109715e-04
-2.89342571e-02
-3.03342994e-02
5.71383871e-02
4.45420574e-03
7.48156477e-03
4.33631754e-03
4.02443334e-02
-2.57044565e-02
-8.44449997e-02
-5.41066937e-02
1.37672275e-01
4.18918990e-02
-6.76284954e-02
-3.82636115e-02
3.68694291e-02
1.10073417e-01
7.85307307e-03
4.12726440e-02
8.91586617e-02
6.09946921e-02
-6.92653609e-03
6.14475198e-02
-9.00574178e-02
-9.62370783e-02
9.25205871e-02
8.49155486e-02
2.31568031e-02
4.47560512e-02
-5.82157671e-02
9.70016718e-02
-8.94801617e-02
-6.88612387e-02
2.54598055e-02
-8.33010450e-02
-3.09917107e-02
5.07900715e-02
-1.72237400e-02
-9.84018520e-02
1.32274017e-01
4.94987816e-02
-1.55041256e-04
1.17163761e-02
-3.65722068e-02
1.70973539e-02
2.67600510e-02
2.04463258e-01
-7.10608289e-02
-3.31056230e-02
-1.61149353e-02
-2.04588864e-02
3.01156938e-01
6.71624467e-02
-5.40072620e-02
-8.02488774e-02
2.89562810e-02
-9.14683715e-02
-7.81038916e-03
5.39019071e-02
1.77704647e-01
-5.59981316e-02
-7.95344636e-02
5.97746223e-02
-1.22224800e-01
1.67526811e-01
1.75347731e-01
1.25539461e-02
-1.45679608e-01
7.22988620e-02
-4.91302274e-03
5.05498387e-02
-7.90064782e-02
4.94313091e-02
5.97293712e-02
-5.58555238e-02
-9.74475667e-02
2.77719107e-02
3.74402814e-02
1.78750921e-02
-1.38232985e-03
-1.77184492e-01
-3.27600509e-01
-1.05312750e-01
-8.97820070e-02
-8.79419968e-02
-1.58722445e-01
-7.71152377e-02
-1.52081192e-01
-2.68920779e-01
-8.84351134e-02
2.55189370e-02
2.48637944e-02
9.38307941e-02
-7.18041360e-02
4.77024429e-02
-5.20763509e-02
-7.65646845e-02
9.25940350e-02
-1.19285487e-01
-3.78940664e-02
-7.43751004e-02
-1.96046941e-02
-6.81837052e-02
1.17301159e-02
1.39363736e-01
1.33561626e-01
2.84406338e-02
-3.62076685e-02
-3.51811796e-02
1.14850819e-01
2.04545975e-01
8.60986114e-02
-3.90647762e-02
-7.44411498e-02
-1.76862925e-01
-3.91130075e-02
-9.31542665e-02
-1.11637831e-01
1.69833712e-02
5.96495122e-02
-2.01223008e-02
-3.94561887e-02
-1.89005919e-02
5.54823503e-02
4.03593667e-02
6.79585412e-02
-7.53847361e-02
1.26175731e-01
5.00013456e-02
-1.18795052e-01
-9.59701557e-03
6.88980594e-02
2.07359474e-02
6.60480186e-02
4.52258997e-02
-4.62260433e-02
1.37923434e-01
1.57328770e-01
-1.37349619e-02
1.92421954e-02
-4.28913310e-02
9.40775964e-03
7.81484589e-04
9.48057920e-02
-2.11320017e-02
1.05376728e-02
-5.58416359e-02
1.32326767e-01
-1.01786584e-01
7.22686648e-02
-8.31991900e-03
-9.45224687e-02
1.61936998e-01
1.91176116e-01
-4.82463241e-02
7.24045634e-02
2.04830423e-01
1.74789697e-01
3.88014014e-03
2.01666206e-02
-1.23619139e-01
-5.25723398e-02
-2.70880330e-02
9.21756327e-02
5.28724715e-02
5.62782213e-02
-6.25329837e-02
-7.84136504e-02
6.12850813e-03
1.56969056e-01
7.28965476e-02
-1.16558604e-01
-6.26107156e-02
-5.11894412e-02
-9.59364399e-02
7.68601224e-02
-6.13732114e-02
9.71244574e-02
4.29984815e-02
-3.53044197e-02
-1.33762378e-02
8.58552009e-02
2.05006078e-02
9.47477371e-02
3.46739292e-02
8.67055450e-03
1.02636237e-02
-1.23802185e-01
-3.49712223e-02
-3.79476026e-02
-1.04061745e-01
-1.50544778e-01
-1.45494685e-01
5.30018564e-03
-3.42693664e-02
-3.82775739e-02
1.41792977e-02
1.86642986e-02
-1.84463710e-01
-2.21816346e-01
-1.23981170e-01
-8.28735977e-02
-2.66116150e-02
-1.41394734e-01
8.26682225e-02
7.26170093e-02
1.61455944e-01
-1.86821148e-02
-1.06578909e-01
-1.64678589e-01
-2.15167731e-01
1.53501496e-01
2.25174069e-01
-3.91406976e-02
-2.38875583e-01
9.79233012e-02
9.31210518e-02
3.37592103e-02
-9.08422247e-02
-1.19278440e-02
-7.51637369e-02
-5.93446046e-02
-9.13792029e-02
-4.49395832e-03
1.04382392e-02
-1.37633188e-02
3.41477469e-02
1.10763712e-02
-3.85891311e-02
4.82330658e-02
-1.16555266e-01
1.36580188e-02
-1.37157246e-01
2.70930100e-02
6.06211759e-02
-1.12574428e-01
-6.18764348e-02
-1.15957828e-02
6.34576827e-02
-8.12481996e-03
2.27619875e-02
2.43792031e-02
-9.77131054e-02
-1.89048909e-02
5.67697585e-02
5.18346541e-02
-9.62953866e-02
2.01765031e-01
9.41110626e-02
1.40340487e-02
-2.28645727e-01
-6.72415718e-02
2.38131359e-02
-5.67987785e-02
-4.72789556e-02
-1.59226619e-02
1.31363615e-01
4.51201806e-03
2.72542890e-02
7.94246048e-02
8.59658942e-02
-2.09308229e-03
4.94897105e-02
-5.28841699e-03
8.92613158e-02
-6.68386370e-02
-1.86032832e-01
-1.91917583e-01
-9.91963521e-02
7.31432140e-02
-4.31505255e-02
5.93806393e-02
2.89284978e-02
3.91058661e-02
-9.78665985e-03
4.52053025e-02
1.11836351e-01
1.76092491e-01
-7.00350571e-03
-1.71185937e-02
7.61477500e-02
5.54887131e-02
-3.75941135e-02
-3.01046729e-01
-2.67387003e-01
-1.04123279e-01
-2.34363556e-01
-1.30568910e-02
1.23558059e-01
2.45757923e-02
2.24555004e-02
-3.12581509e-02
7.42654130e-02
-3.00616454e-02
9.86509770e-03
-1.01433583e-01
-9.68985781e-02
-1.10549979e-01
-2.28729751e-03
5.35285920e-02
-3.94856855e-02
6.24105372e-02
4.59324662e-03
-1.76677197e-01
-1.91744715e-01
2.75782552e-02
7.85063207e-03
-1.07216120e-01
-1.30766913e-01
-2.20560227e-02
-2.50557102e-02
1.96972564e-01
6.95499033e-02
3.51709872e-02
-4.85289544e-02
3.39436442e-01
-2.98131984e-02
-5.68730459e-02
-4.92790714e-02
1.08101428e-01
1.93881150e-02
8.71972591e-02
2.91878041e-02
3.04509643e-02
1.57635540e-01
7.48404115e-02
-3.20717059e-02
-1.99207868e-02
-5.81154712e-02
5.18330969e-02
7.16980770e-02
-2.15214461e-01
-2.12821424e-01
-1.15874149e-01
-4.58658971e-02
-2.54216015e-01
-3.13237250e-01
-1.52287394e-01
-6.52669172e-04
-8.07005689e-02
-3.94540653e-03
-8.94773602e-02
1.25385420e-02
1.27614602e-01
-1.09515555e-01
-5.65986522e-02
7.01962039e-02
-2.29025595e-02
-1.12437285e-01
6.29397556e-02
1.99136194e-02
2.37917863e-02
6.09962735e-03
-1.28033441e-02
-1.49116009e-01
-1.05993800e-01
-3.75175513e-02
4.08624671e-02
1.20359093e-01
-2.00153366e-01
8.35409667e-03
-2.42251041e-03
1.03568427e-01
-5.93076870e-02
2.86343042e-02
1.24113215e-02
7.31464103e-02
-4.32927758e-02
-1.83628760e-02
-1.12026446e-01
-1.26821369e-01
-9.44974497e-02
1.33251920e-01
8.08637440e-02
5.12532517e-02
-7.93392435e-02
1.38535962e-01
-1.52500331e-01
-1.40103102e-02
-9.66179967e-02
2.77223233e-02
8.09608493e-03
1.81213737e-01
1.44035015e-02
1.51401788e-01
2.25451961e-02
-7.56242797e-02
1.58840403e-01
-4.20691222e-02
1.95093453e-02
9.25445259e-02
6.23794533e-02
-2.10768819e-01
-6.66363835e-02
3.89067717e-02
-1.48139849e-01
-2.87681003e-03
-1.01048939e-01
-1.53021887e-01
3.68733592e-02
9.12523940e-02
3.10226120e-02
8.73239562e-02
1.11838475e-01
3.55649963e-02
-1.66047849e-02
1.94123179e-01
-9.11593735e-02
2.91943520e-01
-3.42916325e-02
1.01238281e-01
-9.74571556e-02
-2.01141745e-01
-2.33391657e-01
-4.11880277e-02
2.22537648e-02
4.79036942e-02
4.90335971e-02
-1.34906853e-02
2.01958250e-02
1.06792208e-02
-1.05891131e-01
-1.03041373e-01
4.67146970e-02
1.08844750e-02
-8.89700372e-03
-9.08737183e-02
3.62576731e-02
-1.76662933e-02
-6.77623898e-02
-1.55824229e-01
-3.27558219e-02
-1.24116749e-01
-4.30539716e-03
-4.51049302e-03
-1.11676320e-01
1.34504020e-01
2.46424936e-02
2.44749654e-02
-2.45124176e-01
6.35938793e-02
9.31071263e-05
-2.92598903e-02
-1.90833434e-01
3.47769782e-02
-9.82435793e-03
2.31449176e-02
1.56966485e-02
-5.34124747e-02
1.20470740e-01
1.36720434e-01
-1.27604201e-01
7.51265287e-02
2.11185738e-02
9.02838409e-02
-1.31522968e-01
7.94897005e-02
-5.50321117e-03
-1.37253970e-01
4.08238359e-02
-1.31130349e-04
-9.67825055e-02
1.30311511e-02
1.20376237e-01
3.24115232e-02
6.25749752e-02
-1.94747448e-02
3.97563726e-02
-1.55577093e-01
-9.04962048e-02
-4.19209339e-02
-1.80615842e-01
-1.44442245e-01
-1.55245895e-02
2.41483208e-02
-1.05505906e-01
-3.29585522e-02
-1.80123031e-01
-9.92923230e-02
6.59469590e-02
1.47303462e-03
8.43951777e-02
-9.79176685e-02
-9.82835218e-02
-1.88064750e-03
-6.32910281e-02
-1.89413637e-01
-9.91490409e-02
1.96107365e-02
1.23142041e-01
1.80863403e-02
-2.05799222e-01
1.39027253e-01
-1.09658688e-02
1.08185805e-01
1.25066653e-01
1.24680335e-02
-2.69905776e-02
-4.35043359e-03
1.86446413e-01
-2.68742830e-01
-1.86273277e-01
2.02633217e-01
-6.73137903e-02
-1.97475888e-02
1.06313206e-01
7.27351382e-02
-2.19032511e-01
-5.19757494e-02
-6.17002882e-02
-1.38582140e-01
7.95157179e-02
2.17042547e-02
7.70183653e-02
-3.38861868e-02
2.55350173e-02
-3.99534851e-02
-1.42349362e-01
7.87638947e-02
2.38304175e-02
2.47661192e-02
1.88501224e-01
1.21619143e-01
2.37170741e-01
-1.59256846e-01
-1.92671493e-01
-7.49623850e-02
9.45860744e-02
-9.26374570e-02
-2.90056504e-02
-1.79103181e-01
-4.51690459e-04
-2.40171468e-03
7.81879202e-02
-3.75356004e-02
-1.95133269e-01
-2.52934312e-03
4.78073955e-03
4.30664644e-02
-3.42052467e-02
5.52533865e-02
2.92689148e-02
1.05535299e-01
1.22329131e-01
6.15394786e-02
-1.82727035e-02
-1.09765138e-02
-1.97839513e-01
-6.14394143e-04
3.34669724e-02
-3.33113112e-02
2.23466188e-01
1.21707179e-01
-7.20456392e-02
6.19261079e-02
-2.47028425e-01
-4.90835942e-02
6.10120036e-02
3.07650238e-01
2.53628820e-01
1.35816440e-01
9.45183635e-02
-1.95399448e-02
-4.07040752e-02
1.17028311e-01
-2.21602414e-02
5.07825927e-04
-2.93299526e-01
3.44740949e-03
1.04029635e-02
1.02475479e-01
-3.36534679e-01
3.45531963e-02
-5.51202111e-02
-2.48776209e-02
2.02286243e-01
-5.09165227e-02
-8.82456377e-02
-3.91720384e-02
1.24538146e-01
-1.17830440e-01
-3.94452251e-02
-6.71239719e-02
-7.62448460e-02
-6.08657338e-02
1.64784744e-01
-2.20863111e-02
-1.92414477e-01
-1.06277280e-02
6.22794107e-02
9.76959392e-02
-8.54930934e-03
-8.88417065e-02
1.40175596e-01
4.51651700e-02
-1.76206961e-01
-1.36973158e-01
3.63526158e-02
8.80973935e-02
-7.10974410e-02
-4.22907397e-02
-5.58274984e-02
3.92704923e-03
1.26071960e-01
-2.01281205e-01
6.37526717e-03
5.24451025e-02
1.64306257e-02
1.13621108e-01
-3.91973369e-02
2.97586713e-02
2.01687887e-02
1.01793120e-02
-5.63064180e-02
-1.00904770e-01
-1.08924741e-02
9.28683653e-02
6.35662377e-02
-2.03167692e-01
-7.55117983e-02
-9.87172723e-02
1.38713017e-01
2.00313568e-01
6.30741268e-02
8.45690295e-02
-6.79483041e-02
-3.52384672e-02
-1.05970398e-01
3.06529365e-02
-1.19858265e-01
2.23820344e-01
1.25370771e-01
-5.04114199e-03
1.38846248e-01
4.54768684e-04
1.83753371e-01
-6.24391176e-02
-2.85009980e-01
-3.37217331e-01
-8.05585161e-02
1.52904252e-02
1.19755022e-01
6.23116642e-02
-1.02219075e-01
3.17495279e-02
-4.97797467e-02
-2.09842548e-01
1.17061198e-01
4.57810573e-02
1.66963809e-03
5.74793331e-02
1.15614571e-01
4.48265672e-02
-5.12872599e-02
-2.57446878e-02
2.79434323e-02
2.45833844e-02
1.43611044e-01
2.57972777e-01
-6.57308102e-02
-2.10685208e-02
-2.12512910e-01
7.40145743e-02
-5.41608641e-03
-9.87799168e-02
-6.65382370e-02
-1.04999885e-01
9.58444849e-02
4.88978475e-02
2.50411760e-02
-1.78789660e-01
-1.36273457e-02
-1.97696656e-01
-8.08956474e-03
-7.77780041e-02
-9.49782133e-02
-8.98153186e-02
-1.22126646e-01
-1.35955304e-01
-3.50764617e-02
6.56829625e-02
3.30206752e-02
1.67255014e-01
-2.13638358e-02
-5.20067886e-02
1.20974004e-01
4.00344908e-01
9.77155846e-03
-1.40255149e-02
-7.41817132e-02
-5.43430038e-02
2.19639372e-02
-1.57325100e-02
-5.92193045e-02
-4.48827036e-02
1.74253225e-01
-4.80673648e-02
-1.46264406e-02
-2.17269491e-02
1.03816465e-01
-3.40832286e-02
4.45646793e-03
8.55684206e-02
-6.53073266e-02
6.53480813e-02
1.08406246e-02
1.56459466e-01
9.66611579e-02
1.63459349e-02
-9.26781073e-02
3.19729038e-02
6.57477826e-02
-1.15379550e-01
7.63876587e-02
1.89801618e-01
-1.35309801e-01
1.25887826e-01
1.86006352e-01
1.68612137e-01
-4.52195555e-02
1.09148070e-01
-2.85002869e-02
-4.05458063e-02
-2.06730902e-01
-1.44864395e-01
-1.28419027e-01
-7.46531039e-02
-5.85261285e-02
-1.88523233e-02
3.62684205e-02
4.07727659e-02
1.28399029e-01
-4.32225578e-02
-3.34446654e-02
5.56601100e-02
-6.46671504e-02
-7.25964550e-03
-8.04824978e-02
3.80989052e-02
-3.14964261e-03
-3.54111791e-02
-4.24039178e-02
8.77568424e-02
1.07598156e-01
5.74860536e-02
-8.90652016e-02
2.75874007e-02
1.37113735e-01
-3.26576270e-02
2.51437016e-02
2.45821804e-01
-1.23368807e-01
-7.09478781e-02
-1.92343462e-02
-1.48675859e-01
-8.61811861e-02
2.64836866e-02
-3.60716134e-02
3.40116434e-02
7.10374024e-03
5.90524487e-02
-2.37192512e-02
6.91661909e-02
7.85574391e-02
-6.98664933e-02
-7.33674541e-02
1.53766042e-02
-1.67597741e-01
-7.60853961e-02
-3.05894427e-02
-1.42849848e-01
6.46911412e-02
8.04198980e-02
4.97539118e-02
5.05234823e-02
9.01282728e-02
-1.01936860e-02
1.62406825e-02
1.46757975e-01
-2.37544984e-01
-9.04502049e-02
-1.88185479e-02
8.47278815e-03
-1.40650690e-01
-2.61060148e-01
-1.48365065e-01
-4.07640599e-02
1.01060257e-03
4.22956981e-02
6.68462664e-02
-5.65569811e-02
1.24569178e-01
6.62574992e-02
-3.64783336e-03
1.88583955e-01
4.86182012e-02
-2.51972258e-01
-6.33183941e-02
1.64958507e-01
5.43972924e-02
4.11567055e-02
-9.22419596e-03
-1.54531881e-01
2.26919606e-01
-2.65021045e-02
8.90795290e-02
7.86358044e-02
4.80895303e-02
1.25569329e-02
7.41631314e-02
-5.93890883e-02
6.69633299e-02
-9.29675177e-02
-3.42425913e-01
-3.49698484e-01
1.36128336e-01
7.82740042e-02
-1.45829633e-01
-1.12911791e-01
-1.25392482e-01
6.89676702e-02
-8.10065866e-03
-1.66464169e-02
-7.61001483e-02
5.80092482e-02
-6.90016747e-02
6.13555964e-03
-4.25933227e-02
-2.29352102e-01
-8.51618648e-02
2.86262129e-02
-2.72849202e-01
-1.39400288e-01
-7.77194872e-02
-5.41122332e-02
-6.87724352e-02
-1.94097171e-03
-8.88788477e-02
6.03204183e-02
1.52254432e-01
-8.43512639e-02
-8.60481337e-02
-6.95621409e-03
2.13790655e-01
-6.69644549e-02
-2.55647358e-02
8.65211114e-02
6.47073165e-02
1.69512942e-01
6.08700104e-02
5.92606962e-02
1.86635181e-01
3.53401564e-02
8.17905441e-02
-3.71591304e-03
1.11876778e-01
2.78608426e-02
4.25707502e-03
-3.93959768e-02
-1.28606871e-01
-9.01125371e-02
-1.27054647e-01
1.36514881e-03
1.39049627e-02
-1.68046549e-01
7.10739940e-02
2.14334112e-03
-3.70795615e-02
-2.90205181e-02
-4.95743826e-02
-1.24487109e-01
-1.11034159e-02
1.06079735e-01
9.19950157e-02
1.39081195e-01
-3.09971534e-03
1.09496824e-02
-8.00848845e-03
2.17111930e-01
-3.90837528e-02
5.39145060e-03
1.49867916e-02
1.41634315e-01
8.71760994e-02
1.28874909e-02
3.08351545e-03
1.42917976e-01
1.54407308e-01
-1.18907824e-01
1.14556961e-01
7.84768257e-03
-1.01504795e-01
-6.02933839e-02
3.15081514e-03
-4.41050567e-02
-9.19152349e-02
-2.50074089e-01
-1.46630973e-01
4.84072715e-02
-1.24775082e-01
8.46086964e-02
-6.37094975e-02
-6.22381121e-02
1.58790097e-01
1.11573391e-01
-4.92077731e-02
-1.04090996e-01
8.74932036e-02
6.71674460e-02
2.46316455e-02
7.09076151e-02
-7.84420818e-02
-8.65270123e-02
2.08559949e-02
2.07371444e-01
3.63988578e-02
5.98105229e-02
-6.86387643e-02
-4.87840436e-02
1.00456506e-01
-1.33921683e-01
-8.53133723e-02
-1.68221407e-02
8.11996218e-03
2.72982498e-03
2.62248758e-02
6.92102984e-02
1.55343963e-02
9.84119996e-03
-4.71204482e-02
4.82656211e-02
-5.16195744e-02
-2.39158437e-01
4.48242128e-02
1.98293328e-01
1.09525688e-01
-8.63205492e-02
-7.13123456e-02
4.55919243e-02
6.01878054e-02
6.71947300e-02
-2.75461618e-02
-1.46382466e-01
-2.24403232e-01
5.02391011e-02
1.14962328e-02
4.56475951e-02
-5.28355828e-03
-5.06122038e-02
-4.05535698e-02
5.11003542e-04
1.78025514e-01
4.02935818e-02
-1.55127674e-01
-1.36147305e-01
1.16864732e-02
-5.20388335e-02
1.00262873e-01
1.41148195e-01
3.46900485e-02
9.56177190e-02
7.22046290e-03
1.26131931e-02
4.09830213e-02
-4.68046814e-02
-8.08920115e-02
8.95332322e-02
-5.09427511e-04
-1.03359357e-01
4.89321575e-02
1.93935692e-01
-1.33218929e-01
3.56241688e-02
8.94607883e-03
2.70510409e-02
-1.08870052e-01
-2.44375214e-01
-1.01602316e-01
1.11821048e-01
-7.84085989e-02
-5.79207055e-02
-7.60119408e-02
-2.53828615e-02
1.24110848e-01
2.85920706e-02
-2.74143592e-02
-1.79505404e-02
7.54419714e-02
8.26263651e-02
1.01569705e-01
7.43572712e-02
7.17768893e-02
-1.15301006e-01
2.36251224e-02
2.07021702e-02
1.15875257e-02
-3.45826708e-02
-9.94582549e-02
1.25245824e-01
1.42376944e-01
1.19596861e-01
1.58469826e-02
1.40161114e-02
1.05717264e-01
2.10174406e-03
-5.07117175e-02
-1.65524349e-01
-2.46323004e-01
-1.44455656e-01
-1.52959093e-01
-1.48612782e-01
-9.21614096e-02
-1.64955040e-03
1.29284918e-01
-1.06805913e-01
-5.96092343e-02
9.70639139e-02
7.34254941e-02
5.75155765e-02
-1.04829692e-03
2.18992475e-02
5.20188585e-02
3.98608670e-02
-1.60680145e-01
-1.72892004e-01
-1.03531867e-01
-9.49608535e-02
4.86016311e-02
2.30804887e-02
5.69621883e-02
-2.79009063e-02
4.93885390e-02
6.49467930e-02
2.51598712e-02
1.09092608e-01
-8.58262032e-02
-3.27016376e-02
-6.49445364e-03
1.32762017e-02
-1.06548078e-01
-2.48107702e-01
5.17752245e-02
1.62221849e-01
1.21761598e-01
-6.80641681e-02
-6.30806461e-02
-6.11415990e-02
4.05880697e-02
5.62475882e-02
9.17546637e-03
-1.20215878e-01
-5.86824045e-02
7.19591156e-02
8.49012211e-02
8.56168792e-02
1.19068734e-02
1.39368102e-02
-1.24546796e-01
-1.32153824e-01
1.27716094e-01
-1.92982312e-02
-4.02031504e-02
6.01971857e-02
1.27490731e-02
2.35040653e-02
1.15699999e-01
4.97198142e-02
-1.80185854e-01
-1.51265915e-02
6.97345734e-02
-1.52055487e-01
9.54551101e-02
1.34108989e-02
-1.16956465e-01
-9.52971447e-03
-1.35052666e-01
9.67539102e-02
1.76826596e-01
9.49219391e-02
-1.86588615e-01
4.49953228e-02
6.71790689e-02
-9.31484029e-02
-2.11745322e-01
8.21552053e-02
1.07309088e-01
-2.16380790e-01
-2.14061573e-01
-1.92662314e-01
4.16985899e-02
2.67755874e-02
7.46676549e-02
-5.86703159e-02
-1.13032416e-01
-3.41080725e-02
1.89689264e-01
-2.67872456e-02
-7.49412179e-02
8.05811733e-02
1.62455484e-01
1.05640717e-01
-5.50759360e-02
-2.35067774e-02
1.06148876e-01
3.17767948e-01
4.16196167e-01
1.02546789e-01
1.89797625e-01
1.20239392e-01
-3.05704679e-02
-1.15664955e-02
5.37807234e-02
1.00383170e-01
-9.17066112e-02
4.37261863e-03
-1.31052092e-01
-5.26721701e-02
-2.02070981e-01
-1.42231258e-02
2.69886982e-02
-2.20406149e-02
-5.54581620e-02
9.16943252e-02
8.43432173e-03
-1.35700330e-01
-3.45438011e-02
2.50721127e-02
2.89470330e-02
6.13020211e-02
8.25458486e-03
4.23342660e-02
1.80510804e-01
6.28691837e-02
-1.79826450e-02
-1.62040651e-01
-5.64345121e-02
5.27691245e-02
6.01741225e-02
2.53970087e-01
1.33453175e-01
5.25052138e-02
-7.15685962e-03
2.76116114e-02
-6.81927241e-03
-2.10585725e-02
1.10635623e-01
-1.19783692e-01
-2.15704769e-01
-2.27481313e-02
8.69484022e-02
2.83304304e-01
-3.01977508e-02
7.47757591e-03
-4.52808142e-02
-7.33299106e-02
3.68914008e-02
-5.44359733e-04
-7.06301332e-02
-2.01646313e-02
1.15656350e-02
4.34129983e-02
-3.96132842e-02
7.50696752e-03
-3.70056890e-02
2.20072549e-02
-1.04556695e-01
-9.01584700e-02
2.92297099e-02
3.61631401e-02
-8.70709715e-04
-3.53177194e-03
-4.96757962e-02
-1.03642307e-02
-6.41099317e-03
-8.21140185e-02
-4.46631461e-02
3.61925773e-02
-2.75225360e-02
5.35920374e-02
2.50273719e-02
-2.22048350e-02
2.62742415e-02
1.14511177e-02
-2.51828544e-02
2.17597689e-02
3.22144362e-03
-4.18896377e-02
-9.29879304e-03
-4.00468335e-02
-6.06282502e-02
1.94825418e-02
2.24537048e-02
-3.95824580e-04
1.72333699e-02
4.18076739e-02
1.69997308e-02
-1.98871717e-02
-9.37451273e-02
-7.63608217e-02
-4.10792418e-02
-1.92597434e-02
3.38792638e-03
-3.29858698e-02
1.07898843e-02
-3.17059718e-02
2.19369493e-02
1.73074249e-02
-3.32132652e-02
-4.92247753e-02
-7.37234065e-03
-6.06705844e-02
5.81435720e-03
-9.33831185e-02
-8.62543359e-02
-2.94422954e-02
-3.25703248e-02
-6.27627131e-03
4.31006169e-03
1.92528367e-02
2.09541805e-03
-2.46226322e-02
4.13184017e-02
-7.18700539e-05
-1.07552027e-02
-2.68979073e-02
5.60784265e-02
-3.34497541e-02
-8.07793066e-02
-2.05782540e-02
3.06622796e-02
1.76295359e-02
-2.99731717e-02
-6.74762502e-02
3.11252885e-02
1.43013289e-02
-3.13226320e-02
-8.62765163e-02
-3.08373235e-02
-4.30452302e-02
3.78765352e-02
-4.79690246e-02
-5.09039424e-02
1.48929805e-02
-9.80294868e-03
-2.97018979e-02
-9.69982818e-02
-2.81556640e-02
4.91213500e-02
4.94112149e-02
-2.36529447e-02
-9.83871869e-04
-3.43378708e-02
4.56488393e-02
-2.70539918e-03
-7.13215955e-03
-3.34972255e-02
-4.42781821e-02
-6.51163086e-02
-4.23668185e-03
-3.43654752e-02
-5.07074334e-02
-9.60547198e-03
-6.04490712e-02
-6.67917877e-02
4.40357700e-02
-4.75618355e-02
2.15795729e-02
-5.81263937e-02
-4.38688248e-02
4.00881618e-02
-4.28437740e-02
-6.32313192e-02
3.79308686e-02
-1.64469872e-02
-5.21076545e-02
2.45820172e-02
-7.57010281e-02
-1.00357234e-01
-9.29377377e-02
2.34012101e-02
-5.00171743e-02
-1.59423761e-02
2.56008524e-02
-5.57483807e-02
-5.83770499e-02
-6.46491349e-02
5.74090239e-03
4.27614078e-02
-4.84522842e-02
-2.98033585e-03
5.21942275e-03
-9.43742786e-03
-2.38521723e-03
-7.03655034e-02
-3.82621810e-02
3.24749872e-02
-8.52482319e-02
-8.56018513e-02
-2.81044208e-02
-2.48858519e-02
2.13626660e-02
7.22283265e-03
-6.07327074e-02
-6.94976971e-02
-1.33012710e-02
-7.82680139e-02
-8.06000177e-03
-9.92839262e-02
-5.33642992e-02
-7.15741366e-02
-3.53434198e-02
1.49954008e-02
-3.58982645e-02
-5.84355406e-02
-5.26245199e-02
-2.61174068e-02
-8.69212206e-03
-1.24619352e-02
2.49806903e-02
-6.12831190e-02
-1.03972599e-01
-6.42966256e-02
-4.81035002e-02
-2.96530090e-02
-3.49673489e-03
-6.14059754e-02
2.52480656e-02
-6.49017543e-02
-9.82908066e-03
-1.45943109e-02
5.52769564e-02
-2.03000940e-02
-2.62277834e-02
-3.44090387e-02
-4.29237708e-02
-7.58600608e-02
-4.55628335e-02
-2.64179278e-02
-3.93219739e-02
-4.22016755e-02
5.00475839e-02
-5.74886240e-02
3.40975286e-03
-1.38669799e-03
-3.72077599e-02
-2.12659943e-03
2.25140620e-02
-3.40014733e-02
-4.73703966e-02
-5.74491099e-02
4.12694179e-02
-5.95778897e-02
1.65606178e-02
1.12572024e-02
1.58757232e-02
-1.14492930e-01
2.76440717e-02
-4.85507324e-02
-4.82543446e-02
-4.96539697e-02
3.80942933e-02
-3.33983190e-02
1.18340412e-02
5.19768074e-02
2.87443791e-02
4.47763465e-02
6.34773029e-03
-2.35047806e-02
5.90009727e-02
-6.13334663e-02
-3.40147130e-02
2.64426991e-02
-8.23745504e-03
-2.01254189e-02
4.27384861e-02
1.66614652e-02
-8.06138590e-02
1.12653971e-02
-4.93291281e-02
3.82882953e-02
-2.35276166e-02
-6.87218234e-02
-1.27173150e-02
2.20943764e-02
-1.27803143e-02
-9.24395979e-04
-7.00534880e-03
-1.63766965e-02
4.92772013e-02
-6.31688163e-02
-1.80864446e-02
3.31718870e-03
-3.06851920e-02
-3.25941332e-02
-3.45772365e-03
5.58895059e-03
2.59421207e-02
-7.40210488e-02
-7.98470005e-02
-2.98409387e-02
3.26054394e-02
-3.90708335e-02
-9.13658291e-02
-5.54155931e-02
3.81451705e-03
-3.35743316e-02
3.10654920e-02
1.36139080e-01
-1.33754998e-01
-1.16792753e-01
1.85276177e-02
2.87753250e-02
-5.76782860e-02
5.74157126e-02
8.45016092e-02
-5.76158799e-02
-3.79399471e-02
1.43837601e-01
2.53146067e-02
5.06755710e-02
3.12513821e-02
1.40191227e-01
1.82037592e-01
5.37207490e-03
-1.83813080e-01
-1.97995827e-02
-1.16325125e-01
-4.66541126e-02
-6.37054071e-02
7.66945705e-02
9.61631536e-02
-6.20101951e-03
-1.33575439e-01
-2.10405916e-01
7.80912340e-02
-1.14756197e-01
-5.83127476e-02
1.18352085e-01
1.36326849e-01
-2.09336609e-01
-1.21690236e-01
-1.81008115e-01
3.76370326e-02
-7.70642310e-02
1.01300895e-01
3.97935510e-03
1.23194657e-01
-5.57964705e-02
3.84559333e-02
-5.64757176e-02
6.53915778e-02
1.23196639e-01
4.02413681e-03
-2.01153960e-02
-2.79136389e-01
-9.00567099e-02
-2.10770145e-01
2.30721503e-01
8.17689002e-02
-2.86795259e-01
-2.90784631e-02
1.63440660e-01
-7.18379915e-02
-7.43150860e-02
4.13224325e-02
1.21560402e-01
1.12064198e-01
4.27897740e-03
6.17393106e-02
-9.79701728e-02
5.43717593e-02
-3.21224123e-01
1.07564718e-01
7.88032040e-02
-2.11446453e-02
-1.19730867e-01
4.32939753e-02
-2.12935239e-01
4.63133901e-02
-1.58868343e-01
-6.29150569e-02
-6.42784014e-02
4.37421836e-02
-4.42506644e-05
-2.25067317e-01
-1.44129738e-01
-1.22655258e-01
-6.22940548e-02
-1.69759899e-01
-2.80273948e-02
-4.67266999e-02
-7.97712654e-02
3.44595127e-02
1.49499491e-01
1.01259857e-01
4.90462072e-02
1.15931049e-01
1.52374536e-01
-1.74733661e-02
5.47053330e-02
6.30525053e-02
3.34747620e-02
7.65195414e-02
-1.81776211e-02
-2.10332617e-01
-9.97797251e-02
-8.13692212e-02
-7.19963908e-02
-8.92740116e-03
8.67445990e-02
-1.09305732e-01
1.22779757e-01
7.90950097e-03
1.47570074e-01
-2.08067950e-02
2.05761120e-01
2.11952012e-02
-2.25507110e-01
-2.05291927e-01
1.59078792e-01
-1.43258562e-02
-8.84853452e-02
3.13778855e-02
-9.54788774e-02
-4.50786389e-03
1.84006453e-01
1.17125735e-01
-9.57846716e-02
-2.70266104e-02
1.16646476e-01
-7.25405812e-02
1.12084888e-01
1.58446617e-02
4.60444987e-02
-7.61541650e-02
-4.89619523e-02
-9.71233249e-02
-1.00085571e-01
-8.14053118e-02
1.14940368e-02
1.15007469e-02
1.08114816e-01
3.15998346e-01
1.09943844e-01
-2.89998762e-02
1.10589172e-04
-6.19684719e-03
-1.30811902e-02
-1.76601969e-02
-5.64983338e-02
-3.93612720e-02
-4.80076373e-02
-1.09959722e-01
2.91460585e-02
-4.74318936e-02
1.22004580e-02
8.91650543e-02
1.04920298e-01
7.32311010e-02
7.74826035e-02
5.53110614e-03
1.43099099e-01
6.65502797e-04
4.68179099e-02
9.00966600e-02
6.32220358e-02
1.77753326e-02
-8.41518193e-02
1.31058935e-02
-1.41099080e-01
-3.13116722e-02
-2.70137675e-02
2.87788305e-02
-6.17041290e-02
1.62698969e-01
-5.78665314e-03
-1.50339270e-04
2.63162330e-03
1.11561105e-01
-5.90846539e-02
7.75416344e-02
2.16756109e-02
1.06871761e-01
1.67983212e-02
5.11429049e-02
1.73575744e-01
1.43556222e-01
2.45692674e-02
-1.04199506e-01
9.01360065e-02
1.32059276e-01
1.89509556e-01
1.47358581e-01
8.95704492e-04
-2.63508230e-01
-4.73360866e-02
1.19108288e-02
9.21419784e-02
-1.00133501e-01
1.28853917e-02
-2.25652620e-01
-2.20464356e-02
9.62977782e-02
-1.25790462e-01
2.02538148e-02
1.74282908e-01
-1.75651133e-01
-3.47061269e-02
9.52032283e-02
1.00972824e-01
4.96091396e-02
8.81122276e-02
9.42295417e-02
3.09165176e-02
2.77532563e-02
-2.87105739e-01
-5.32134809e-02
2.46901333e-01
1.25437617e-01
1.54354507e-02
-2.68061105e-02
1.55328766e-01
-1.28944844e-01
3.17073315e-02
-2.61633005e-03
-1.40320659e-01
-1.41488031e-01
-1.06194749e-01
-2.04553828e-02
-2.40456283e-01
7.59746432e-02
-7.72373602e-02
1.01635857e-02
-1.37459278e-01
1.89836979e-01
3.06042260e-03
-1.21671632e-01
1.69076920e-02
-3.47902477e-02
-1.84097327e-02
8.02755952e-02
7.60898143e-02
7.18271360e-02
5.45950569e-02
-4.37798128e-02
-2.43065879e-02
-2.09009588e-01
-1.74737915e-01
-1.66381523e-01
-1.80162132e-01
-1.53624848e-01
-4.31591161e-02
1.15210101e-01
3.00243795e-02
1.17751352e-01
-7.34781250e-02
-2.24570800e-02
-1.36153564e-01
-1.55823275e-01
-1.82206295e-02
-7.21513256e-02
-3.53952236e-02
2.94249207e-01
-3.68682779e-02
1.22050545e-03
-6.20573871e-02
-2.41298657e-02
3.75507362e-02
-5.05463313e-03
-9.20424685e-02
-8.77854135e-03
1.68023352e-02
-3.72715853e-02
-1.61177311e-02
-6.41769022e-02
-1.11872833e-02
-7.92331770e-02
-1.07846092e-02
-5.69498837e-02
-1.37781398e-02
-4.03861366e-02
-7.16084763e-02
2.10902523e-02
-7.74284080e-02
-6.23449720e-02
-5.53479753e-02
-5.91978095e-02
-6.85260221e-02
4.77690995e-03
-7.58562610e-02
-7.81676769e-02
-3.29899490e-02
3.26813012e-02
-3.87223694e-03
-1.23075023e-02
2.67544743e-02
1.31788189e-02
-1.90521386e-02
-2.85119060e-02
3.18773240e-02
2.39745714e-02
-3.15541141e-02
3.24452631e-02
-2.14546006e-02
2.56221723e-02
-7.56475050e-03
-5.16563393e-02
-9.16042849e-02
-1.12488372e-02
2.11293623e-02
