1.17792729e-02
-2.02178247e-02
-1.12829261e-01
-5.30311987e-02
-1.60020764e-03
1.77848592e-01
-4.58591878e-02
8.58605802e-02
5.12711555e-02
2.45828219e-02
8.26978832e-02
7.75186419e-02
1.02388658e-01
-1.66269112e-02
7.32752355e-03
1.42411739e-01
3.41549912e-03
3.23188826e-02
3.87974307e-02
-1.07754357e-02
1.22755520e-01
5.10904705e-04
3.25220823e-02
-4.73703481e-02
6.71794862e-02
-2.02554949e-02
3.07104886e-02
-5.65738194e-02
-3.81116383e-02
-5.55305509e-03
-4.06602770e-02
1.30208701e-01
3.08592208e-02
8.81889164e-02
-1.72593836e-02
8.51313099e-02
1.56496808e-01
4.51897532e-02
-1.15165003e-01
-1.42545655e-01
1.82866794e-03
8.89912248e-02
5.07602058e-02
1.13557838e-01
-6.92052618e-02
-4.13479283e-02
-2.03638822e-02
-2.58594062e-02
1.36360198e-01
-3.84896472e-02
-4.73210402e-02
-1.83948372e-02
3.81740406e-02
-3.13368291e-02
-2.54258607e-03
-7.35162944e-02
-3.17521915e-02
1.45863742e-01
-1.09633533e-02
-6.55854493e-02
7.41702095e-02
1.27676293e-01
-2.94384267e-02
-4.96254340e-02
2.68925037e-02
-1.33386524e-02
6.04769625e-02
3.58677283e-02
2.01375503e-02
1.88440546e-01
6.58430085e-02
-6.00921921e-02
3.02571971e-02
-1.04785711e-02
-6.71706647e-02
7.44996443e-02
1.35205656e-01
8.39081481e-02
-7.03474805e-02
-7.38639981e-02
-5.19313887e-02
-5.57778776e-03
6.07532151e-02
1.76811680e-01
-2.75605135e-02
3.46962735e-02
1.59829594e-02
-4.61746566e-02
1.08467778e-02
-7.93651640e-02
-1.19374385e-02
2.93383934e-02
1.10333025e-01
5.49036786e-02
5.88940978e-02
-1.83397927e-03
1.65648237e-01
-9.59123150e-02
6.52476698e-02
1.37619078e-01
-1.15370378e-01
2.31523402e-02
-2.93398127e-02
4.19673286e-02
-4.49762717e-02
-6.28011823e-02
-2.60467026e-02
-3.37764174e-02
8.16852972e-02
1.68101341e-01
6.06250986e-02
5.89369191e-03
1.61048844e-02
4.31573167e-02
-7.47198686e-02
-6.97218105e-02
6.06864877e-02
5.01914024e-02
1.29789010e-01
-1.43566821e-03
-7.88162425e-02
8.08203146e-02
-5.34335338e-02
3.53588983e-02
-1.86129622e-02
-7.12784305e-02
-4.00303155e-02
1.21728607e-01
