-6.74381554e-02
6.36765957e-02
-3.07563897e-02
-2.97736265e-02
-5.30628525e-02
-9.58112478e-02
-1.14271939e-01
4.56722118e-02
-9.25857015e-03
-1.25298709e-01
-1.19796097e-01
7.75177851e-02
-1.60651907e-01
-7.17173740e-02
-2.14215934e-01
-1.47142574e-01
-6.93609118e-02
1.40458466e-02
-1.36848956e-01
-8.73281732e-02
1.46834375e-02
-1.67265311e-01
-1.13872238e-01
4.41507921e-02
-6.20483793e-02
-6.89696288e-03
-1.12670019e-01
3.43460262e-01
8.81554782e-02
-7.53529444e-02
-6.75130412e-02
-3.45087759e-02
-1.15279958e-01
-1.31671011e-01
-2.49000303e-02
3.70077379e-02
-8.25057253e-02
5.10607995e-02
1.16582818e-01
-3.67916226e-02
-1.43047333e-01
-7.95287341e-02
-3.69028449e-02
-2.68888864e-04
3.54760960e-02
-1.26710278e-03
-1.28142923e-01
-5.67009822e-02
-3.12504061e-02
-2.64810529e-02
-1.22698799e-01
6.15862489e-04
-1.43141776e-01
-1.25506550e-01
3.17487046e-02
-6.56408668e-02
-8.01063627e-02
-1.17219180e-01
-9.92179438e-02
8.59333798e-02
-3.37696150e-02
-1.25623152e-01
-4.56863083e-03
-5.82943261e-02
-3.42647694e-02
9.26769618e-03
-1.17447183e-01
-1.66915521e-01
-9.27805379e-02
-4.44458053e-02
1.50789218e-02
6.81394413e-02
9.88056958e-02
6.77273795e-02
2.42800023e-02
-1.23312660e-01
-1.36586145e-01
-1.45947561e-01
-8.60606879e-02
-1.15335872e-02
-9.30359587e-02
8.25476050e-02
5.75166680e-02
1.18516475e-01
-6.70089573e-02
-6.38922974e-02
2.14453805e-02
-2.26620864e-02
-1.31823733e-01
-2.55731083e-02
-1.01887763e-01
-7.89279267e-02
-1.20682664e-01
-8.03413987e-02
-6.02682829e-02
3.50024328e-02
-1.86995193e-01
6.14356436e-03
-4.04587500e-02
9.15663540e-02
-8.83029476e-02
-2.37418070e-01
-1.31529972e-01
5.63019477e-02
5.35064340e-02
5.47865545e-03
-6.27624765e-02
4.10061330e-02
-1.87329631e-02
3.30272056e-02
4.03854772e-02
6.22358266e-03
-1.20759651e-01
-4.97319736e-02
5.21296971e-02
3.98088768e-02
1.44088408e-02
-1.02082014e-01
6.03809906e-03
-5.01565598e-02
-4.83549759e-03
-1.96591347e-01
2.52448209e-02
-9.98132229e-02
-1.22039348e-01
-6.28733933e-02
-7.61797205e-02
-7.52727687e-02
-9.71342102e-02
-4.52091321e-02
-1.09005153e-01
-9.15492768e-04
-4.15791795e-02
-9.09000859e-02
-1.87076777e-02
-8.19499120e-02
-1.96466707e-02
-5.02272211e-02
1.22573581e-02
-8.79960358e-02
8.63579195e-03
-1.01565845e-01
-1.75560489e-02
-6.75875098e-02
-1.02055982e-01
-8.66391361e-02
-1.07996061e-01
4.40727063e-02
-6.28099218e-02
-1.03674382e-01
-9.83363241e-02
7.14867562e-02
-2.37513352e-02
-7.38280118e-02
-2.42684949e-02
6.27578720e-02
-7.03707337e-02
8.24165270e-02
3.15460414e-02
1.81000885e-02
-3.03666890e-02
6.16961299e-03
2.89960578e-02
3.80410030e-02
-1.18815145e-02
-5.15367836e-02
-3.42877693e-02
-1.45871088e-01
-6.47749901e-02
-1.71825867e-02
-1.38756735e-02
-3.60670127e-02
-2.54656654e-02
3.63038369e-02
1.16339102e-02
-9.55296978e-02
3.42450142e-02
-4.06107605e-02
-2.50897612e-02
-1.12072052e-02
-6.30461499e-02
6.78603947e-02
3.35028209e-03
-1.60207655e-02
1.20412128e-03
-1.19605921e-01
-8.46008435e-02
6.07474102e-03
-8.07301775e-02
-1.16778631e-02
-1.08861849e-01
-4.44165394e-02
-5.72734922e-02
-3.90965827e-02
-1.28097460e-01
1.49968360e-02
2.12770607e-02
-1.19515091e-01
3.22657041e-02
-8.71740654e-02
5.66662103e-03
-1.00242672e-02
-1.10717125e-01
-6.57869950e-02
-1.69768967e-02
-1.36012688e-01
8.62373486e-02
-2.74568964e-02
-6.91178218e-02
3.48957591e-02
-4.02575685e-03
-4.43700664e-02
-2.74152849e-02
-7.90189505e-02
-1.65731937e-04
-3.98356095e-02
-8.38681310e-02
3.57021280e-02
4.03291099e-02
-5.72480559e-02
-6.45328164e-02
-1.19402096e-01
-9.71484855e-02
1.91217922e-02
1.84342507e-02
-2.53081508e-02
-6.77681267e-02
2.50706803e-02
-5.71433604e-02
-8.56842697e-02
-8.85003507e-02
-5.59996329e-02
-2.12295391e-02
3.93972695e-02
-7.85311162e-02
-8.77695680e-02
-3.11851352e-02
-3.38703394e-02
2.46134568e-02
8.56242701e-03
-9.92269814e-02
-3.34161557e-02
-6.18371367e-02
-1.85853057e-02
-1.38057277e-01
1.26251113e-02
-3.93027067e-02
-1.14829987e-01
1.91188827e-02
3.22990902e-02
-6.90838695e-03
-1.14509705e-02
4.07187156e-02
-6.74872771e-02
-6.64926022e-02
-8.12424868e-02
4.07905644e-03
-1.16994195e-01
-4.95918430e-02
-5.81367686e-02
1.10761106e-01
-1.03055991e-01
4.61733062e-03
-1.45077869e-01
2.38883253e-02
-9.20951664e-02
2.45789737e-02
4.40326557e-02
-1.77348018e-01
-2.20891804e-01
2.85153203e-02
-2.28142977e-01
8.08076039e-02
-1.38917848e-01
-1.43241435e-01
1.20256562e-02
-6.16980605e-02
1.93378240e-01
2.73792624e-01
-3.26847937e-03
-1.94502234e-01
6.68660924e-02
1.02986796e-02
-2.28272021e-01
2.85773724e-01
-6.71519488e-02
-1.08382301e-02
-2.88721267e-02
-1.72465414e-01
-6.87735761e-03
8.47738087e-02
-5.27055301e-02
8.33834708e-02
2.17735730e-02
-3.90034840e-02
-9.72745642e-02
9.68218519e-05
-1.55522674e-01
-1.83765829e-01
-4.91008647e-02
9.13313031e-03
-1.89990643e-03
2.24766612e-01
-9.26447362e-02
5.98105565e-02
-7.41388947e-02
-1.95375353e-01
-7.66493976e-02
1.16984481e-02
-2.11437885e-02
-1.31862471e-02
1.04053177e-01
-4.27752174e-02
1.58241734e-01
5.38098589e-02
-1.31254771e-03
3.11511056e-03
-6.14262447e-02
-2.71647185e-01
6.52520433e-02
4.42987960e-03
-4.45484221e-02
2.02499144e-02
-2.20088765e-01
-1.42103240e-01
-4.38525267e-02
4.25001718e-02
-2.93877367e-02
6.46094605e-02
1.00960106e-01
6.55889437e-02
4.84785736e-02
-5.05096056e-02
-9.87684429e-02
-4.33922827e-01
-1.03514738e-01
2.82716583e-02
-4.63664457e-02
-3.22018266e-02
-9.82720219e-03
6.80676177e-02
-1.58244967e-02
4.96863723e-02
-7.71220913e-03
1.30951274e-02
5.93308061e-02
-7.37303495e-02
1.83516964e-02
-7.66121447e-02
-9.54722166e-02
1.19448140e-01
-2.26639763e-01
-2.64085770e-01
8.12704340e-02
-6.74886033e-02
1.05001308e-01
-2.42966011e-01
1.06330097e-01
-1.31681755e-01
1.30895050e-02
9.40586701e-02
4.26550806e-02
-1.11759817e-02
1.97077677e-01
-2.08739296e-01
6.68484569e-02
4.58417982e-02
-3.45561095e-02
1.57152504e-01
1.04251347e-01
-9.36926678e-02
-2.33450439e-02
-1.56745717e-01
-8.13758969e-02
5.85992308e-03
-5.48281521e-02
6.92964345e-02
-9.38991606e-02
5.81208803e-02
-9.92304534e-02
-6.37581795e-02
-5.04711159e-02
-8.17252416e-03
4.45449166e-02
2.88736038e-02
4.75569209e-03
-1.18172005e-01
2.51032375e-02
-5.75849898e-02
9.18897763e-02
-5.65174110e-02
2.40351707e-01
-4.14400175e-02
5.08275703e-02
1.61917701e-01
7.51551613e-02
-9.67417732e-02
-2.06600502e-02
2.26441510e-02
2.26150360e-02
-1.84241794e-02
-2.58748420e-02
-3.46135944e-02
1.28944814e-02
-5.13655171e-02
-1.09610736e-01
3.68156284e-02
2.92629991e-02
1.70781195e-01
-5.76301515e-02
8.97045061e-02
8.55646059e-02
-5.71234748e-02
-5.60279656e-03
-6.97875544e-02
1.76212072e-01
2.66573839e-02
7.99718425e-02
3.77872847e-02
-3.59816365e-02
-1.35398984e-01
-1.19734174e-02
7.83389658e-02
2.50689268e-01
4.06823456e-02
-1.64892569e-01
-4.65380847e-02
1.69688210e-01
4.11577858e-02
-2.92059127e-02
-4.71693985e-02
1.13838211e-01
1.73899740e-01
6.65941909e-02
1.01794722e-02
-1.45144746e-01
7.90975019e-02
-8.45247656e-02
-1.24241084e-01
-3.83687988e-02
1.13707045e-02
-6.31399080e-02
-2.43900315e-04
1.08846463e-01
-2.70990461e-01
6.81945980e-02
5.45138903e-02
-1.04918398e-01
-7.06189722e-02
1.85567536e-03
3.62463072e-02
2.14710325e-01
-2.40874775e-02
2.64674667e-02
9.27025527e-02
3.70558947e-02
-3.48062143e-02
6.18142113e-02
1.05018601e-01
1.93414390e-01
-2.55786218e-02
5.34227639e-02
2.07958341e-01
1.07163407e-01
1.42376591e-02
2.91399881e-02
-4.43447493e-02
-2.44259819e-01
-2.93777157e-02
-1.02514282e-01
2.98993103e-02
-3.94381918e-02
7.04068914e-02
-1.23963527e-01
2.71713529e-02
-6.32808823e-03
-4.52574492e-02
3.67910811e-03
-2.65146103e-02
7.57793933e-02
1.91295832e-01
-1.03311010e-01
1.03955604e-01
9.80196670e-02
-4.63206619e-02
-5.62119149e-02
-1.08988889e-01
1.03827715e-02
-2.34296009e-01
9.70149115e-02
-6.61881641e-02
9.11731198e-02
2.99485736e-02
-1.47517323e-01
-1.44529089e-01
2.78853364e-02
-1.12080060e-01
-2.14134097e-01
7.67376423e-02
-3.18829603e-02
-5.12068979e-02
-1.71028361e-01
-1.75218061e-01
-8.81578475e-02
-1.81021199e-01
9.80105549e-02
-2.08681807e-01
1.11765869e-01
1.33143529e-01
-3.72354314e-02
7.23312572e-02
9.92354304e-02
-1.22489305e-02
-3.60841341e-02
-8.69417861e-02
-2.59447526e-02
1.36617959e-01
1.38564125e-01
7.94977248e-02
-1.69463187e-01
5.06067462e-03
-3.36972438e-02
8.74145105e-02
1.55721214e-02
-1.25063524e-01
4.56348099e-02
7.70088881e-02
-2.45171972e-02
2.03494027e-01
-8.23452845e-02
1.94287375e-02
-8.46251920e-02
1.99255735e-01
1.38731778e-01
-7.13472962e-02
-5.27327582e-02
-6.08344786e-02
6.66874722e-02
3.31680919e-03
5.85213443e-03
1.19143255e-01
6.36293441e-02
-8.00115708e-03
1.43045753e-01
6.08704463e-02
2.57750507e-02
2.26584580e-02
3.05991638e-02
7.18591809e-02
-6.08602120e-03
-1.29535586e-01
-2.18929332e-02
7.29264468e-02
2.65334621e-02
-1.11747809e-01
-4.09974940e-02
-3.97892743e-02
4.53994200e-02
1.15411907e-01
-4.59930040e-02
-1.61657706e-01
1.06522804e-02
3.98116037e-02
-7.53038675e-02
2.29255140e-01
1.37834117e-01
1.11898527e-01
-1.02635078e-01
7.60506839e-02
4.48857211e-02
8.15585256e-02
-4.21073139e-02
9.75791663e-02
4.19372395e-02
-8.67514778e-03
-3.01065166e-02
2.73197796e-02
-7.26551116e-02
1.04685746e-01
1.15125783e-01
-1.09635718e-01
1.14750288e-01
4.31980267e-02
1.45155843e-02
-3.48009244e-02
-9.00074095e-02
6.48635477e-02
1.26847446e-01
-5.17372489e-02
1.80146117e-02
6.50481284e-02
7.53731206e-02
-2.21480761e-04
-4.87162583e-02
-1.93795115e-02
1.49014294e-01
-2.14648545e-01
9.70645994e-02
-4.04246971e-02
-6.83616428e-03
-7.43720904e-02
1.27294019e-01
6.36806786e-02
-1.88316721e-02
3.06884032e-02
7.62622207e-02
-7.96081349e-02
1.48140669e-01
-1.57500505e-01
6.47421274e-03
-1.39179945e-01
2.13911403e-02
-9.80395153e-02
7.25454241e-02
-4.79705492e-03
4.75413948e-02
-1.19298317e-01
1.63415968e-01
2.44594663e-01
-9.65266526e-02
-4.75688875e-02
8.27218443e-02
1.33982226e-01
-1.56723168e-02
-7.79726207e-02
-6.41715974e-02
3.20430174e-02
-8.99185389e-02
-1.04095295e-01
2.18813390e-01
1.56207442e-01
1.38406813e-01
-9.62418765e-02
4.89502102e-02
-1.33641392e-01
5.03884554e-02
-2.95339152e-02
5.66652939e-02
6.13250677e-03
1.00095570e-01
-4.57419157e-02
-5.50228134e-02
1.75090507e-02
-1.05204610e-02
3.63704888e-03
2.33657984e-03
6.63286075e-02
-1.62250064e-02
-4.16893661e-02
-3.16029191e-02
5.34722842e-02
-4.74716909e-02
3.39038558e-02
-1.37414098e-01
1.03463896e-01
8.90899003e-02
-2.26154596e-01
-3.03436629e-02
6.43116310e-02
1.15253314e-01
-2.59248987e-02
6.14584126e-02
-1.32592216e-01
1.93303395e-02
-3.16034537e-03
3.33469845e-02
1.26154646e-01
-7.76999146e-02
-2.91582018e-01
4.39697057e-02
1.68864857e-02
1.25627732e-02
4.26869746e-03
8.07154551e-02
2.27326881e-02
9.16385874e-02
1.03192911e-01
-6.18411005e-02
7.08331913e-03
-1.09801039e-01
4.11059288e-03
1.01623639e-01
4.15077694e-02
-1.41851986e-02
-7.47037120e-05
-7.97579885e-02
8.18043500e-02
7.32257366e-02
2.80595124e-02
5.06914668e-02
2.11705547e-02
-1.79575419e-03
5.00653964e-03
1.48071751e-01
1.38954774e-01
4.91458103e-02
1.24976359e-01
2.01885805e-01
6.82354718e-02
4.17178562e-05
-7.85553362e-03
1.30700052e-01
-3.74132469e-02
-6.82875365e-02
2.47809403e-02
1.73780322e-02
8.71972516e-02
-1.08476385e-01
1.52002558e-01
1.20324545e-01
4.59019616e-02
2.81383358e-02
-1.34041026e-01
-7.17105046e-02
-1.29771410e-02
9.80302691e-02
1.23970985e-01
9.35138091e-02
1.55342827e-02
2.81149987e-02
-2.49766055e-02
-2.78181974e-02
2.70381104e-02
4.59469669e-02
-9.58897546e-02
-1.57370381e-02
3.09563950e-02
7.63008893e-02
1.87742308e-01
4.03594896e-02
2.14954361e-01
-2.40850281e-02
1.43540828e-02
3.30627244e-03
-1.20485827e-01
3.01382858e-02
-2.46898755e-02
8.20935220e-02
8.38093013e-02
-9.81366821e-03
-1.36092737e-01
9.04243439e-02
-2.10140180e-02
-4.25450876e-02
-1.17997438e-01
-1.95450559e-01
1.99049413e-01
-4.44010571e-02
6.35338277e-02
1.15024537e-01
-3.90657000e-02
1.53466947e-02
9.68186855e-02
3.26053128e-02
-6.99007064e-02
2.01449078e-02
6.49894103e-02
7.94997960e-02
8.57934728e-02
1.68423858e-02
-1.87066019e-01
1.33057743e-01
-1.49563193e-01
1.39892250e-01
-1.22921079e-01
2.72170790e-02
2.12307259e-01
-4.65552025e-02
-4.82298434e-02
6.40456453e-02
-2.50233293e-01
9.49924812e-02
3.45104793e-03
8.04015920e-02
4.00529578e-02
1.44706488e-01
-4.08739261e-02
-6.84378892e-02
-8.41484293e-02
-1.09634936e-01
-2.15194318e-02
-1.50884673e-01
-1.89180691e-02
-7.39497021e-02
-1.91619229e-02
-1.19277388e-01
3.68761569e-02
3.13912071e-02
-1.55481264e-01
-8.95798802e-02
-3.51152034e-03
8.39074627e-02
2.83937193e-02
1.18744828e-01
8.51618722e-02
8.17646384e-02
-1.98569037e-02
8.92727003e-02
-1.06077613e-02
1.84652042e-02
-1.41313309e-02
-1.04569102e-04
3.23240496e-02
1.68679401e-01
9.32326913e-02
4.58213054e-02
-6.09791577e-02
-1.41651586e-01
1.64379533e-02
6.74403012e-02
1.44244842e-02
-6.69132620e-02
-4.06159693e-03
-7.21264407e-02
-1.01074152e-01
6.12082668e-02
-6.01625070e-02
-1.50101081e-01
3.13277394e-02
1.69161577e-02
-9.28619057e-02
-2.65795384e-02
-2.54251040e-03
4.89111915e-02
4.29098792e-02
-1.16650052e-02
1.53857702e-02
3.96834686e-02
-9.77921188e-02
-4.42118756e-03
-1.82258319e-02
-6.11786693e-02
2.97919307e-02
1.39185399e-01
-1.29085228e-01
-1.67027131e-01
1.57997593e-01
6.85930774e-02
-5.00448979e-02
-5.80890886e-02
-6.27065152e-02
-7.62131885e-02
-8.85709822e-02
-6.19691350e-02
-9.91485044e-02
-1.19896702e-01
2.49914527e-01
9.38635096e-02
-4.57601883e-02
4.30837646e-03
7.70152509e-02
-9.89854336e-03
-9.88205597e-02
1.68260951e-02
5.12398407e-02
4.59299460e-02
1.67929381e-01
1.30016625e-01
1.11407861e-01
8.54034945e-02
3.61484326e-02
-6.44965768e-02
-9.40840617e-02
-1.81183100e-01
-3.24007943e-02
-4.10880446e-02
-1.39729828e-01
-8.02481398e-02
-7.70533904e-02
6.47514984e-02
2.88772918e-02
-1.02594882e-01
-1.59010082e-01
-2.29721978e-01
1.40406981e-01
-2.01835975e-01
-6.12501018e-02
1.39797583e-01
-2.02989414e-01
2.61699166e-02
7.52274916e-02
-1.44999027e-01
3.73165980e-02
3.61940153e-02
6.04385324e-02
-8.65686685e-02
-3.31373210e-03
-1.18127584e-01
-1.93747774e-01
1.07791107e-02
-1.20623648e-01
1.09417208e-01
1.52210832e-01
-2.23090015e-02
1.33149996e-01
-1.63476095e-01
-3.46828774e-02
-8.01352635e-02
-2.31988862e-01
-1.36548122e-02
1.37653872e-01
1.45651281e-01
-4.27124724e-02
-1.42363638e-01
-1.26127945e-02
8.52264813e-04
4.42038998e-02
-7.13620633e-02
-7.97238201e-02
-1.09043486e-01
-3.53144109e-02
8.73258039e-02
6.87472057e-03
1.98165104e-02
1.49295911e-01
2.55687106e-02
-4.65782396e-02
6.36047944e-02
-1.11356683e-01
3.84385735e-02
-1.53870493e-01
4.66688871e-02
-1.47457719e-01
2.15839017e-02
1.20048851e-01
1.00282162e-01
-3.79461646e-02
-1.61434859e-02
9.83546376e-02
-1.25725055e-03
-3.93189676e-02
8.82589966e-02
1.42169490e-01
4.09525149e-02
2.33372841e-02
2.20242180e-02
2.21352577e-02
1.21005550e-01
4.19803970e-02
-6.10539876e-03
-2.57511321e-03
3.79209667e-02
-9.98213440e-02
-2.26319078e-02
8.84626880e-02
-2.35589728e-01
-1.34559080e-01
-9.31408405e-02
-4.95512113e-02
7.37306476e-02
-3.06816045e-02
6.90689012e-02
-6.26676828e-02
1.76165655e-01
2.02250257e-02
-2.48951185e-02
2.74518549e-01
9.95971113e-02
2.23729521e-01
1.37128197e-02
3.22996676e-02
4.38160077e-02
1.26694798e-01
-2.51019388e-01
1.09712444e-01
8.80294070e-02
-1.35156527e-01
-6.16448261e-02
-2.58938551e-01
6.05089329e-02
2.88985353e-02
1.00422069e-01
3.25430445e-02
4.92718369e-02
3.70215997e-03
-4.40123007e-02
5.14353439e-02
1.04981482e-01
-6.21542521e-02
1.30499244e-01
-2.84344628e-02
-1.85988527e-02
5.81453331e-02
3.46384905e-02
3.68813202e-02
-8.49422738e-02
1.44717038e-01
-5.94806150e-02
6.92481026e-02
4.52331901e-02
2.15116572e-02
2.32158918e-02
1.23227881e-02
-3.68893407e-02
-1.65142827e-02
1.40338033e-01
-3.33574504e-01
1.59467995e-01
4.47783209e-02
-1.29065156e-01
-1.36560887e-01
-2.27442365e-02
1.69735298e-01
-9.48368311e-02
1.29327729e-01
1.03774741e-01
7.94940721e-03
8.88304934e-02
2.42677778e-01
1.30376801e-01
-5.20426109e-02
-3.05757765e-03
-4.18754555e-02
-1.08424192e-02
1.94793314e-01
-1.14633203e-01
3.56044061e-02
1.27538174e-01
-1.08867399e-02
-4.79459241e-02
-1.74097121e-02
4.21338752e-02
9.65603665e-02
4.16844562e-02
-9.10160467e-02
5.31873815e-02
-9.22756568e-02
5.53977974e-02
-3.89866903e-02
-4.07906137e-02
-4.59177382e-02
-3.89812961e-02
1.49740661e-02
-8.25363472e-02
-4.30009812e-02
-7.47581646e-02
-8.57174993e-02
3.41117429e-03
-2.66714804e-02
-9.91076827e-02
8.89702700e-03
-8.38420913e-02
3.56359556e-02
-1.58797354e-02
-4.77098413e-02
3.38791385e-02
-1.67035200e-02
1.80666987e-02
-5.68144023e-02
5.30340225e-02
-1.40296808e-02
-2.78479606e-02
3.34993340e-02
-7.09871799e-02
4.45279889e-02
-4.26195934e-02
-2.16046665e-02
-9.93629023e-02
-5.33612072e-02
2.41191871e-03
7.35436566e-04
-2.46069022e-03
3.27780657e-02
7.68056661e-02
-2.47502811e-02
-8.93615857e-02
4.46026586e-02
-2.51125842e-02
-2.12329496e-02
3.97686921e-02
-3.63451950e-02
4.13963422e-02
-4.62271571e-02
2.50256732e-02
-8.77304524e-02
1.92971863e-02
-3.83314267e-02
4.03307527e-02
3.37675400e-02
6.48824126e-02
6.13051318e-02
2.49943696e-02
-7.61866057e-03
6.23055995e-02
-2.61161067e-02
3.25539261e-02
-8.49348754e-02
7.22442195e-02
6.26899377e-02
4.27727960e-02
1.77471209e-02
-9.70105757e-04
-6.63846061e-02
-9.91746932e-02
-5.20746969e-02
4.78943400e-02
2.19538547e-02
-3.48402187e-02
-7.68819451e-02
-5.52181490e-02
-2.05162689e-02
-4.38829102e-02
-4.33504768e-02
-5.50344288e-02
-3.68215656e-03
-1.06446572e-01
-1.32379323e-01
-1.08503200e-01
-4.49389517e-02
3.56583893e-02
-5.85012138e-02
-9.85045568e-04
-8.99428874e-02
1.83933266e-02
-6.67642727e-02
1.94620024e-02
1.69383306e-02
-1.07905194e-01
-3.71505739e-03
-2.77988166e-02
-5.53969853e-02
9.87952203e-03
5.90616316e-02
-6.04110770e-02
-3.48858498e-02
3.91191989e-02
-1.80793367e-02
-6.86713532e-02
-1.03613056e-01
-1.36822639e-02
1.89874694e-02
-8.55374336e-02
-6.57610456e-03
-3.22338715e-02
-5.40227331e-02
-7.38455579e-02
1.14004351e-02
9.23108123e-03
-2.17795409e-02
3.90458815e-02
-1.33680478e-01
-2.37206202e-02
-2.90545542e-02
-1.02510072e-01
3.55214849e-02
-7.22868517e-02
-7.28282332e-03
3.16781960e-02
3.51005830e-02
-3.43848616e-02
4.62915450e-02
-3.11585777e-02
-3.39367837e-02
-2.14231871e-02
-8.55116621e-02
-3.83441076e-02
-3.09915491e-03
-4.61178645e-03
-3.01136207e-02
-2.14655604e-02
-5.51108830e-02
-6.70043156e-02
-2.99142655e-02
-1.40422061e-01
2.18071304e-02
-2.84494031e-02
-1.05783939e-01
-1.25481874e-01
-6.97861761e-02
-1.16833866e-01
6.82278872e-02
-4.39334661e-02
4.43850085e-02
-1.44390576e-02
-1.29207715e-01
-2.59710774e-02
-7.33435377e-02
8.28793421e-02
7.38940388e-02
-9.25471932e-02
4.58170958e-02
5.39708808e-02
7.01174736e-02
-1.19480141e-01
1.76756736e-02
-1.00539848e-01
7.00056599e-03
-7.70758763e-02
3.68327126e-02
-2.45301612e-02
1.97874941e-02
-7.99075589e-02
-9.90306661e-02
-8.89196023e-02
-2.32657269e-02
-9.58657563e-02
3.43902893e-02
-4.71993908e-02
-7.69553855e-02
3.54523733e-02
9.07685533e-02
-1.07339606e-01
4.08744067e-02
-1.41945686e-02
-1.20840661e-01
-6.76305294e-02
-1.46980993e-02
7.03150406e-02
-4.42150235e-02
4.36883755e-02
-1.06400147e-01
6.48913085e-02
3.14685255e-02
3.16197425e-02
-3.22071500e-02
-5.54048456e-02
5.74312434e-02
-9.52431336e-02
-4.05131504e-02
-1.59246281e-01
-9.06860307e-02
-1.55120894e-01
-8.37136731e-02
-2.46961880e-02
-3.96714695e-02
-1.05042690e-02
-8.36577043e-02
7.34539889e-03
-1.00022405e-01
-2.53782552e-02
-1.32992491e-01
-1.43953934e-01
-6.50818646e-02
8.50712061e-02
3.02370358e-03
-1.25255376e-01
-7.32528493e-02
-1.08522467e-01
-2.49696989e-02
-1.70446560e-03
-1.39277846e-01
4.86989468e-02
-3.77219394e-02
-1.63442671e-01
-7.38061685e-03
-9.52485055e-02
2.72215381e-02
5.15849842e-03
-1.05368041e-01
3.46715823e-02
-7.17037991e-02
-1.90301593e-02
8.56383219e-02
-7.71635119e-03
-2.85233315e-02
1.26636233e-02
-8.68197531e-02
1.02346897e-01
-6.42390847e-02
3.84122357e-02
-5.56417331e-02
-3.21565084e-02
1.06868789e-01
4.70582843e-02
-1.09847926e-01
-9.80268046e-03
-6.51321784e-02
6.71756500e-03
3.07724392e-03
-1.24917023e-01
-7.59666264e-02
-3.96888927e-02
-2.41600759e-02
1.82292319e-03
-8.54665712e-02
-1.79378577e-02
-6.05669804e-02
-1.34781403e-02
6.79006875e-02
-1.06704934e-02
2.42651347e-02
-9.07453243e-04
1.00631826e-01
2.01136544e-02
-9.42355171e-02
9.89115909e-02
-6.45462498e-02
-4.38573509e-02
1.52263567e-01
8.78845602e-02
8.74655321e-02
-1.97259448e-02
1.89923793e-01
-7.87537843e-02
-7.97611941e-03
1.71523914e-02
-1.18711792e-01
-4.79886048e-02
5.85309230e-02
1.04750335e-01
1.53358784e-02
2.93722171e-02
-1.06724553e-01
-1.33166900e-02
1.19831190e-01
5.31929545e-02
4.35938574e-02
-1.99902892e-01
-2.00497180e-01
2.86229402e-02
-4.23771217e-02
-8.11768398e-02
6.15491718e-02
3.00233215e-02
-4.21345532e-02
-2.82827113e-02
8.11265130e-03
3.11616305e-02
-1.22297630e-01
-1.51562616e-01
1.66352224e-02
1.40249550e-01
1.13251425e-01
1.87778562e-01
4.96915728e-02
7.15551078e-02
-1.04466550e-01
1.28725439e-01
3.33239213e-02
-1.74595028e-01
1.80540442e-01
1.03385793e-02
-3.97202335e-02
-1.49922341e-01
4.46557701e-02
6.99952245e-02
1.27199665e-01
-3.32691185e-02
-5.91446497e-02
1.13362968e-02
4.18300591e-02
1.38004974e-01
1.25363290e-01
-4.34742048e-02
1.15843549e-01
-6.02083839e-02
-6.43530488e-02
-1.70707047e-01
1.86656356e-01
-9.30909514e-02
5.40219359e-02
3.96237373e-02
2.16688775e-02
-6.50813729e-02
-3.84670831e-02
1.58544313e-02
-1.51120529e-01
1.56641155e-01
1.36068389e-02
-6.22958541e-02
-8.17743596e-03
-9.05149356e-02
3.30177427e-04
-4.56462838e-02
-1.33003742e-01
1.17777020e-01
2.64233314e-02
3.72938402e-02
-2.04008609e-01
4.25851010e-02
1.50453329e-01
9.29275621e-03
1.38752237e-01
2.04026401e-02
-4.14522178e-02
5.97397834e-02
3.31053324e-02
5.08741010e-03
7.62387067e-02
-3.04839797e-02
2.05620095e-01
6.96880445e-02
-1.07709676e-01
-3.10334191e-02
-1.00469008e-01
-9.90435854e-02
-4.86345775e-02
-8.62805825e-03
1.13783628e-01
-1.44035131e-01
1.60958961e-01
6.60846457e-02
6.34563565e-02
-3.64299044e-02
2.70691644e-02
2.22807582e-02
2.90851220e-02
-5.69645548e-03
5.43427318e-02
5.72287180e-02
-2.15770188e-03
-4.52521406e-02
1.01992920e-01
4.01825011e-02
-2.36473233e-02
8.27166513e-02
7.91976526e-02
-2.26847038e-01
7.99255893e-02
-5.55998795e-02
1.60062999e-01
-2.09057964e-02
-7.49455988e-02
2.36843109e-01
-2.43947342e-01
6.46634772e-02
2.68761460e-02
1.20632900e-02
-8.75558257e-02
7.58519098e-02
-1.55470937e-01
2.71344393e-01
1.52764171e-01
6.45623431e-02
2.98732966e-01
8.61740485e-02
4.62736636e-02
-1.22034334e-01
5.07053267e-03
1.52625486e-01
1.74356997e-02
-5.96302189e-03
-1.51464432e-01
5.44030219e-02
1.60416085e-02
3.99888232e-02
5.41513413e-02
-1.03622619e-02
-3.19557153e-02
-4.55268584e-02
5.24736457e-02
-1.78219616e-01
-2.76816301e-02
-3.53355199e-01
-1.18405893e-01
-4.61505838e-02
4.44072708e-02
2.58586016e-02
-4.05303482e-03
1.53129827e-02
-1.68108806e-01
2.71398742e-02
7.05570076e-03
-6.07251562e-02
2.00028028e-02
-2.43544523e-02
7.76272863e-02
-2.06060298e-02
4.02882360e-02
2.28025224e-02
4.34657559e-02
-9.91454646e-02
-3.52953672e-01
9.84021798e-02
4.60891351e-02
-4.19010609e-01
-5.30798249e-02
-5.05156536e-03
-5.14037050e-02
2.07740702e-02
9.65775102e-02
-3.04497387e-02
-4.81749885e-02
7.96062127e-02
-1.08490184e-01
1.98945150e-01
-9.80039909e-02
4.58841398e-02
-1.79485586e-02
8.24848562e-03
-7.21664652e-02
-4.25314121e-02
8.80106818e-03
-6.17352240e-02
-1.71709046e-01
-6.01056404e-02
2.44221017e-01
-4.45749378e-03
2.51849089e-02
-1.57131314e-01
-1.28390417e-01
-1.75283298e-01
3.35224085e-02
1.42177403e-01
-6.60195202e-02
-5.12567870e-02
-1.56047894e-02
-9.09096794e-04
-1.39430135e-01
1.00623496e-01
8.86757970e-02
1.99109137e-01
1.47060409e-01
5.16557470e-02
-5.51978499e-02
7.09775761e-02
-8.08404088e-02
-2.13953897e-01
6.23953529e-02
-2.98249554e-02
1.83706675e-02
1.98492959e-01
1.98539644e-01
1.27431348e-01
-2.80435503e-01
2.05345321e-02
5.10478318e-02
-1.20941937e-01
-3.18339356e-04
7.79698119e-02
-1.29747108e-01
-1.28778130e-01
4.16587666e-02
8.72539505e-02
-1.22202463e-01
-7.43801147e-02
-5.07243089e-02
-6.53260052e-02
1.71294585e-01
-2.21075475e-01
1.76131412e-01
1.92590281e-02
2.65738398e-01
-7.17634857e-02
7.29060099e-02
6.83376715e-02
1.04736038e-01
-1.02419131e-01
-1.28579699e-02
-2.98484061e-02
-2.34325659e-02
8.51217434e-02
-5.77238388e-02
-2.01747298e-01
1.84528261e-01
7.73206353e-02
-4.52258103e-02
1.94685608e-01
9.28196907e-02
-3.29791009e-02
-6.11246489e-02
-1.09411906e-02
-1.35251254e-01
3.88488453e-03
-3.42568122e-02
-1.00096531e-01
1.23251110e-01
-6.41588680e-03
7.96704087e-03
-4.78648804e-02
1.55202821e-01
6.02678433e-02
-9.75231677e-02
-3.97082530e-02
4.09858190e-02
2.10103355e-02
-6.53822795e-02
1.07422151e-01
5.76325282e-02
-2.99362727e-02
2.31119078e-02
1.70794353e-02
1.13939360e-01
4.84696962e-02
9.59091038e-02
-4.10318524e-02
-7.52040595e-02
-3.06082778e-02
9.90343764e-02
8.10642019e-02
3.67340073e-02
7.56874084e-02
1.32525310e-01
-8.49627852e-02
1.11136213e-01
-5.77472486e-02
-4.36123684e-02
3.70799750e-02
2.73388531e-02
-6.62476346e-02
-2.67541021e-01
2.02719998e-02
1.32959355e-02
-1.13510199e-01
2.98828650e-02
6.65596798e-02
1.59253702e-01
1.78269342e-01
9.17584896e-02
-2.26887632e-02
-2.55962051e-02
-6.80645630e-02
4.89800908e-02
-9.12687033e-02
-8.06326419e-02
-3.95604372e-02
7.22819148e-03
9.37048569e-02
1.28912598e-01
-3.40489633e-02
9.32426751e-02
5.68879917e-02
1.13791451e-01
1.18346795e-01
-2.47162819e-01
1.02252953e-01
-1.74604401e-01
6.59122542e-02
-9.55679193e-02
2.03996032e-01
-4.10772935e-02
1.01103242e-02
-5.24047278e-02
-8.14382955e-02
-4.74875756e-02
-9.45574418e-03
-1.13574073e-01
-1.97908595e-01
-1.17971553e-02
9.94015560e-02
3.33465226e-02
-4.75850664e-02
6.76307008e-02
-1.50559291e-01
-2.39735842e-02
8.78907144e-02
7.09312633e-02
7.21784607e-02
6.88752457e-02
7.86988288e-02
3.07021271e-02
6.84649684e-03
-1.19097881e-01
4.89686690e-02
-1.72538683e-01
8.29697177e-02
1.32256255e-01
5.78926951e-02
1.01076268e-01
5.17998226e-02
-6.22191951e-02
-4.90279384e-02
2.19223499e-02
-7.18510710e-03
5.68525195e-02
1.69771612e-01
-1.77009121e-01
5.45997098e-02
1.75928578e-01
-1.65077448e-01
1.58902526e-01
-4.17480990e-02
-2.27029473e-01
-2.70658955e-02
9.91748497e-02
-8.61629695e-02
-8.38205144e-02
-6.90704659e-02
2.01720640e-01
-4.79645375e-03
-9.30905491e-02
-4.29169357e-01
4.70515825e-02
1.11801252e-01
8.71648267e-02
5.01695983e-02
-2.56453287e-02
1.18146673e-01
-1.00884072e-01
-1.06455823e-02
8.47155675e-02
-9.20459069e-03
-7.42136464e-02
-1.69839457e-01
2.19354302e-01
-2.79045291e-02
9.51465741e-02
-6.91320049e-04
-9.16135088e-02
-3.62166986e-02
-1.46555081e-01
-2.10561365e-01
1.37685180e-01
-4.13559601e-02
-2.45712185e-03
1.04669549e-01
6.89638630e-02
-6.06611557e-03
5.04723489e-02
5.11238575e-02
1.03629529e-01
-4.94119786e-02
-5.04273213e-02
-2.96124935e-01
-7.91698787e-03
1.30026927e-02
-7.77662918e-02
-1.32852029e-02
5.61523670e-03
2.68910895e-03
6.14821278e-02
-1.50842145e-02
-9.95282084e-02
3.68874446e-02
-9.15995613e-02
5.94811589e-02
7.77233392e-02
-3.76255922e-02
2.89698895e-02
1.41841685e-03
-6.44411019e-04
7.38399103e-02
1.58284917e-01
2.34303121e-02
1.78991824e-01
-2.52368916e-02
-1.14223838e-01
1.05929626e-02
-7.99739584e-02
-6.77078888e-02
3.13599184e-02
2.03635141e-01
-3.12364046e-02
8.31371620e-02
-7.17193782e-02
-1.55871501e-02
2.12693550e-02
6.08712174e-02
-5.74102364e-02
-2.84330714e-02
9.61999223e-02
-5.62080070e-02
-1.28577039e-01
1.85830295e-01
-1.08773507e-01
-1.58278495e-01
1.81259066e-02
2.51240551e-01
-1.30650744e-01
1.15023822e-01
6.93597794e-02
6.56026825e-02
-9.81332958e-02
6.39085546e-02
-1.46181230e-02
-7.88411573e-02
2.13145223e-02
7.33250231e-02
3.61346779e-03
-1.49903461e-01
-1.77463163e-02
-3.47148888e-02
-1.27765052e-02
6.36337399e-02
-1.08546637e-01
-3.11843436e-02
-4.43358570e-02
3.12533490e-02
-3.08156703e-02
-3.85839418e-02
-1.51722529e-03
-1.26999170e-01
-1.82597876e-01
1.50143862e-01
1.30644366e-01
5.23969159e-03
-4.48473841e-02
1.58207610e-01
-2.46726889e-02
4.14221324e-02
8.31527263e-02
1.07356004e-01
8.08776692e-02
3.66395116e-02
-3.53688709e-02
1.27174780e-01
-1.24232387e-02
-2.53792219e-02
5.54004088e-02
-4.11090031e-02
-7.07810894e-02
7.96113685e-02
6.92777708e-02
9.14465785e-02
-1.05890796e-01
-4.90833372e-02
4.08715978e-02
-8.21125209e-02
-6.65567070e-02
1.01745322e-01
-3.96364406e-02
6.66106120e-02
1.79612488e-02
1.83694541e-01
5.12296744e-02
5.91025762e-02
-1.65010720e-01
4.33002524e-02
9.37246680e-02
1.24896169e-01
7.51624769e-03
-9.49261487e-02
1.24480035e-02
-1.51932985e-01
8.26907307e-02
3.91843542e-02
6.45099133e-02
2.00391486e-02
-1.68529600e-01
3.27154905e-01
9.11430195e-02
4.99103367e-02
-2.11702492e-02
-3.79330330e-02
1.21880537e-02
4.43040952e-02
2.78589781e-03
1.38209864e-01
-9.23467055e-03
7.02393949e-02
-6.65027350e-02
1.62851438e-02
7.58159980e-02
-1.90468609e-01
5.30594699e-02
3.99137065e-02
-2.44785082e-02
-4.39915620e-02
2.45235600e-02
1.56323973e-03
2.24060435e-02
2.75292601e-02
-8.85520726e-02
1.52014166e-01
-1.19705107e-02
9.75339636e-02
-3.80293161e-01
-7.83707539e-04
-9.00355056e-02
-1.40843168e-01
8.55217874e-02
-8.42505693e-02
-2.39477620e-01
5.09800687e-02
4.28347215e-02
-5.59034571e-02
2.82817637e-03
1.15323424e-01
7.05810189e-02
3.99665982e-02
-1.15423121e-01
1.53547958e-01
4.01310809e-03
4.37793843e-02
6.47867620e-02
-4.11533080e-02
-8.98608416e-02
-3.87006178e-02
1.97854802e-01
1.07015245e-01
1.15693651e-01
-1.74126804e-01
-7.98895434e-02
-5.64718954e-02
1.11794613e-01
5.53480871e-02
1.35858178e-01
9.03254226e-02
-5.30714495e-03
5.09959012e-02
7.71206543e-02
-1.96250379e-02
-6.85008168e-02
6.78236112e-02
5.58746904e-02
-9.08503495e-03
-7.76020736e-02
-3.31478715e-02
8.35525617e-02
-1.84033051e-01
-4.48028110e-02
2.74382140e-02
-2.61673238e-03
-1.05615824e-01
1.76076964e-01
8.66996646e-02
6.81328326e-02
-1.06274866e-01
-6.03330433e-02
4.43148650e-02
-2.01438382e-01
-1.13986172e-01
-1.75106395e-02
-7.07102418e-02
-6.97425380e-02
4.76193205e-02
-5.30980229e-02
5.40561862e-02
2.73618307e-02
-2.77144760e-01
1.07691251e-02
-1.46880701e-01
1.10178888e-01
-6.05848506e-02
4.37496305e-02
-1.46573773e-02
8.79654102e-03
1.32842893e-02
-1.41885336e-02
1.53483897e-01
-8.57367292e-02
6.21922128e-02
-1.50871128e-01
-3.47963050e-02
1.84310805e-02
-6.03195140e-03
9.83911678e-02
2.18590572e-01
-2.74536759e-01
-1.03026658e-01
4.89994101e-02
-2.25791186e-01
-1.65304095e-01
-3.60808894e-02
8.82331356e-02
-3.01030092e-02
-1.11210637e-01
-1.08215529e-02
-6.46107644e-03
1.75775334e-01
-2.29004711e-01
1.78514957e-01
6.07746989e-02
-2.36099102e-02
-1.06152743e-01
-1.18115703e-02
9.16420296e-02
-1.67398855e-01
9.45467800e-02
7.96967186e-03
-6.45268429e-03
4.87410910e-02
-7.21092522e-02
4.55246307e-02
6.81367144e-02
2.29230389e-01
5.22543862e-02
-6.32697791e-02
4.45043556e-02
-1.14921898e-01
-2.09623128e-02
-3.41918296e-03
5.18581904e-02
4.24732128e-03
-2.18322575e-02
-1.02353223e-01
-5.29569127e-02
1.06066912e-01
-9.29350853e-02
7.79845715e-02
2.19404604e-02
1.90003761e-04
1.12452179e-01
1.25830010e-01
1.23150788e-01
6.56488463e-02
3.44113186e-02
4.84882630e-02
1.48283392e-01
5.36317304e-02
-1.27824396e-01
-8.50964189e-02
-9.07297581e-02
4.51386906e-02
4.92636897e-02
1.74826071e-01
6.76804334e-02
1.52421951e-01
1.40715927e-01
7.07998797e-02
1.30849183e-01
4.38975245e-02
-7.93513656e-02
-6.83860481e-02
-7.01771826e-02
1.01000100e-01
2.27093175e-02
-2.80587021e-02
2.80107912e-02
6.31476715e-02
1.56647816e-01
3.16102542e-02
2.54455209e-01
-6.03042766e-02
1.53294802e-01
-8.39439258e-02
-1.92616880e-02
7.02357069e-02
1.17961966e-01
5.67106083e-02
2.30502829e-01
1.60977051e-01
4.25469950e-02
3.68051119e-02
-2.01156549e-02
-8.33230913e-02
8.22241604e-02
1.22007415e-01
-1.89546552e-02
-2.47196127e-02
-1.32185400e-01
-6.02287352e-02
-2.90271193e-02
-1.07398532e-01
3.45997475e-02
5.99068403e-03
2.02224433e-01
1.61097288e-01
1.18857108e-01
-9.07618999e-02
-1.66279495e-01
-2.29449710e-03
-2.01548431e-02
7.38801509e-02
4.53604572e-02
5.29466271e-02
3.08090672e-02
9.63287726e-02
-1.27791166e-01
2.08350524e-01
-6.08379282e-02
1.19764823e-02
-1.32099748e-01
1.35817334e-01
-8.67020339e-02
4.39858511e-02
1.73900604e-01
3.08658648e-02
9.73537005e-03
5.11988886e-02
2.82626245e-02
-3.88379544e-02
-5.21034524e-02
-4.35244516e-02
1.22576810e-01
1.38525395e-02
9.77059379e-02
1.27875414e-02
1.06674470e-01
-1.58706143e-01
1.09813720e-01
1.66902095e-01
7.13654757e-02
-1.09159283e-01
-1.47591591e-01
1.31974947e-02
-3.03663649e-02
5.50486743e-02
-3.92616726e-02
-2.67909691e-02
1.35913417e-01
-6.43503740e-02
-4.33373339e-02
-2.59937923e-02
1.62588105e-01
4.88960780e-02
7.33429641e-02
-8.44762027e-02
-9.84805748e-02
9.63300839e-02
-1.23070970e-01
5.00090942e-02
4.55722474e-02
2.63310634e-02
-6.39297143e-02
6.33788332e-02
6.07697712e-03
1.59533694e-01
8.21685940e-02
-4.81734937e-03
-1.23563781e-01
1.37500808e-01
-8.00717026e-02
-1.16394632e-01
1.38262108e-01
7.52565265e-02
-7.47418627e-02
1.32387549e-01
-8.43585953e-02
-2.34490484e-01
2.22082902e-02
-9.85059366e-02
2.37049595e-01
-1.07505275e-02
3.73966359e-02
3.52801345e-02
-5.11028059e-02
-2.52276715e-02
-7.12171048e-02
-8.70945007e-02
-1.33186102e-01
8.29454288e-02
-9.98899117e-02
1.17182165e-01
1.07974090e-01
1.66938454e-01
4.00833832e-03
-5.14572412e-02
-1.57228149e-02
7.38033429e-02
7.49201048e-03
-9.14191920e-03
3.99675174e-03
-2.10663136e-02
6.36757314e-02
-7.85395354e-02
-3.40967439e-02
1.80740952e-02
1.69817597e-01
-3.08598881e-03
1.31990854e-02
-2.24849060e-01
9.07590985e-03
-4.99773361e-02
9.61034670e-02
-7.09168464e-02
1.22065574e-01
-4.49608564e-02
1.82267115e-01
1.38428092e-01
-3.48009840e-02
-1.93920899e-02
1.38852566e-01
-6.29077554e-02
4.27608900e-02
3.18675824e-02
1.31758019e-01
6.32934123e-02
2.02485517e-01
-1.72933936e-01
-1.47372426e-03
-3.60239707e-02
7.54073411e-02
8.85635987e-02
1.27842695e-01
2.20186442e-01
-1.35609865e-01
-1.56965464e-01
4.47931467e-04
-1.86159462e-02
-1.57553658e-01
-1.06403418e-01
7.38372421e-03
-4.87013459e-02
-9.46089551e-02
-7.24390596e-02
-1.23017199e-01
1.62062643e-03
3.53508964e-02
5.41486368e-02
3.72710079e-02
-3.35023329e-02
7.43641108e-02
7.82871693e-02
-7.61010312e-03
9.49307829e-02
1.98934600e-02
3.47358659e-02
-5.88467233e-02
-1.13986470e-02
2.81988662e-02
-1.56861097e-02
-2.25082170e-02
-9.54029933e-02
-1.56246228e-02
-6.98816478e-02
-6.19338267e-02
-3.04871518e-02
-1.20184757e-01
-2.31345240e-02
-2.48610768e-02
-1.70491077e-02
-1.37898475e-01
1.30159082e-02
-9.22522917e-02
2.04073004e-02
-4.80511691e-03
7.56191229e-03
2.07638331e-02
-2.68333815e-02
-9.66404602e-02
-6.49307370e-02
-3.57144885e-02
-6.45129085e-02
3.09155844e-02
3.70711870e-02
6.51519652e-03
-1.63700163e-01
-1.14450365e-01
-3.22480686e-02
4.03289609e-02
-2.99926493e-02
-5.66524714e-02
8.10051858e-02
5.94996698e-02
-2.29179859e-02
-1.31071076e-01
-7.83296973e-02
-5.63595295e-02
8.92786775e-03
-8.25798661e-02
2.39817258e-02
2.70365197e-02
-1.14394076e-01
-6.69357851e-02
8.45333003e-03
2.16234792e-02
-4.92608547e-02
-1.20142043e-01
-7.78230256e-04
8.40262249e-02
-3.48133184e-02
-1.07932948e-01
-1.23010792e-01
-4.11048792e-02
-7.66857341e-02
-1.10504791e-01
-1.13795727e-01
-1.29943132e-01
-1.10032251e-02
-4.72565517e-02
-3.69867757e-02
-2.30261870e-03
-6.83797374e-02
-9.61754620e-02
-7.89449550e-03
5.91570549e-02
4.53350767e-02
-6.81201518e-02
-2.90111192e-02
-1.50688305e-01
1.88442953e-02
-2.65009068e-02
-6.43349662e-02
4.23140964e-03
-1.09128334e-01
-9.26803797e-03
-1.84291210e-02
-5.94833381e-02
-5.88665642e-02
-7.36146942e-02
-3.77094932e-02
7.16161802e-02
2.10848674e-02
-6.57747909e-02
-8.14174637e-02
5.45682386e-02
-8.97881091e-02
-2.97446661e-02
-2.38471311e-02
-5.60145862e-02
-1.88379698e-02
-1.75287873e-01
-4.79197167e-02
-1.38479307e-01
-1.21225752e-01
5.27314916e-02
-1.01775229e-01
2.16679834e-02
2.25959346e-02
-5.99192195e-02
-3.76912244e-02
6.00790083e-02
-1.14132706e-02
-8.91608074e-02
-9.83273685e-02
3.18870284e-02
-7.72084445e-02
-2.81522274e-02
-5.41021153e-02
-7.18404055e-02
-5.42401783e-02
-7.81893805e-02
-3.77924740e-02
-7.67320618e-02
-5.24540283e-02
-5.46338633e-02
-1.05642647e-01
-7.79947639e-02
-2.69532949e-02
3.10499314e-03
6.81474479e-03
-1.49573699e-01
-2.20414978e-02
4.07590065e-03
-7.66110942e-02
-1.78318113e-01
-5.25893942e-02
-1.85643107e-01
2.89310645e-02
1.05204634e-01
-1.27700463e-01
6.48067072e-02
3.55129540e-02
1.62531346e-01
-1.06396981e-01
-1.94060445e-01
-1.58839852e-01
1.82405367e-01
8.77483562e-02
4.60241772e-02
-3.77148837e-02
1.17114484e-01
1.11257033e-02
-1.76426202e-01
2.25646034e-01
3.33225876e-02
3.07095982e-02
-3.09313178e-01
2.37246472e-02
6.66779429e-02
-1.60168901e-01
3.08073908e-02
-3.25472839e-02
7.39509687e-02
-9.92917549e-03
1.34297824e-02
2.76046805e-02
4.16973904e-02
-8.75248984e-02
-6.52001984e-03
6.87709153e-02
-8.73364881e-02
1.07438333e-01
4.30845916e-02
8.60936716e-02
-8.07431489e-02
3.90198529e-02
-1.55019816e-02
-2.08002906e-02
7.83147588e-02
1.67242080e-01
-2.75778566e-02
-1.11292094e-01
-7.02133626e-02
-1.72385037e-01
1.87402353e-01
5.75461648e-02
2.23368496e-01
-9.66489688e-02
-1.50272259e-02
2.00106129e-02
-4.81930114e-02
-7.99852535e-02
4.81612124e-02
8.23719501e-02
4.16098870e-02
-5.82234710e-02
-4.00300603e-03
-1.13385944e-02
-7.84561113e-02
-8.68061632e-02
2.41277277e-01
-2.09494075e-03
1.09440543e-01
-6.62964359e-02
-2.71630675e-01
5.35737313e-02
-7.61078969e-02
4.50733909e-03
-2.16563046e-01
6.39275822e-04
-1.11136742e-01
2.66216826e-02
2.13398248e-01
2.83963710e-01
2.49739978e-02
-3.60339954e-02
6.98262304e-02
-6.53830096e-02
-6.74671531e-02
-6.63034171e-02
-1.20185085e-01
-7.62249604e-02
1.35842785e-01
2.03286693e-01
3.11406776e-02
6.08935347e-03
2.16212161e-02
-5.49522601e-02
-1.05724119e-01
1.41748786e-01
-8.14269781e-02
-1.59579650e-01
-2.26881519e-01
1.29127577e-01
-7.33948499e-02
-1.46565288e-01
-4.51589264e-02
1.42259866e-01
7.56024718e-02
1.38806715e-03
2.04648688e-01
1.11914121e-01
-1.66647598e-01
-1.12843281e-02
1.97756886e-01
4.46097255e-02
2.93630194e-02
8.62767771e-02
-1.18688785e-01
7.69124553e-02
4.36502546e-02
2.05979757e-02
6.02213591e-02
1.13192685e-01
-7.72748888e-02
1.07789766e-02
5.07851765e-02
2.11016275e-02
2.74251610e-01
-1.23685069e-01
7.99250230e-02
4.97319959e-02
8.70034248e-02
1.98258497e-02
-1.33859739e-01
-7.10406303e-02
3.87797877e-03
7.93703571e-02
1.37576088e-01
1.10546857e-01
1.67191047e-02
6.40787557e-02
6.17279522e-02
-5.51678985e-02
5.55785522e-02
8.06347951e-02
-1.84917375e-01
-7.05095828e-02
2.30887998e-02
9.82644483e-02
4.31317315e-02
-2.28141978e-01
7.99673274e-02
-2.66823918e-02
2.47193754e-01
5.10337129e-02
9.91553664e-02
-2.02682000e-02
-1.39777631e-01
-9.31901112e-02
-4.36824448e-02
1.42025784e-01
1.13555446e-01
-3.70175280e-02
4.27102372e-02
-9.09369290e-02
-2.47414839e-02
6.45464212e-02
2.78569255e-02
-8.50879401e-02
-1.98797174e-02
9.39532369e-02
1.37297690e-01
1.17810339e-01
-6.07282519e-02
6.77679554e-02
6.37431890e-02
5.75893908e-04
2.33900528e-02
-1.55344650e-01
6.48626089e-02
2.99166068e-02
-1.77699327e-01
-1.06212296e-01
-2.49096304e-01
-1.83558632e-02
-7.06944242e-02
1.59356043e-01
-7.54524693e-02
-1.07753333e-02
3.00776567e-02
-7.10814148e-02
7.15830782e-03
-7.95409605e-02
1.91463381e-02
-1.25226304e-01
-5.26380911e-02
-2.08827123e-01
-1.00979671e-01
-1.05002820e-01
2.42015021e-03
-9.07417387e-02
1.63364992e-01
7.58345500e-02
8.78433883e-02
6.55236170e-02
-2.57003866e-02
1.91874340e-01
-1.71673939e-01
-4.15350590e-03
-7.88497925e-02
-2.01697275e-01
7.08429441e-02
2.91074514e-02
-9.11633447e-02
-3.04878578e-02
-3.94910686e-02
-4.76610549e-02
-2.38563508e-01
3.96501683e-02
-1.14902034e-01
-1.19400568e-01
1.32634258e-02
-2.67861579e-02
9.94098932e-02
-1.74153477e-01
1.12473108e-01
-3.28468859e-01
8.46749097e-02
1.49498001e-01
1.65072396e-01
1.19597130e-02
-8.73497163e-04
3.80271077e-02
-2.47379780e-01
-2.39703357e-01
-3.61174867e-02
-2.63470858e-01
4.16741334e-02
7.12658837e-02
5.05747721e-02
-8.50461051e-02
-3.98352705e-02
1.99783826e-03
4.09515575e-02
-5.64474724e-02
9.76066589e-02
7.41556287e-02
-1.97422355e-02
-7.85615966e-02
-7.65672550e-02
8.02309513e-02
-1.75377931e-02
1.76141318e-02
-2.86425531e-01
1.18457973e-02
-7.92932287e-02
-5.93077540e-02
-2.61102477e-03
-1.13324650e-01
9.38398018e-02
8.03973526e-02
7.63276964e-02
-4.84568737e-02
-4.69474420e-02
-1.51540160e-01
3.07796467e-02
-3.24201956e-02
-1.08232006e-01
4.28186804e-02
8.30095336e-02
-1.61467314e-01
-5.92715815e-02
-3.02750859e-02
2.20969707e-01
1.03066243e-01
2.80733500e-02
-8.43981579e-02
-4.68048528e-02
1.46192461e-01
5.90450689e-02
-2.48099677e-02
-1.51479736e-01
3.96332853e-02
-3.03281963e-01
-2.97368760e-03
3.03350925e-01
-4.83675301e-02
1.21583469e-01
-5.57944067e-02
1.48630559e-01
1.03148997e-01
8.26475173e-02
1.13994867e-01
9.24317986e-02
5.30746579e-02
-1.05887651e-01
1.00283578e-01
-7.68774077e-02
-6.13966547e-02
8.70473087e-02
-1.45794645e-01
-5.48916347e-02
2.10862905e-02
1.02000013e-01
-1.80145223e-02
-4.16762903e-02
6.71135709e-02
-1.81825578e-01
2.16865093e-01
4.65547815e-02
3.69806727e-03
-1.04894675e-01
-6.41786084e-02
-7.64654949e-02
-2.66846083e-02
1.17233284e-01
-3.24658938e-02
1.47108689e-01
8.35929736e-02
-7.92470947e-03
-1.99130625e-02
-2.73370203e-02
-5.29318396e-03
-6.24140836e-02
-1.27799883e-01
1.76516697e-02
-2.89865267e-02
5.17806895e-02
4.10859287e-02
-6.28190711e-02
3.17960116e-03
3.20470370e-02
-5.35482466e-02
-2.03233846e-02
-2.92382594e-02
-5.58175221e-02
-1.50023311e-01
-6.77813077e-05
1.78889871e-01
3.02053168e-02
2.33897224e-01
-2.87586707e-03
1.60248473e-01
-7.58068338e-02
-9.94150178e-04
-2.80851647e-02
1.54684961e-01
-8.08290690e-02
6.11171424e-02
8.34411010e-03
1.05819069e-01
-2.23484845e-03
6.04435615e-02
-7.07110316e-02
-6.71815574e-02
-1.08540244e-01
4.47063483e-02
1.14084557e-01
4.77398075e-02
5.37624769e-02
1.42879248e-01
2.42349908e-01
1.76185697e-01
2.30848026e-02
4.59959731e-02
-8.28912035e-02
8.80489647e-02
1.17180556e-01
-6.78980574e-02
1.01146907e-01
1.33420229e-01
1.16552971e-01
4.63353805e-02
7.29356036e-02
5.83959110e-02
5.53432330e-02
1.92062020e-01
1.17743082e-01
-8.89611095e-02
1.41479671e-01
-1.39508665e-01
-1.39328307e-02
9.95265041e-03
8.68614912e-02
-5.92032894e-02
-1.68317735e-01
-5.16917631e-02
1.44256294e-01
1.27968714e-01
7.30917379e-02
-2.21660659e-01
1.37896046e-01
3.39697301e-01
-1.07317999e-01
-1.17484584e-01
8.39165598e-02
3.26209664e-02
2.43053026e-02
-1.16566494e-01
1.42759204e-01
9.43515673e-02
-3.09280516e-03
-4.82806331e-03
-7.27284653e-03
9.08809975e-02
-1.84152350e-02
1.21544544e-02
-5.48879616e-02
7.05722943e-02
6.46398515e-02
3.41356080e-03
-3.57361995e-02
3.00756574e-01
3.29376049e-02
-3.44215147e-02
-4.29323800e-02
-2.69613042e-02
5.98870367e-02
1.32186658e-04
-1.02272332e-02
1.39347771e-02
-9.47867930e-02
-6.09396771e-03
6.26879325e-03
1.97745547e-01
1.06652871e-01
-1.08065724e-01
6.10463358e-02
-1.59360155e-01
-2.74190865e-02
1.26475142e-02
-9.04965699e-02
-6.55738935e-02
8.02633017e-02
2.68224603e-03
1.04647623e-02
1.01742148e-01
-1.04389019e-01
-5.99029325e-02
1.02855593e-01
4.90361191e-02
-6.31940514e-02
1.59666196e-01
-7.31326342e-02
7.33524486e-02
-7.20891589e-03
-1.68631911e-01
3.45676974e-03
-4.81894836e-02
-6.77277371e-02
2.54777044e-01
1.05883963e-02
1.84457898e-01
-3.79625708e-02
-9.06800851e-02
-5.00880033e-02
1.47510534e-02
-2.02871144e-01
-6.91940784e-02
-1.94056809e-01
-2.00271159e-02
1.61806613e-01
-2.83170864e-02
5.83562665e-02
2.01132428e-02
1.32654637e-01
1.02980575e-02
2.45921258e-02
-1.53778777e-01
1.64800495e-01
-5.04051298e-02
2.88250800e-02
1.41421752e-02
2.67009854e-01
8.43200758e-02
8.15069526e-02
6.85052993e-03
-1.43001750e-01
-1.11553378e-01
1.93328820e-02
-9.61327776e-02
-3.68162654e-02
2.21469570e-02
1.32568106e-01
7.70380348e-02
1.09160148e-01
-2.00516030e-01
3.72138992e-02
6.95021730e-03
1.49365142e-01
-1.44809484e-01
1.27684623e-01
4.71466072e-02
3.13212723e-02
6.39568865e-02
-9.83962342e-02
-7.37835653e-03
-1.78390831e-01
-1.17681593e-01
5.19737825e-02
2.39612907e-02
1.14341959e-01
-1.69748828e-01
-1.64327189e-01
-9.62082576e-03
-3.66217121e-02
1.57786850e-02
-2.28774801e-01
-5.37238829e-02
-2.52011269e-01
8.86814594e-02
1.44329786e-01
6.22772574e-02
4.64752913e-02
-1.65338740e-01
-1.45821482e-01
7.73351043e-02
1.31196693e-01
2.09512394e-02
1.29625306e-01
-8.58621001e-02
-6.38668388e-02
8.12799856e-03
7.80008733e-02
-5.64358644e-02
-1.35925472e-01
9.59065706e-02
2.69314088e-02
-7.33876005e-02
-5.45624457e-02
-1.44775733e-02
2.06263158e-02
-3.81552279e-02
1.82417873e-02
-5.59212081e-02
9.93050076e-03
3.89534496e-02
-2.32994277e-02
-5.55961691e-02
-5.32289557e-02
-6.59696758e-02
-2.11690530e-01
7.88030401e-03
1.05190300e-03
1.10695995e-01
-1.26786297e-02
1.15769245e-01
9.43649411e-02
1.48155287e-01
9.82718095e-02
-5.68454601e-02
8.57624784e-02
-2.82324493e-01
-8.47587734e-02
4.04289830e-03
-2.61856150e-02
1.10343471e-01
6.67924508e-02
4.58017848e-02
7.42058828e-02
4.13275883e-02
1.62467989e-03
-1.48002645e-02
1.19571626e-01
-6.58146739e-02
8.93630832e-02
1.28036052e-01
1.30104750e-01
-1.15363143e-01
2.86073629e-02
3.40996347e-02
1.35194436e-01
-6.95589930e-02
-1.70155987e-02
9.43779424e-02
-1.01717085e-01
-8.55993852e-02
-3.38598825e-02
1.69950411e-01
5.98488413e-02
2.03724205e-02
-5.27531505e-02
5.42312041e-02
2.86991522e-02
1.25167206e-01
-1.07204907e-01
-4.29296978e-02
7.68986568e-02
1.10640869e-01
9.03621688e-02
-3.63746732e-02
6.48713410e-02
1.30642802e-01
7.29655325e-02
-4.69962135e-02
2.64680665e-02
-1.90795865e-02
-9.82171893e-02
9.08564702e-02
-7.20628649e-02
4.00300659e-02
-2.06070617e-02
-2.65936814e-02
1.78922623e-01
6.68836161e-02
8.03034753e-03
-7.40120038e-02
-1.19489014e-01
1.97118297e-02
-4.43093628e-02
9.87240002e-02
-9.19126719e-02
1.59510653e-02
-1.40511051e-01
7.72965774e-02
8.09734389e-02
1.28905810e-02
-8.29888135e-02
-1.09028220e-01
2.52654701e-01
-1.72363445e-01
-5.46130836e-02
8.83515477e-02
-2.97296066e-02
-5.42573445e-02
-6.59761354e-02
1.31647335e-02
3.37354988e-02
7.54348096e-03
3.48581821e-02
8.57596770e-02
1.91796497e-01
9.92415547e-02
-2.06715301e-01
1.69632360e-01
-2.35939324e-02
6.89085722e-02
1.10305063e-01
-8.66685621e-03
-5.62174544e-02
1.29191086e-01
2.80061178e-02
-1.13082686e-02
-5.16231172e-02
-1.60496011e-02
8.86892006e-02
-8.44944939e-02
-1.89389005e-01
8.45196098e-02
-2.51154870e-01
1.22200511e-01
8.11058432e-02
2.05591679e-01
-1.61273510e-03
9.95646194e-02
1.60565544e-02
8.62617567e-02
6.33420944e-02
1.41677126e-01
5.48350327e-02
-1.54692065e-02
-3.89983766e-02
-8.79467577e-02
1.42328784e-01
1.36196287e-02
2.69172601e-02
4.98331785e-02
-1.05555065e-01
3.40113859e-03
-2.18932535e-02
-2.33079568e-02
6.13016747e-02
-5.51610403e-02
4.01374139e-02
1.10316038e-01
-5.85839115e-02
-9.65850130e-02
5.23683727e-02
6.09805174e-02
-3.66644152e-02
-1.88072160e-01
-6.40654042e-02
-2.70279169e-01
9.36434194e-02
-1.10914372e-02
-2.53095347e-02
-1.80033315e-02
-1.23829722e-01
-8.53941664e-02
7.89199844e-02
9.77780148e-02
-9.50805284e-03
2.43839100e-01
-5.17534390e-02
2.43888363e-01
-2.50711709e-01
-1.25870099e-02
-9.67422798e-02
-7.62694776e-02
2.41173863e-01
6.04632236e-02
-1.51125222e-01
1.02930114e-01
1.34324476e-01
-5.15753515e-02
-7.20189661e-02
9.17268544e-02
4.67024818e-02
3.67679112e-02
2.77195014e-02
8.73870328e-02
1.82687998e-01
5.83675653e-02
8.43485743e-02
-1.15108322e-02
-1.56426549e-01
-2.42714975e-02
6.40546158e-02
1.34509966e-01
2.96933949e-01
-1.75090313e-01
-2.08737701e-01
-2.93864101e-01
2.77165789e-02
-9.21398681e-03
1.58195585e-01
1.15330912e-01
2.58298181e-02
-7.87346065e-02
1.49829656e-01
-5.03645614e-02
-1.55529693e-01
1.44222468e-01
-1.03387035e-01
1.17413022e-01
-8.09685737e-02
3.74178663e-02
7.32460767e-02
-1.00942783e-01
1.48238584e-01
1.37648620e-02
-2.46488228e-01
4.96212617e-02
1.37120336e-01
2.24382188e-02
1.08644627e-01
-1.34847432e-01
-7.22990781e-02
2.45394539e-02
-7.15070292e-02
-1.33730277e-01
-4.84938733e-02
-7.62660801e-02
8.79708603e-02
1.24450378e-01
-6.34057373e-02
-5.74301593e-02
1.75070152e-01
-9.83281732e-02
9.88862291e-02
-7.93796107e-02
1.30651351e-02
-5.91881908e-02
6.30028844e-02
1.17731253e-02
1.23114586e-01
2.30184272e-02
-2.18090996e-01
-7.97098782e-03
1.83106456e-02
1.31575558e-02
-6.00390695e-02
-5.17276637e-02
-1.13155328e-01
-9.37771201e-02
-7.13561103e-02
4.19599891e-01
3.80699709e-02
5.38010448e-02
7.06926407e-03
-7.89498687e-02
-9.46034268e-02
-9.30788666e-02
1.57970130e-01
1.45364702e-01
1.72246829e-01
1.24882109e-01
9.18622985e-02
1.13199830e-01
-1.12919033e-01
-3.81475277e-02
3.08475588e-02
-1.48259588e-02
8.42577443e-02
-8.12847354e-03
-6.12281146e-04
6.31555393e-02
-4.23231497e-02
-1.49441110e-02
1.05543703e-01
6.01439364e-02
1.21213287e-01
-1.35703683e-02
6.94515780e-02
-5.68753034e-02
9.20318067e-02
-5.18630259e-02
-6.82354644e-02
9.47678462e-02
3.57594229e-02
4.36224416e-02
8.66719708e-02
-1.24910817e-01
7.68956095e-02
6.37812614e-02
5.39201871e-02
-8.59461501e-02
4.43839282e-02
-1.47958785e-01
1.58630684e-01
2.28387956e-02
-1.58946335e-01
-1.13056891e-01
-1.57658622e-01
-8.84630717e-04
1.12775348e-01
1.19140007e-01
-7.37555400e-02
-1.80173777e-02
-4.85279635e-02
-1.16806976e-01
1.31850183e-01
-6.82151318e-02
-7.03467280e-02
2.95946840e-03
-6.32068142e-03
2.29390785e-02
-6.24338798e-02
7.59608522e-02
1.49494007e-01
-1.39823202e-02
2.07227003e-02
-2.54415944e-02
-2.12679908e-01
-9.60420668e-02
2.11555865e-02
5.57984821e-02
8.53611976e-02
-1.88470423e-01
9.19392332e-02
-2.43687898e-01
8.25588033e-02
2.35587955e-02
-1.35474265e-01
-3.58884297e-02
-7.86476806e-02
6.03563786e-02
4.42804880e-02
7.48480298e-03
-6.01340756e-02
1.79750696e-01
1.23931449e-02
7.77938291e-02
-1.09375156e-01
-7.66836256e-02
9.37848613e-02
1.25720695e-01
-4.70311269e-02
1.47382423e-01
1.52586028e-01
-3.12075410e-02
-7.10569024e-02
1.69403758e-02
-1.35533124e-01
-1.73375830e-01
2.66826674e-02
-2.46047035e-01
2.25565843e-02
-1.68870687e-01
-2.91155018e-02
7.09395334e-02
1.38953505e-02
-2.35039473e-01
5.57290167e-02
7.78750777e-02
-1.94713250e-02
3.44486814e-03
-1.47653401e-01
-6.78796843e-02
1.08146958e-01
-2.61740796e-02
-1.79435477e-01
8.55236948e-02
-2.21869826e-01
-6.56986311e-02
6.18918613e-02
1.42583605e-02
-7.45276660e-02
8.46011192e-02
2.56200761e-01
-3.80274393e-02
1.58045590e-01
-2.73909662e-02
1.62640154e-01
3.08556911e-02
9.46400985e-02
3.70354950e-02
-6.20290302e-02
-7.41190985e-02
-1.05256075e-02
1.02769718e-01
1.14421271e-01
-7.42215440e-02
2.48775169e-01
1.68847349e-02
5.82325198e-02
-1.87888425e-02
1.69688061e-01
-4.02917042e-02
-4.28540520e-02
-1.48945451e-01
-2.00801268e-02
-4.29561362e-02
5.84265701e-02
-1.43074505e-02
1.57846719e-01
-5.95443510e-02
-5.40315919e-02
-6.09690547e-02
1.07990399e-01
4.47291695e-02
-2.56272336e-03
-2.68866420e-02
-5.04718162e-02
3.67946737e-02
7.46575966e-02
1.80367932e-01
-4.34115678e-02
9.02861357e-02
2.36655865e-02
-1.31216675e-01
7.47253792e-03
4.03033793e-02
1.73808634e-01
7.04699829e-02
5.30301519e-02
1.28888473e-01
4.38631065e-02
2.10831717e-01
1.36578053e-01
1.87846310e-02
6.23931959e-02
-3.06710266e-02
-1.46367764e-02
1.17310055e-01
-2.49712378e-01
-1.10196937e-02
6.57360926e-02
-1.14018440e-01
1.24167623e-02
2.30956916e-03
-3.06195971e-02
-1.34296149e-01
-1.18315279e-01
-1.46693170e-01
-4.55700196e-02
-1.60439193e-01
8.87005851e-02
8.16888213e-02
-3.44467722e-02
-5.80695681e-02
-1.55423945e-02
1.97143815e-02
-1.39796063e-01
-1.21113859e-01
-1.63770393e-01
-1.16745897e-01
1.47745207e-01
-9.66148451e-02
6.06673881e-02
-4.49060872e-02
-1.73006218e-03
-4.29219706e-03
-3.66442949e-02
1.05895519e-01
-1.35800630e-01
2.59448215e-02
8.15258995e-02
8.59914497e-02
-1.64572541e-02
1.21968880e-01
-6.45099506e-02
6.23596348e-02
-1.01862527e-01
9.30378139e-02
-2.50593368e-02
-4.06558216e-02
4.55065221e-01
9.26343203e-02
-1.47685766e-01
-4.79420535e-02
1.39217451e-01
1.77070335e-01
-1.17958657e-01
2.36877729e-03
-1.44859597e-01
-1.25012696e-01
1.51190549e-01
-6.99453522e-03
-6.24459349e-02
-1.11238495e-01
1.55870402e-02
-4.41733152e-02
6.80759400e-02
-1.19285788e-02
9.35180783e-02
-2.06471737e-02
1.34624913e-01
-3.39295007e-02
2.99261324e-02
3.63246049e-03
-4.26442847e-02
2.85912994e-02
1.19878994e-02
-1.20893128e-01
7.39615709e-02
-1.60569042e-01
-3.71553712e-02
7.72279724e-02
2.59628240e-02
-2.54190750e-02
7.30255917e-02
-3.20588022e-01
5.99677600e-02
-2.13936921e-02
-1.54229533e-02
4.23433036e-02
3.64611037e-02
2.67765969e-01
2.47601792e-02
-6.09236723e-03
-4.32628281e-02
-3.27191241e-02
-7.99368173e-02
-1.21201226e-03
1.29234046e-01
9.78624001e-02
-2.74446905e-02
2.49040648e-02
3.35140452e-02
6.07105345e-02
-9.75722298e-02
8.90287608e-02
-2.46367902e-01
-2.75057349e-02
-5.45087457e-02
1.60660714e-01
-7.75829628e-02
3.84699949e-03
-1.20963566e-02
1.72372386e-01
5.34783825e-02
3.42388675e-02
1.42505050e-01
-1.04481027e-01
-6.69146702e-02
1.88446909e-01
2.50967294e-02
1.67889625e-01
3.90483439e-02
3.89765739e-03
4.56608906e-02
-2.57160817e-03
-1.01092622e-01
8.87760594e-02
-6.63307905e-02
-1.41911760e-01
1.06021039e-01
4.12153751e-02
2.83935368e-01
4.01106142e-02
5.13639897e-02
-1.01499230e-01
8.51022601e-02
-3.42298509e-03
1.84786707e-01
1.34336993e-01
-1.96169451e-01
-7.04013929e-02
2.53642518e-02
1.45641461e-01
5.34471450e-03
1.00453585e-01
-1.18005827e-01
6.66531101e-02
-3.11517739e-03
1.77477095e-02
-4.22060788e-02
-5.08441813e-02
1.64183006e-01
-2.04980783e-02
6.98843598e-02
-1.29745126e-01
6.24323310e-03
1.76295444e-01
-1.46610392e-02
6.49573980e-03
-6.03385456e-02
8.18886161e-02
6.32743686e-02
6.31919429e-02
-4.65611890e-02
3.32089365e-02
1.00976102e-01
-8.80333558e-02
9.19336900e-02
-3.10613941e-02
5.27042411e-02
1.22498209e-02
-5.86376041e-02
7.02842698e-02
7.35535566e-03
7.19157085e-02
2.59192977e-02
-1.88890975e-02
-1.26664052e-02
1.21636502e-01
1.63442846e-02
3.79473045e-02
-1.21639065e-01
5.00110153e-04
-1.33593157e-02
9.36451256e-02
-1.18765615e-01
1.52480379e-01
4.71511297e-02
-6.92910478e-02
1.26790911e-01
6.21227138e-02
-1.60220806e-02
-4.32036780e-02
8.04474503e-02
-2.36715842e-02
2.50428379e-01
1.17150851e-01
-1.38894781e-01
6.62622824e-02
7.29580969e-02
8.87185633e-02
7.96266273e-02
2.07415484e-02
-2.36430511e-01
3.11351642e-02
-4.11742441e-02
2.34500065e-01
-7.93844834e-02
1.00441948e-02
-1.55034408e-01
-1.03495263e-01
1.20189600e-01
-1.28580853e-01
-1.11665860e-01
-2.22158525e-02
-5.75040020e-02
-1.45753637e-01
-4.67950776e-02
6.80537820e-02
-3.53746936e-02
-1.27078727e-01
-1.04907356e-01
-6.82141632e-02
-8.47002566e-02
-4.81190197e-02
-2.66902037e-02
-7.08732978e-02
-1.71001479e-02
3.88608910e-02
-1.39531210e-01
-2.48220693e-02
-3.43826599e-02
1.13765001e-01
4.45330068e-02
-8.70919321e-03
8.24297816e-02
-1.10600434e-01
-1.72181010e-01
2.45064590e-02
-9.01881829e-02
-1.21599704e-01
-1.24954313e-01
2.48087142e-02
1.46944076e-01
-2.61827605e-03
-1.06720127e-01
1.18675893e-02
2.28412286e-03
-1.07286163e-02
7.32166469e-02
-1.40328985e-02
-3.25728655e-02
-3.92779782e-02
-1.13534987e-01
1.60826415e-01
-7.99827427e-02
-2.17247605e-02
1.51606560e-01
8.21459368e-02
8.93671811e-02
-3.74564603e-02
-5.24003170e-02
-1.11302331e-01
5.09450817e-03
-3.87121104e-02
-1.28206775e-01
-1.73537493e-01
1.73066312e-03
2.73950938e-02
-2.54508462e-02
5.29738963e-02
-1.51352584e-01
1.05397560e-01
-1.26155540e-01
-6.13905601e-02
-6.13033660e-02
-2.44018547e-02
-9.07420889e-02
-2.88636256e-02
-3.50872502e-02
6.75466843e-03
2.94053182e-02
-1.96031585e-01
9.64932293e-02
5.61790541e-02
4.74134870e-02
-2.73210574e-02
2.50576548e-02
-1.44540835e-02
2.63440795e-02
-1.96411639e-01
4.79521304e-02
-4.56659272e-02
-9.68257263e-02
-3.61638255e-02
1.29720256e-01
5.39903790e-02
-1.39083192e-01
-1.52131408e-01
-1.16522253e-01
8.76470562e-03
1.44835543e-02
-7.23075718e-02
-1.30357267e-02
1.35128293e-02
-4.14054394e-02
-1.41498148e-01
-1.48054585e-01
-9.07376185e-02
-1.70257110e-02
-4.76141181e-03
6.60086470e-03
-6.29772246e-03
-8.89772400e-02
-8.41972604e-02
-1.08926117e-01
6.26679435e-02
1.22308475e-03
-4.31716405e-02
-6.54424950e-02
4.82031703e-02
-7.93241933e-02
-2.54133791e-02
-7.61416852e-02
6.47875592e-02
3.53353396e-02
-1.14731617e-01
-6.62014633e-02
2.61921622e-02
-1.24850385e-01
-1.26411170e-02
-1.20011993e-01
4.33399901e-03
1.69458255e-01
4.56639573e-05
2.01379895e-01
-2.88843140e-02
-9.10257280e-04
2.03553751e-01
-3.38891111e-02
3.59316692e-02
2.55837500e-01
1.31430879e-01
-6.72986582e-02
1.78402895e-03
6.23605661e-02
9.86606106e-02
6.81000203e-02
4.06193994e-02
1.82321906e-01
6.33293092e-02
6.30207639e-03
2.85404772e-02
2.25728229e-01
-1.16833530e-01
-2.86188852e-02
2.72731259e-02
1.68435276e-01
-4.42604981e-02
1.34436592e-01
-4.26371619e-02
-3.12825032e-02
-1.44998003e-02
2.74593029e-02
4.06552106e-02
3.53952423e-02
-1.20777655e-02
-1.68552436e-02
1.34626487e-02
-1.06670402e-01
-3.59543152e-02
-1.21919170e-01
2.99786460e-02
7.16557801e-02
1.23065434e-01
5.79147898e-02
1.39493182e-01
3.05724200e-02
4.19993363e-02
-2.49624643e-02
1.84665434e-02
1.45888207e-02
1.20949194e-01
1.74347147e-01
4.82145399e-02
1.15785981e-02
-1.18159711e-01
-5.46880960e-02
4.73089218e-02
7.05091432e-02
-5.04708178e-02
-2.03544214e-01
7.87784308e-02
-1.06723100e-01
-3.68614309e-02
-4.91999723e-02
-2.53688022e-02
-4.83223274e-02
-1.32903501e-01
1.29977763e-01
1.89536676e-01
-5.52616529e-02
6.18304051e-02
4.97909971e-02
4.33579646e-02
2.25424111e-01
-5.45453764e-02
1.14706159e-01
2.29130182e-02
7.73538724e-02
-1.62499119e-02
2.79137380e-02
-5.56028038e-02
5.06080780e-03
-2.38725871e-01
1.05731763e-01
-9.75046083e-02
-1.26682073e-01
1.20355211e-01
-9.11924616e-03
-3.11968685e-03
-2.77450830e-01
9.79708508e-02
3.92280966e-02
-5.54595292e-02
1.06456608e-01
1.26183630e-04
-5.61168194e-02
1.07493632e-01
1.09074265e-01
-1.28348516e-02
1.45939188e-02
-4.06462848e-02
2.87196994e-01
-2.82335300e-02
-5.29666394e-02
2.01983705e-01
-1.53077796e-01
6.58738464e-02
-1.23206653e-01
-3.98049550e-03
1.39551691e-03
3.71992663e-02
1.23270445e-01
-3.75976562e-02
-1.42922148e-01
-2.61961520e-01
2.16862448e-02
5.48230335e-02
-9.43706557e-03
2.17639685e-01
1.08130254e-01
-4.51085083e-02
1.58701520e-02
-5.59214205e-02
-8.43290761e-02
6.85345605e-02
1.10408470e-01
-6.64906725e-02
-8.13530758e-02
6.90615773e-02
3.85876112e-02
7.38438591e-02
-1.09391510e-01
1.78340822e-02
2.87076682e-02
6.01771139e-02
1.83139145e-02
-6.94510480e-03
1.66762963e-01
-7.88161680e-02
-1.62113786e-01
1.32332638e-01
1.74542870e-02
4.33261842e-02
-1.08877141e-02
-1.04044266e-01
-2.35290557e-01
-1.62294656e-01
-1.04378551e-01
-1.48623750e-01
1.27981335e-01
-9.41340327e-02
-2.02526629e-01
1.08907871e-01
-3.05059135e-01
3.41502503e-02
-1.51962236e-01
2.80623406e-01
-7.86830671e-04
-1.39177553e-02
-4.76379618e-02
6.27663061e-02
3.91116403e-02
-1.14342077e-02
2.98319906e-02
6.76583722e-02
4.73680533e-02
1.00147650e-02
1.25192344e-01
-1.67505711e-01
-8.10296088e-02
-4.42183539e-02
-2.61488948e-02
3.54623310e-02
-1.45874601e-02
-1.89211331e-02
7.66445473e-02
-1.45314440e-01
1.09176338e-01
-1.26271859e-01
2.54447293e-02
-8.16832483e-02
-4.19156775e-02
-1.70089722e-01
-6.98300079e-02
9.93829966e-02
9.33808014e-02
-4.58217375e-02
-9.67691392e-02
2.39175977e-03
5.80545738e-02
6.38061296e-03
-7.27250278e-02
5.72979031e-03
2.49290373e-02
8.62399787e-02
-2.67260447e-02
3.02153435e-02
-2.85549313e-01
3.34007815e-02
-1.88237011e-01
-5.53237125e-02
-3.62340026e-02
-5.17944954e-02
9.16219056e-02
2.99422611e-02
8.07475671e-03
9.46160778e-02
-2.86837667e-01
-3.15907970e-02
-6.05120957e-02
1.00915834e-01
-1.60449713e-01
1.07111201e-01
3.82989533e-02
-1.77590892e-01
5.91054112e-02
9.81863122e-03
-2.98080921e-01
-5.35979047e-02
-1.95658237e-01
-2.06626967e-01
4.38311026e-02
-2.33353022e-02
-1.62240714e-02
6.18270375e-02
6.53754771e-02
-2.16282710e-01
-1.37351856e-01
-2.84247310e-03
9.63889360e-02
-2.27062553e-02
-1.34138301e-01
1.79823235e-01
8.96520913e-04
2.64700707e-02
-1.17348030e-01
8.74501690e-02
3.17724757e-02
1.56785026e-01
-1.46753132e-01
3.87614407e-02
-1.93962410e-01
2.84871832e-02
3.67558934e-02
-6.26905188e-02
-1.71937123e-01
1.49797693e-01
1.14937894e-01
-1.99473556e-02
-3.66671264e-01
5.44634871e-02
4.94043231e-02
7.34219924e-02
-2.32646629e-01
8.53694603e-02
-2.63984710e-01
9.64396521e-02
-1.92499891e-01
1.53079286e-01
-2.12163121e-01
-3.25002931e-02
5.97953461e-02
-1.48106262e-01
2.28672344e-02
-4.78717275e-02
-1.82644665e-01
-6.99579567e-02
3.66646312e-02
-1.11389495e-01
1.41962260e-01
3.64670642e-02
-8.08663741e-02
3.20630297e-02
-5.95914721e-02
-8.78435448e-02
-9.98299941e-02
-8.60048160e-02
7.14327022e-03
-6.33840710e-02
-5.14440201e-02
-6.22699372e-02
-2.94998270e-02
3.38357463e-02
-8.81747529e-02
2.84790576e-01
2.15258807e-01
6.57511204e-02
-9.74148661e-02
9.62595493e-02
2.03339607e-02
6.21740036e-02
1.56114260e-02
1.63605884e-01
-3.04481555e-02
-7.56364465e-02
8.89723524e-02
-1.16155455e-02
9.45094004e-02
-2.13622764e-01
7.15103671e-02
-1.64642632e-01
1.09200016e-01
1.17123432e-01
-9.83807817e-02
-2.11095288e-02
-4.47424203e-02
6.58987090e-02
-1.56748012e-01
6.57402501e-02
-2.64113635e-01
2.93406774e-03
-1.85832292e-01
1.05750166e-01
-6.52655810e-02
-7.10873306e-02
1.63086757e-01
-1.05536235e-02
-1.16725571e-01
-1.26009226e-01
-2.43854467e-02
-1.96705312e-02
-6.13203309e-02
1.26092792e-01
1.15723662e-01
2.16425434e-02
-1.88770257e-02
-2.67807897e-02
-1.20805584e-01
-4.80514430e-02
-7.03391898e-03
3.52136604e-02
-1.30955249e-01
-4.90459837e-02
2.12221220e-02
-4.25892323e-02
1.34600699e-01
-1.69458777e-01
1.13250479e-01
1.71221524e-01
3.09865661e-02
5.06893061e-02
1.45904213e-01
3.17754634e-02
1.13247531e-02
3.47031020e-02
7.35796988e-02
2.87610814e-02
-2.05769092e-01
1.09997921e-01
-1.73281744e-01
-1.76443920e-01
1.20324478e-01
-1.44735500e-01
2.09523365e-02
1.87226027e-01
2.46845651e-02
7.52189308e-02
-1.51193261e-01
-1.85594052e-01
3.53458263e-02
4.90140216e-03
7.09720477e-02
1.47821590e-01
1.59559309e-01
8.62030089e-02
-1.38289854e-01
1.23792879e-01
1.18537232e-01
4.68920618e-02
-6.67412579e-02
1.11815311e-01
6.22718083e-03
4.85600345e-02
5.43809161e-02
4.46077585e-02
-5.55735454e-02
-9.19520259e-02
-4.06013951e-02
-3.44773158e-02
-1.75055474e-01
-1.66269749e-01
-3.27073634e-01
5.17756827e-02
1.04556799e-01
1.57322451e-01
-7.45141655e-02
-1.55085891e-01
-7.31997043e-02
2.86303014e-02
-3.57265696e-02
6.84980452e-02
-7.45445639e-02
1.19894020e-01
5.56246415e-02
7.93079287e-02
7.54069388e-02
-1.37640670e-01
-2.53154989e-02
-1.39907122e-01
1.20194219e-02
9.00343433e-02
4.18306999e-02
4.02357057e-02
1.72271132e-02
-3.75553779e-02
2.95543466e-02
-3.34513932e-03
-2.69619692e-02
-7.49452710e-02
9.58655179e-02
6.42774701e-02
-6.90821111e-02
-5.42752184e-02
2.19997764e-02
2.46413331e-02
3.38698812e-02
-4.70097512e-02
9.26853195e-02
3.89818661e-02
4.73276637e-02
-1.19283102e-01
6.47928268e-02
-7.95179754e-02
1.28699280e-03
5.52344993e-02
1.69481505e-02
-5.36052287e-02
1.29032314e-01
-1.19904220e-01
7.08852112e-02
9.62750986e-03
-1.92282438e-01
-4.19356450e-02
-2.87889987e-02
-6.82994425e-02
-1.20656230e-01
8.56932476e-02
-2.02693176e-02
-9.00190510e-03
-3.46115083e-02
-7.58962780e-02
7.20970798e-03
-1.73290800e-02
-2.78103282e-03
8.63492265e-02
-1.00559220e-01
-1.03315957e-01
7.30587449e-03
3.54304835e-02
5.79482270e-03
1.08269025e-02
1.22726120e-01
7.18186498e-02
-6.63772151e-02
-1.00915216e-01
-1.06539868e-01
-2.49202307e-02
-8.22790861e-02
8.59157592e-02
-1.11584745e-01
-7.78169706e-02
1.60260759e-02
5.16672544e-02
9.91513133e-02
-1.13702960e-01
-6.31374493e-02
9.03661735e-03
2.89079305e-02
-6.85757920e-02
-6.16667829e-02
9.12314951e-02
-7.25568756e-02
-6.22081272e-02
8.01940709e-02
-6.88340291e-02
-6.93607703e-02
-8.41990784e-02
1.90376546e-02
4.14093882e-02
-1.34235963e-01
1.42456383e-01
8.89018252e-02
-5.27003221e-02
8.65840539e-02
3.98297943e-02
-2.35001184e-02
-6.15912676e-02
3.15020010e-02
-6.91790283e-02
-1.63813010e-01
-7.25293979e-02
1.05323546e-01
-8.29034224e-02
-9.11845937e-02
1.94382109e-02
-1.17538400e-01
5.45227937e-02
-5.08115045e-04
-1.05749749e-01
4.79702987e-02
-8.07299390e-02
5.52344918e-02
1.39299825e-01
2.77722883e-03
-1.97056547e-01
-1.36504574e-02
-4.87501919e-02
-5.42189144e-02
2.69497670e-02
-1.38458267e-01
1.97447129e-02
-5.70117682e-02
-6.05721809e-02
-8.63036215e-02
7.06747621e-02
-5.82510373e-03
8.79497752e-02
-2.35608332e-02
-7.52794072e-02
-5.56681268e-02
-1.31936520e-01
3.86057720e-02
-3.78334075e-02
-5.28874472e-02
-2.43217628e-02
7.39553422e-02
-1.13693610e-01
-5.87762147e-02
8.10456425e-02
-2.76242256e-01
-3.55071649e-02
2.67289989e-02
8.34732205e-02
1.13806427e-01
-3.28883052e-01
-1.38712630e-01
4.57730256e-02
1.19200274e-01
4.80494387e-02
1.93993017e-01
-1.08227087e-02
-2.35082492e-01
-4.75545377e-02
-4.67412993e-02
1.23500861e-01
1.07508063e-01
5.07837795e-02
1.60009321e-02
2.51926035e-01
8.15597996e-02
-4.09506708e-02
1.79273635e-02
8.58371258e-02
1.33545339e-01
1.20268159e-01
2.63955537e-02
2.37246379e-02
-9.05268490e-02
-6.05642237e-03
1.69094846e-01
2.97380537e-02
7.42990747e-02
-2.25036684e-02
3.61208357e-02
-6.98573003e-03
-8.25194791e-02
-5.08188531e-02
2.96704145e-03
3.28486562e-02
1.84624474e-02
3.53152096e-01
-1.85775459e-02
4.07532044e-02
1.38123527e-01
2.56421771e-02
-1.90889817e-02
-3.38372253e-02
1.09576620e-01
-3.29389647e-02
1.21119678e-01
-2.32596457e-01
-1.96989533e-02
-1.09766468e-01
-1.12171896e-01
-3.30472365e-02
-8.51620287e-02
-2.74560470e-02
1.40864000e-01
2.62944140e-02
1.95670143e-01
1.08160764e-01
-2.79853880e-01
-4.39874493e-02
-4.12631705e-02
8.93893689e-02
-8.93383473e-02
8.43179300e-02
-1.28209472e-01
1.35662124e-01
8.07778761e-02
9.79761332e-02
1.18368059e-01
7.05507994e-02
3.08351917e-03
-2.54016399e-01
5.69456927e-02
7.23711401e-02
1.47040961e-02
-8.66523162e-02
3.19182426e-02
-1.46463022e-01
3.93096991e-02
2.71030039e-01
1.45323634e-01
-6.51220903e-02
-1.17132388e-01
-1.24587789e-01
-1.11043938e-01
-2.12862298e-01
-1.44612286e-02
-1.67071193e-01
-2.27931999e-02
1.39077350e-01
9.48243588e-02
2.54842918e-02
-1.85192451e-01
-6.04792126e-02
-6.17398322e-02
-5.26896007e-02
1.26185313e-01
-7.39319762e-03
1.01111747e-01
-1.00057274e-01
-1.25934333e-01
2.43898422e-01
-1.16565354e-01
5.40433563e-02
-1.44243509e-01
-2.28501987e-02
-2.37799492e-02
-6.25038445e-02
-1.59205168e-01
5.94136715e-02
1.41164616e-01
-2.88686641e-02
8.67341682e-02
-2.16504693e-01
1.13084525e-01
1.41289324e-01
-6.35455102e-02
-8.99886414e-02
-4.44582961e-02
4.01216112e-02
-6.10917881e-02
-1.26519293e-01
7.80006722e-02
3.27685066e-02
2.04332341e-02
-1.68882117e-01
-2.09200121e-02
1.74156114e-01
1.41956791e-01
7.96128809e-02
2.02159330e-01
1.22495424e-02
1.52382165e-01
3.44925225e-02
2.80301794e-02
1.33996084e-01
5.47635034e-02
-4.36459929e-02
2.60150917e-02
5.32613285e-02
5.67846894e-02
4.93805036e-02
-7.08276406e-02
1.44425765e-01
5.73485941e-02
2.98081506e-02
-7.39871785e-02
7.93562606e-02
-8.51677805e-02
-2.01128751e-01
7.11160153e-02
-1.99250087e-01
7.33552650e-02
1.02042213e-01
-7.28686806e-03
-6.27873018e-02
5.54689439e-03
2.49086410e-01
6.77494556e-02
2.12066561e-01
-2.71931849e-02
1.46397859e-01
6.53440729e-02
-4.41125259e-02
-8.87752976e-03
1.16020113e-01
1.36166140e-01
6.46334291e-02
-1.48498997e-01
-1.58329606e-01
-1.93252236e-01
5.44415824e-02
-9.72866416e-02
1.49462735e-02
-3.21776122e-02
1.84863433e-02
-8.53092521e-02
-6.49224520e-02
1.08659752e-02
1.33826146e-02
1.64541915e-01
-2.59094834e-02
9.11411718e-02
-8.76815431e-03
4.71727476e-02
-2.49871165e-02
-1.50262937e-01
1.15276717e-01
1.46924719e-01
-7.91641474e-02
2.33090073e-01
-1.57371499e-02
3.88583317e-02
-5.69597483e-02
4.06852178e-02
-1.83193143e-02
1.43323466e-01
1.54802687e-02
-1.10048287e-01
-6.46135136e-02
-1.59690510e-02
-3.89247946e-02
3.42633575e-02
-2.22667396e-01
-4.32047658e-02
-2.84751821e-02
6.95259422e-02
1.14024818e-01
1.53346464e-01
-1.04172133e-01
1.88144930e-02
1.78733747e-02
-6.91422373e-02
-1.42091913e-02
7.61444643e-02
1.36770355e-02
-2.22573161e-01
1.11543670e-01
4.09055576e-02
3.85558791e-02
-6.68227822e-02
1.96699381e-01
5.97680099e-02
2.76938751e-02
8.00017565e-02
-2.97496915e-02
-1.40825957e-01
1.14132650e-01
1.10634878e-01
1.31485630e-02
-1.80795163e-01
4.69282195e-02
-2.75048077e-01
5.26979342e-02
1.70563236e-02
-3.32408659e-02
-2.24868674e-02
1.09314825e-02
-4.09829989e-02
6.71877861e-02
3.84236798e-02
-8.38918909e-02
-6.47098804e-03
1.22492664e-01
4.46528979e-02
-9.22703650e-03
4.81564738e-02
-3.11587080e-02
-1.46106705e-01
-5.97907510e-03
-1.41664237e-01
5.75006343e-02
2.24528223e-01
6.42158464e-02
-4.87100594e-02
7.08254948e-02
-1.49330586e-01
-3.57732736e-02
1.22396372e-01
7.02324556e-04
1.25842616e-02
7.25893304e-02
-5.00266552e-02
-4.61572520e-02
3.49701077e-01
-4.42033447e-02
-2.14067344e-02
-3.00845653e-02
-8.44900832e-02
-1.84264909e-02
1.39931287e-03
6.68823346e-02
1.18814483e-01
7.39429221e-02
-1.04160095e-03
1.35049939e-01
-2.00097263e-03
-1.88425913e-01
1.08057261e-01
-1.35341212e-01
-1.51072119e-04
-3.02843153e-02
1.39289349e-01
5.58496416e-02
3.18701454e-02
4.50175852e-02
-2.30952278e-01
1.34578839e-01
-2.07132529e-02
4.09217104e-02
-1.22685224e-01
7.30068460e-02
2.49909256e-02
-5.86087294e-02
7.80154318e-02
6.66674823e-02
-4.66889553e-02
-1.13970876e-01
-1.24864139e-01
-1.83906406e-02
-1.08834460e-01
-5.76213486e-02
8.09268579e-02
5.07587083e-02
-5.65033667e-02
8.31573270e-03
3.73770595e-02
-1.74035840e-02
5.64988665e-02
8.98792520e-02
-8.78033042e-02
8.85559339e-03
4.91603240e-02
3.01177017e-02
-5.86687103e-02
6.14230037e-02
3.82983754e-03
1.19387612e-01
1.72394857e-01
3.59471627e-02
1.27177611e-01
8.68578479e-02
5.06072827e-02
7.04945624e-03
1.70375675e-01
7.91002661e-02
-2.08184570e-01
-4.41935845e-02
-5.19735478e-02
3.49458233e-02
1.28664494e-01
-4.57160994e-02
-1.87786971e-03
-9.82972048e-03
-1.27041176e-01
7.84503063e-05
2.05342546e-01
1.60350427e-02
9.34511945e-02
1.11249775e-01
1.66294977e-01
1.88190088e-01
-2.18837969e-02
1.91479936e-01
-2.69771188e-01
7.20875710e-02
5.36793545e-02
-2.90303119e-02
1.47708347e-02
1.47437975e-01
3.82907204e-02
7.64638931e-02
-5.88206723e-02
-1.36551261e-01
-3.79358791e-02
3.26683111e-02
1.63233548e-01
-7.62055442e-02
1.29380852e-01
-1.52446046e-01
4.42466401e-02
7.20448792e-02
8.45050886e-02
6.96548074e-02
2.17814706e-02
-1.28697067e-01
-9.58360583e-02
-7.07564130e-02
1.46244079e-01
1.44276500e-01
-8.78829136e-02
-1.73319474e-01
-1.85919516e-02
6.35171011e-02
3.62274870e-02
1.18518285e-01
5.15614748e-02
2.27222055e-01
-3.80754769e-02
7.46523682e-03
-1.82735492e-02
7.60114715e-02
-1.54623548e-02
-9.68178660e-02
8.95522162e-02
-2.68222373e-02
-1.06140800e-01
-2.21821964e-02
-1.26716550e-02
3.90813164e-02
-1.13139704e-01
1.76198762e-02
-1.16859466e-01
-5.69491126e-02
5.47388382e-02
6.27734065e-02
5.91484755e-02
-6.18728288e-02
2.11512856e-02
1.46846157e-02
9.43260565e-02
1.21316770e-02
1.48034364e-01
-1.05681755e-01
-1.32405572e-02
6.64869249e-02
3.81796546e-02
1.13937147e-01
-9.85754281e-03
-8.62266049e-02
-5.30116148e-02
5.24866320e-02
-6.82824338e-03
-5.82871735e-02
5.28283305e-02
6.93093017e-02
1.08317390e-01
1.03485376e-01
-1.54206604e-01
-9.64260399e-02
1.39415823e-02
-4.30557616e-02
3.13062146e-02
-3.65223326e-02
1.44846691e-02
5.19170091e-02
1.28122298e-02
-1.12011861e-02
-1.13727033e-01
-4.18521687e-02
1.92031506e-02
1.17578119e-01
-4.20078970e-02
1.23120271e-01
2.34441515e-02
5.79179265e-02
-1.31957326e-02
6.06071278e-02
1.80781912e-02
6.46150112e-02
2.29085088e-02
7.75717050e-02
2.32948467e-01
-1.30531058e-01
-8.17246661e-02
-1.53978169e-01
-1.58981934e-01
1.27214845e-02
-9.38204452e-02
8.80909711e-02
-7.96451345e-02
-2.99146529e-02
1.61079362e-01
-8.33791401e-03
-1.12198599e-01
-9.98407453e-02
1.93617661e-02
-1.95876528e-02
-1.72396787e-02
6.84401616e-02
7.71676973e-02
-3.52468118e-02
-1.05591811e-01
-6.75790086e-02
-2.77125061e-01
9.55297127e-02
-3.25284675e-02
3.64935473e-02
-4.61573480e-03
-1.26268536e-01
7.26251751e-02
-2.74324805e-01
5.01343682e-02
7.32179135e-02
-1.02660246e-02
-2.33977828e-02
-6.42362013e-02
-1.20505847e-01
-7.38636479e-02
-1.46012595e-02
8.31755698e-02
1.32480070e-01
1.17278419e-01
1.02256142e-01
-1.17046855e-01
4.17232141e-02
-6.05454762e-03
5.37811220e-02
1.57336444e-01
2.41019484e-02
-9.05849487e-02
1.20651618e-01
1.06825553e-01
1.68512329e-01
1.37682006e-01
5.15692942e-02
-1.99860588e-01
2.24545039e-03
-1.15849925e-02
-1.97597109e-02
5.44491671e-02
-4.13098224e-02
8.71311650e-02
1.31783620e-01
1.54178226e-02
-3.24946977e-02
1.34418234e-01
1.03539355e-01
-1.19991124e-01
-9.59354043e-02
4.05586846e-02
1.03769481e-01
-2.08369002e-01
-6.73237666e-02
-1.46547249e-02
1.70724969e-02
1.34027079e-01
6.83365669e-03
1.90146282e-01
4.15349007e-02
-1.03348285e-01
5.21385148e-02
1.32485190e-02
-3.25977989e-02
-5.86192161e-02
3.13650742e-02
4.46196385e-02
-5.86959310e-02
-1.35281101e-01
-8.78620297e-02
5.26683927e-02
-1.31907836e-01
-5.50414473e-02
4.31084521e-02
-4.46560718e-02
4.34965156e-02
-7.03637898e-02
4.98804189e-02
-7.38828853e-02
7.46678635e-02
8.75796899e-02
-2.36061923e-02
5.18458933e-02
-3.48260887e-02
-5.60083054e-02
-1.26217082e-02
-5.63007481e-02
7.68053532e-02
-2.43471395e-02
2.74388213e-02
5.52030690e-02
5.37142083e-02
-2.20964044e-01
-3.75574920e-03
8.78030658e-02
-2.85270270e-02
7.39238262e-02
1.21461466e-01
-2.12757252e-02
-2.40935795e-02
1.45777324e-02
7.63286948e-02
2.09828451e-01
-8.25736392e-03
9.63097066e-02
-5.46017550e-02
-3.97610888e-02
-1.51746524e-02
1.85209308e-02
2.12994531e-01
1.18309364e-01
-4.99117263e-02
-8.02126229e-02
-1.53834140e-03
1.22130729e-01
-1.41181603e-01
1.89532060e-02
1.71865840e-02
-8.96563455e-02
-7.70114958e-02
-6.07749820e-02
-1.10714585e-01
-3.90051939e-02
1.15883656e-01
7.83542618e-02
-1.01857176e-02
-6.57651350e-02
-1.81115344e-01
1.90524191e-01
-1.30377665e-01
5.04166856e-02
3.70872132e-02
9.18971002e-02
-2.06810683e-02
-3.31276990e-02
8.10488313e-02
-1.44325033e-01
-6.99904040e-02
-1.19570233e-01
-1.07059650e-01
1.14214113e-02
-2.04729795e-01
4.24185507e-02
2.15586517e-02
7.31406882e-02
9.40990746e-02
-3.27361152e-02
-4.67546619e-02
5.50186522e-02
-8.91946778e-02
-1.45543978e-01
-7.65677467e-02
-1.30312845e-01
-1.48760609e-03
-5.92572689e-02
8.44473951e-03
1.58768699e-01
6.40794262e-02
5.11955507e-02
-1.22200921e-01
-2.27595642e-02
2.31407043e-02
-2.78563909e-02
-5.38398400e-02
-1.61244035e-01
-4.22029011e-02
1.31858990e-01
1.87840149e-01
-3.38453539e-02
1.00156711e-02
1.06723778e-01
-1.55513644e-01
1.20589267e-02
3.20722759e-02
9.02654901e-02
8.24285448e-02
-2.13433400e-01
-9.17086676e-02
6.18396662e-02
2.08278596e-01
-2.20613956e-01
7.73385316e-02
4.88750674e-02
-6.56450763e-02
-6.41780123e-02
-3.28335986e-02
2.19317913e-01
7.96748772e-02
1.47607690e-02
-7.16366023e-02
-6.41641766e-02
1.30772501e-01
4.26112814e-03
5.28628416e-02
1.99841280e-02
3.50499190e-02
3.54746473e-03
-5.47976186e-03
-9.20030847e-03
4.08388190e-02
5.92504740e-02
2.03841552e-02
4.34642993e-02
2.46154051e-02
-2.78867371e-02
2.67255139e-02
6.21441416e-02
9.15103257e-02
5.43356985e-02
-7.72650400e-03
9.48129594e-03
-1.50106058e-01
-4.04219553e-02
-1.44492649e-02
2.32543007e-01
3.80093940e-02
7.29249641e-02
1.31045699e-01
-1.27274811e-01
-3.18117850e-02
-3.79497409e-02
-3.38435136e-02
1.03335582e-01
5.51324859e-02
8.89831260e-02
1.59485355e-01
5.63070923e-02
-9.14498344e-02
4.74168509e-02
1.05894253e-01
1.01026267e-01
-7.00448230e-02
3.72068658e-02
-1.36098200e-02
-3.85944843e-02
8.31422135e-02
-1.31875739e-01
2.23418046e-02
1.03211813e-01
7.63659179e-02
1.28144413e-01
5.23726176e-03
3.32782529e-02
-8.55873898e-02
-1.14081083e-02
-7.84696862e-02
6.62565306e-02
-6.13763370e-02
1.35593340e-01
1.55483149e-02
1.49940357e-01
1.23100527e-01
5.25827557e-02
-2.59911232e-02
1.11112334e-01
-1.77289516e-01
1.39204621e-01
6.69649839e-02
-4.95885313e-02
1.64703682e-01
-5.32806627e-02
-7.46930763e-02
-1.36259079e-01
-1.36001527e-01
-2.45995577e-02
-1.12134255e-01
3.22807133e-02
1.65969923e-01
1.48170307e-01
-4.27914336e-02
-1.19408712e-01
3.40023190e-02
2.09671706e-02
-3.88383903e-02
3.93137224e-02
-3.59817967e-02
-1.71839431e-01
-1.36220738e-01
4.92472248e-03
-1.18370414e-01
-6.88830987e-02
6.16007783e-02
-4.02892604e-02
8.23218599e-02
9.14817229e-02
-4.21803743e-02
1.36207581e-01
-1.08462786e-02
2.00334415e-02
-9.21761170e-02
1.64029196e-01
4.21520211e-02
-1.22590130e-02
1.37642247e-03
6.33480474e-02
-4.49511223e-02
2.17697248e-01
-1.49757192e-01
-6.52594864e-02
-3.61005105e-02
2.92181652e-02
1.21584022e-02
4.67980653e-02
-3.35995369e-02
2.33869441e-02
-2.20956147e-01
1.73909459e-02
1.91033464e-02
3.61737981e-02
-1.19853474e-01
-1.84888795e-01
-1.06878364e-02
-4.96586272e-03
1.21479921e-01
1.64497867e-02
5.03936149e-02
-1.54868796e-01
-2.21691895e-02
4.24215682e-02
5.15499432e-03
6.13678247e-02
5.84528744e-02
6.94596693e-02
-1.81418546e-02
-9.52444673e-02
9.63946581e-02
5.54711893e-02
2.24740103e-01
9.39476341e-02
6.40709698e-02
-2.44884919e-02
7.10920542e-02
-1.14216246e-02
-4.94784452e-02
7.35701621e-02
1.12473346e-01
2.96628941e-02
2.68311966e-02
1.41810691e-02
-4.33813184e-02
-6.92648143e-02
-8.61079544e-02
2.46524125e-01
-1.99323501e-02
5.71029224e-02
1.09747157e-01
-1.63935259e-01
-4.35415506e-02
1.31188566e-02
-1.13032810e-01
-3.67312767e-02
-3.31152305e-02
-5.41704288e-03
1.82089016e-01
5.64150810e-02
-1.54762238e-01
9.97228697e-02
-2.50695571e-02
-1.02876566e-01
2.23187655e-02
-7.85383731e-02
-8.77072364e-02
1.43945694e-01
-3.93230803e-02
-2.64680125e-02
-8.38419497e-02
-3.27473134e-01
1.01356082e-01
7.88833871e-02
1.75398424e-01
1.75360385e-02
-6.90359110e-03
7.36991167e-02
-2.21408438e-02
-4.85625602e-02
7.71740228e-02
-9.17687640e-03
1.31026745e-01
-7.70565644e-02
-1.09779887e-01
1.44842744e-01
-1.59195233e-02
-8.42770487e-02
8.33131969e-02
-1.02709241e-01
1.45187274e-01
-6.01810170e-03
5.37097380e-02
2.69354790e-01
-8.16490874e-02
-2.59866565e-01
-5.02997935e-02
-6.70055449e-02
1.43534303e-01
-9.69943553e-02
1.62590384e-01
7.72774071e-02
9.93817598e-02
1.61213920e-01
5.19832522e-02
-9.28796530e-02
6.81369305e-02
2.09476966e-02
-7.74108917e-02
9.33629721e-02
-7.65577480e-02
1.05073020e-01
9.80263427e-02
-1.19649664e-01
7.89933577e-02
-4.43097055e-02
-2.91443486e-02
-8.28613639e-02
-7.40056783e-02
7.80572593e-02
-2.34256256e-02
1.25412956e-01
-3.11869644e-02
1.18385829e-01
5.99302761e-02
-9.77391750e-02
-3.24736838e-03
1.77947447e-01
5.30026816e-02
6.08333247e-03
8.94837901e-02
8.25060606e-02
-3.14741768e-02
3.22781093e-02
6.99534565e-02
-1.13809571e-01
-1.33694232e-01
-3.74329090e-02
6.89530075e-02
-2.08271518e-01
-1.09311111e-01
-9.35760513e-02
8.61993954e-02
1.83622390e-01
8.07995275e-02
4.63558808e-02
6.28300384e-02
-7.69278556e-02
-7.23673627e-02
7.69925267e-02
-7.22681955e-02
-1.70474257e-02
-5.32173626e-02
-1.47511229e-01
-1.32355109e-01
8.68011452e-03
5.83974868e-02
-6.93202764e-02
-7.21936300e-03
1.03288472e-01
-1.45713404e-01
-9.52801630e-02
-1.93871856e-02
-2.92251520e-02
3.94836441e-02
-6.43334016e-02
-2.28819698e-02
2.20840126e-02
-1.83004327e-02
-5.89072555e-02
3.31221819e-01
-8.46059714e-03
6.70350865e-02
4.84499894e-02
-1.99113209e-02
-7.25881532e-02
-9.58420485e-02
-1.12831824e-01
-2.98903614e-01
1.75384209e-02
1.28950514e-02
-1.66311070e-01
7.87344277e-02
-1.47883832e-01
-1.16541600e-02
1.14953909e-02
-9.20829698e-02
-7.11566880e-02
1.71201691e-01
-1.18603043e-01
-8.19658935e-02
4.02793922e-02
1.47659834e-02
1.93682447e-01
-1.58267226e-02
1.16919972e-01
4.18379083e-02
2.68776678e-02
8.08745474e-02
1.88899830e-01
2.30249554e-01
-1.52148418e-02
8.93645212e-02
5.52694835e-02
1.11559667e-01
1.01495877e-01
8.32695048e-03
-6.03751019e-02
7.89951475e-04
9.62352157e-02
-8.84325281e-02
-1.18702330e-01
-4.41254042e-02
-6.52177678e-03
7.07556233e-02
1.59836590e-01
1.39283150e-01
5.79653531e-02
-2.76780754e-01
6.19678423e-02
-1.57547086e-01
5.33678867e-02
-1.23918056e-02
8.94345641e-02
5.76596707e-02
1.34924650e-01
1.58933893e-01
-1.08534977e-01
1.22029684e-01
6.18845085e-03
-1.70390010e-01
2.71023624e-02
3.46874446e-02
-9.29236934e-02
2.07651183e-01
-4.96847406e-02
1.12634888e-02
-2.42946763e-02
-1.75614432e-01
-7.15735704e-02
1.35751292e-01
-2.55632754e-02
-5.92850335e-02
1.60368875e-01
-1.39875710e-01
2.93116748e-01
6.64263144e-02
4.86892052e-02
4.74550389e-02
1.44106457e-02
-5.90992020e-03
-5.91230541e-02
8.49392265e-02
3.89337773e-03
-1.74266566e-02
8.37460980e-02
9.66350138e-02
-1.12492591e-01
-3.18300016e-02
6.85195848e-02
-6.13947539e-03
-1.59343198e-01
1.40819266e-01
-8.95409286e-03
-1.23285405e-01
2.12178528e-01
6.74085412e-03
-6.20595999e-02
5.56496643e-02
-1.17953673e-01
6.48575043e-03
4.64047194e-02
4.37319092e-02
-1.03971548e-02
-2.88822744e-02
5.36243320e-02
-2.32172348e-02
2.74830371e-01
-5.57527691e-03
4.85229045e-02
9.57009643e-02
-1.16314195e-01
1.33682579e-01
-2.73350962e-02
-6.95826709e-02
-1.54622439e-02
6.63633868e-02
3.03341448e-02
5.05978875e-02
-1.97735289e-03
7.62040785e-04
2.77121691e-03
-4.38053310e-02
4.11814228e-02
-3.76406983e-02
1.31525576e-01
1.03234977e-01
-1.14911579e-01
8.81315395e-02
2.74151228e-02
-1.44192383e-01
1.05435885e-01
-1.23330899e-01
8.76209512e-02
-1.99122522e-02
7.66913965e-02
2.55294759e-02
-1.35696709e-01
1.44766774e-02
-1.08268514e-01
-7.71059170e-02
-1.28650635e-01
-4.72051054e-02
1.21722244e-01
-1.29555038e-03
4.23560366e-02
1.87650070e-01
5.65497279e-02
7.25253522e-02
-5.11303451e-03
3.80983353e-02
1.09813862e-01
-7.69989192e-02
1.05023190e-01
2.84582525e-02
4.85270433e-02
-5.08428104e-02
1.63098156e-01
1.07824177e-01
1.33962557e-01
-9.17607918e-02
3.23379934e-02
-8.70424509e-02
4.50241268e-02
-4.70188819e-02
-5.56047335e-02
3.73861380e-02
-7.41747953e-03
-1.10019960e-01
1.24588557e-01
7.60713890e-02
-8.56878832e-02
-5.40234745e-02
2.25603394e-02
6.30670413e-02
-1.00479305e-01
-2.86592189e-02
2.32676882e-02
-9.25202742e-02
-1.41432537e-02
7.83345029e-02
-1.44296348e-01
-6.08358495e-02
-1.04722649e-01
2.72161886e-02
2.28894204e-02
1.12679243e-01
-5.34080788e-02
-1.34753197e-01
-1.09518617e-02
2.85146367e-02
-1.73896015e-01
-2.40373127e-02
1.05087519e-01
4.65802103e-02
-9.53100994e-02
4.50833924e-02
-1.07221261e-01
-4.45846692e-02
-1.02415375e-01
-5.82354143e-02
3.64780240e-02
1.25340357e-01
1.46122694e-01
3.27033550e-03
1.43869519e-01
-4.10316624e-02
2.67772730e-02
-6.02465570e-02
1.08790845e-01
1.93511620e-02
4.24351506e-02
-8.45213160e-02
1.17334433e-01
1.68826789e-01
-1.62395113e-03
-9.00608599e-02
-7.90248066e-02
-9.40840021e-02
-3.71968672e-02
-4.93736155e-02
5.16714901e-02
1.70598011e-02
-6.47994876e-02
-1.87311113e-01
-8.47014263e-02
1.73855767e-01
-6.04387093e-03
-8.46608654e-02
-1.16311014e-01
-4.29239050e-02
7.33568072e-02
5.10484427e-02
1.62297770e-01
3.92837524e-02
-2.41766378e-01
4.06884328e-02
-7.22987764e-03
7.82734081e-02
5.25580943e-02
2.53643077e-02
-3.68988998e-02
5.67851737e-02
-1.58839911e-01
-3.77446227e-02
7.32691064e-02
1.41804770e-01
-7.52350762e-02
8.97652283e-02
9.77275372e-02
1.45124998e-02
2.11579353e-02
-9.83433798e-02
1.56986043e-01
2.63208114e-02
-5.05788773e-02
2.91050702e-01
-6.55566948e-03
1.00341320e-01
4.42735711e-03
2.71099396e-02
3.28873813e-01
-2.99281511e-03
3.03791929e-02
2.07471149e-03
-5.90959378e-02
-5.53336069e-02
-9.68526211e-03
-1.83876514e-01
-8.63676704e-03
-5.34271337e-02
6.01497181e-02
4.96880747e-02
-2.60373652e-02
1.54911011e-01
-1.15249977e-01
3.91955813e-03
9.36456211e-03
3.82749215e-02
1.77302361e-01
3.19704972e-02
1.86955780e-01
1.23196125e-01
8.55545327e-02
-2.02577829e-01
-3.62266414e-02
2.95477420e-01
2.07624301e-01
2.70598885e-02
2.02439561e-01
-2.00693727e-01
-1.44254282e-01
-1.23174023e-02
-4.09433208e-02
-5.63180447e-02
4.24588211e-02
1.08225979e-01
9.57546085e-02
-1.80623829e-01
1.20561957e-01
-7.60042146e-02
-7.89597407e-02
-8.56431574e-03
-8.95147026e-03
1.21649280e-01
1.33504570e-01
-1.31093571e-02
2.83961594e-01
-1.48631051e-01
-2.98583776e-01
8.10719188e-03
7.25479238e-03
4.58852537e-02
-1.64211597e-02
4.48391400e-02
-5.26335789e-03
-9.34861600e-02
4.98830304e-02
7.98519999e-02
-2.23884568e-01
-5.79979494e-02
-8.83018412e-03
-5.93697317e-02
1.16287217e-01
5.99914743e-03
-1.01546109e-01
9.38181579e-02
-6.76435754e-02
9.58145186e-02
-1.54497638e-01
6.10697530e-02
-1.22938745e-01
7.99501762e-02
6.34384155e-02
-4.47677411e-02
2.67152004e-02
-3.86037342e-02
8.20020884e-02
-6.62834942e-02
-2.75533944e-01
1.54454589e-01
-6.97228089e-02
6.41427189e-02
-1.59951691e-02
-1.03319791e-04
-8.71054009e-02
-9.73831639e-02
8.97285119e-02
1.61563516e-01
4.89299260e-02
-1.80313647e-01
-2.39249721e-01
-4.78138477e-02
-1.24087952e-01
1.32456228e-01
1.04148723e-02
-5.11327535e-02
-1.51411340e-01
-4.12732139e-02
-2.61335760e-01
-1.34394655e-03
1.11266181e-01
2.69319177e-01
-2.86128014e-01
-9.01742876e-02
-5.30485921e-02
1.98200196e-02
-3.04383393e-02
7.02723265e-02
-3.32308114e-02
1.25766471e-01
-6.72223046e-02
-8.22091475e-02
2.59775273e-03
-4.54220511e-02
9.15326700e-02
1.80492684e-01
9.64215398e-02
1.84168309e-01
3.99173424e-02
-2.53120568e-02
-1.48420716e-02
7.92863145e-02
-2.50065699e-02
1.16161294e-01
-1.27787411e-01
-1.42988414e-01
-9.11331400e-02
-1.20447636e-01
2.40127504e-01
4.15566787e-02
1.97902285e-02
2.23875791e-02
-9.80265960e-02
8.96996781e-02
6.73619658e-02
2.62198336e-02
-3.63734961e-02
-1.86234422e-03
1.27290815e-01
2.96864241e-01
3.54188196e-02
7.67438263e-02
3.14296782e-02
-9.13806111e-02
2.95353178e-02
-7.01317489e-02
-1.59513295e-01
-1.21107074e-02
-3.11585795e-02
7.37589449e-02
2.93825697e-02
3.04448698e-02
1.04013920e-01
4.58507016e-02
4.04038019e-02
-4.50369231e-02
-9.44413617e-02
-4.71634492e-02
-5.30449823e-02
-1.24558195e-01
-2.15126388e-02
6.31190911e-02
1.85063835e-02
-2.10352033e-01
1.95076689e-01
-6.14430755e-02
1.10930158e-02
6.32842556e-02
4.82819602e-02
-6.28729165e-02
1.99336916e-01
-3.21180597e-02
1.92684397e-01
5.66230156e-02
-9.67647731e-02
-7.04604164e-02
-1.32897779e-01
3.70641015e-02
-1.26301438e-01
-1.41919032e-01
9.67384502e-02
-2.96202507e-02
4.02911901e-02
-6.02322593e-02
1.61101520e-01
5.38781025e-02
9.60865691e-02
6.29543662e-02
-4.64383252e-02
-4.35485989e-02
-2.64403988e-02
-1.19760595e-01
-5.24981692e-02
-1.04932673e-01
-1.99091256e-01
-4.88881208e-03
5.29612973e-02
8.08655843e-02
1.78632569e-02
-5.50238937e-02
-3.67266126e-02
7.46895224e-02
1.06926084e-01
-1.02702163e-01
-5.79055101e-02
7.41072595e-02
-4.13936339e-02
2.11234689e-01
-3.53596807e-02
6.13107020e-03
-1.82060134e-02
1.43923700e-01
-2.37434600e-02
1.76613569e-01
1.50037855e-01
5.90435043e-02
-2.39622630e-02
1.41086012e-01
2.00362414e-01
1.27831921e-01
1.27358630e-01
-1.89239666e-01
4.79338095e-02
4.04086225e-02
-1.67911500e-01
-3.65683138e-02
6.15705587e-02
3.04773115e-02
-7.20758587e-02
1.90509036e-01
-4.18513641e-02
-4.29267995e-02
6.73201531e-02
-5.74459061e-02
7.14229271e-02
6.71140775e-02
2.37039985e-05
5.79155162e-02
7.09706396e-02
7.38903955e-02
-5.92443570e-02
-1.45272566e-02
1.01253167e-01
1.22146621e-01
7.74261281e-02
1.39395609e-01
-6.12927713e-02
-8.89429525e-02
-1.52929239e-02
4.80211675e-02
1.48754939e-01
-2.65875012e-01
8.90624449e-02
1.01075485e-01
2.27834564e-02
1.70528255e-02
-2.17727631e-01
-7.14687258e-03
3.81983025e-03
-6.78295344e-02
2.24233568e-02
5.68272807e-02
1.04007319e-01
1.90262213e-01
1.17363296e-01
-8.27405322e-03
9.98268276e-02
1.10464320e-01
1.11540131e-01
-6.69157729e-02
6.31587878e-02
1.48243636e-01
8.26150924e-02
-9.00676325e-02
-1.22849129e-01
7.00990483e-02
-1.06094599e-01
6.11652993e-03
2.36436650e-02
3.74269523e-02
2.81228215e-01
-2.33850911e-01
-1.42827377e-01
-2.81686317e-02
-2.42677048e-01
3.47707234e-02
-7.76776299e-02
6.73509464e-02
3.21864374e-02
-2.66149472e-02
-5.77849373e-02
-5.99280000e-02
-6.97027221e-02
1.85619500e-02
8.84338617e-02
1.23800457e-01
-6.16005212e-02
1.45072982e-01
1.10489883e-01
3.17913033e-02
1.03352793e-01
5.02286926e-02
-1.23986401e-01
6.18612841e-02
1.25131413e-01
5.95617183e-02
2.43860744e-02
-1.45917639e-01
5.13557196e-02
-1.03995472e-01
-1.97931305e-02
8.63096043e-02
3.62683833e-02
-1.96442772e-02
1.62090912e-01
-1.31102845e-01
-1.55892670e-02
-5.43871038e-02
1.87948961e-02
-5.83748929e-02
1.29946142e-01
-3.27372504e-03
6.06225282e-02
-2.80447192e-02
1.21961035e-01
9.93029624e-02
-6.80521652e-02
-5.72489724e-02
-1.70266971e-01
1.32547125e-01
9.31378826e-02
-9.74068865e-02
3.36833671e-02
2.35008895e-02
-1.03481658e-01
3.07045858e-02
1.09320305e-01
-2.00258583e-01
1.00225501e-01
-4.51644138e-02
8.52339938e-02
9.55122188e-02
-1.00920171e-01
-7.05052614e-02
-4.68936041e-02
8.53943601e-02
3.41504067e-02
7.54631758e-02
-3.98085266e-02
-1.51260383e-02
-1.10579863e-01
1.44704744e-01
1.66314930e-01
-9.82529251e-04
-1.36418447e-01
5.61892316e-02
1.42670438e-01
-3.01325858e-01
6.98578805e-02
-5.00573963e-02
2.05466729e-02
5.60254902e-02
-7.79328123e-02
1.64067820e-02
-7.32064545e-02
-1.05675787e-01
1.66243073e-02
-5.96233793e-02
-7.36628994e-02
-8.17478299e-02
-7.10217729e-02
1.05913855e-01
-1.58803105e-01
1.08999796e-01
-4.93432744e-05
7.84284249e-02
-9.03797969e-02
1.67464390e-01
-1.00548185e-01
5.73069341e-02
1.02912657e-01
-7.06139654e-02
1.09077923e-01
-7.74107128e-02
1.15549393e-01
9.01015624e-02
-4.45953049e-02
-5.83657362e-02
1.43013960e-02
-7.64155760e-02
-2.05293223e-02
1.27311245e-01
1.44320369e-01
1.35021089e-02
-2.31725816e-03
-1.52233303e-01
-1.25756741e-01
-2.12504536e-01
2.57101268e-01
-2.52694637e-02
1.30965903e-01
-7.05228597e-02
-7.48754665e-02
-5.12202717e-02
1.32109955e-01
1.16662472e-01
-2.10971281e-01
8.88788030e-02
-3.70526239e-02
1.29656479e-01
-3.50389518e-02
1.33213118e-01
1.16262510e-01
1.87472776e-02
7.46678784e-02
6.95111975e-02
7.40389004e-02
-7.01581314e-02
-1.00066498e-01
1.00730039e-01
1.50714174e-01
2.03004047e-01
1.07286073e-01
5.46368025e-02
1.21935040e-01
1.41650185e-01
-1.67181835e-01
9.76924598e-02
5.27475066e-02
-2.33915925e-01
-2.99677793e-02
9.62892622e-02
-4.94356342e-02
-7.10887834e-02
5.87943271e-02
1.62028491e-01
5.17039858e-02
1.34657666e-01
8.39825645e-02
2.62788404e-02
-7.69938976e-02
2.28306782e-02
1.55848831e-01
4.76419888e-02
-4.13280204e-02
4.28243503e-02
-1.33476695e-02
1.04790613e-01
1.79168135e-02
2.02704910e-02
3.69912907e-02
-8.07563215e-02
3.96893173e-03
5.31255975e-02
3.64489555e-01
5.82357533e-02
2.41103545e-01
-2.47141510e-01
1.05477646e-01
5.74046820e-02
1.15785524e-02
9.34343711e-02
-1.06569834e-01
1.04129463e-01
-1.87153876e-01
-1.54452976e-02
1.40039593e-01
-3.77879106e-02
-1.13021560e-01
7.75969028e-02
-1.42865963e-02
-2.74211746e-02
1.61234498e-01
5.98463751e-02
1.20284721e-01
-1.97345801e-02
8.25436378e-04
-1.76496834e-01
6.40539918e-03
1.97760854e-02
-1.03722468e-01
9.60204676e-02
-3.63787226e-02
1.54148852e-02
3.31678800e-02
-7.84239471e-02
-8.26772600e-02
1.82715636e-02
-2.49494035e-02
8.18488281e-03
7.34400749e-02
-1.81648217e-03
-7.34913424e-02
-1.83347985e-01
-6.58369884e-02
3.58218029e-02
-8.63071606e-02
1.40733168e-01
8.68213922e-02
9.35318992e-02
8.99789184e-02
9.14243087e-02
1.71270985e-02
-4.98562343e-02
1.15850464e-01
5.97650521e-02
-8.90564993e-02
1.11898616e-01
1.15262181e-01
8.13215747e-02
-1.59784686e-02
-2.49030307e-01
7.98899010e-02
7.22912103e-02
6.64841309e-02
-1.48601606e-01
-9.12701562e-02
8.10589939e-02
-1.16583332e-01
9.92780924e-02
3.93475108e-02
-3.95122729e-02
4.98842262e-02
-9.93767902e-02
-3.03067043e-02
3.77266593e-02
-5.74648976e-02
-4.87482101e-02
-1.71927158e-02
3.21318805e-02
6.05976507e-02
-1.85148437e-02
1.91380363e-03
-1.05118454e-01
-3.39047350e-02
3.99453640e-02
-7.95609578e-02
-1.55483559e-01
6.84299842e-02
-1.91206157e-01
-1.15494147e-01
-8.38557109e-02
-5.13203815e-02
3.09258644e-02
8.56539980e-02
-1.22276293e-02
-2.10993543e-01
5.44959009e-02
5.30984849e-02
1.57035530e-01
7.32779056e-02
4.19600718e-02
-7.79658137e-03
2.06561789e-01
-9.90638584e-02
1.39562309e-01
-2.14684419e-02
1.76039599e-02
1.69342920e-01
6.01429166e-03
-3.48542817e-02
1.45820975e-01
9.79115143e-02
-3.85267893e-03
-9.43436846e-02
-1.27812594e-01
4.89092097e-02
-1.02443248e-01
2.66540572e-02
3.16469409e-02
-9.49455872e-02
-2.70393193e-01
4.76526171e-02
8.73059928e-02
1.52404271e-02
1.48223236e-01
-2.83733197e-02
-1.00385922e-03
1.19733714e-01
-1.75860345e-01
4.83421013e-02
5.32307364e-02
-2.43073236e-02
-3.41911800e-02
-1.29902586e-01
-8.62674490e-02
7.23070651e-02
2.84737237e-02
1.43546071e-02
4.45770696e-02
-1.12896385e-02
1.34407148e-01
-1.00827962e-01
-1.24140583e-01
9.80371460e-02
1.26880065e-01
1.00516733e-02
3.93169150e-02
3.65822390e-02
-6.54493272e-02
-1.24191605e-02
2.00300738e-02
1.70503378e-01
2.03953907e-02
1.04085654e-01
-7.83308893e-02
1.68817028e-01
-6.53283149e-02
-1.20161720e-01
-5.16285561e-02
1.92428299e-04
2.71963831e-02
4.62184735e-02
-6.04215823e-02
-2.48829294e-02
-4.94726337e-02
-2.48306221e-03
6.60403222e-02
-1.18492991e-02
1.16162375e-01
-2.31878925e-02
-1.09038047e-01
5.50259054e-02
2.36028563e-02
-2.30255425e-02
-7.59516060e-02
7.28579983e-02
1.34713680e-01
-4.69852313e-02
-9.71506536e-03
-1.55257173e-02
4.61377464e-02
9.81315970e-02
2.22830884e-02
3.87675897e-03
6.61943033e-02
1.51648462e-01
9.13038254e-02
6.25810474e-02
1.11577697e-02
-5.62641881e-02
-3.08173858e-02
5.21069951e-02
-9.89429001e-03
5.97152626e-03
2.37895194e-02
2.61667334e-02
1.47300458e-03
1.17575325e-01
-9.41834152e-02
1.62215624e-02
-2.73308039e-01
-9.19071808e-02
2.48477031e-02
1.36008620e-01
-2.65918206e-03
6.55857325e-02
-2.18371372e-03
1.03781320e-01
-2.00586971e-02
1.63580537e-01
1.04618192e-01
-2.23293640e-02
3.20210531e-02
-1.75222009e-01
-6.28733858e-02
-1.79599151e-02
-1.62053823e-01
-3.54244113e-02
1.35810524e-01
-1.60732940e-01
1.24154493e-01
-9.23796669e-02
2.46835686e-02
-2.28925228e-01
1.30749047e-01
-1.32991942e-02
-7.13023543e-02
1.22748882e-01
5.17795049e-02
-2.40505760e-04
1.49095014e-01
4.91845645e-02
6.67296872e-02
-8.81496593e-02
-1.37120429e-02
1.19033627e-01
5.82714379e-02
2.74610352e-02
-1.31220995e-02
-6.48532063e-02
-3.48023660e-02
5.49688898e-02
-2.94562340e-01
3.59028988e-02
1.34741440e-01
5.77402487e-02
2.35206094e-02
-2.22541131e-02
-1.40604571e-01
3.73826362e-02
-6.85822964e-02
1.21601075e-01
3.02720696e-01
1.25690505e-01
1.94350407e-02
-6.47804094e-03
1.69784557e-02
8.78031105e-02
1.17601991e-01
-9.66396183e-02
6.98729381e-02
-3.83494794e-02
-8.93141851e-02
-1.20699249e-01
1.91825181e-01
-7.85818696e-02
-7.96119422e-02
-5.37975580e-02
-8.67149830e-02
-7.08836019e-02
1.28082916e-01
-6.01600073e-02
1.17696851e-01
-1.23086413e-02
1.16821095e-01
1.24221489e-01
-1.13977693e-01
1.19776890e-01
1.39254436e-01
-6.39707521e-02
4.63445224e-02
1.40778080e-01
1.17421718e-02
9.09958109e-02
3.78941884e-03
7.34481588e-02
6.11933954e-02
3.73618603e-02
3.59130315e-02
7.37232864e-02
1.48281917e-01
6.57911086e-03
9.49484855e-03
3.93863395e-02
4.09912355e-02
4.56876978e-02
1.63469523e-01
6.38656467e-02
1.26896892e-02
7.35795721e-02
4.43313941e-02
-1.22429021e-01
-1.43714175e-02
-1.67897083e-02
-9.20582190e-02
1.75173804e-01
-7.88869038e-02
-3.32703292e-02
-7.89345615e-03
5.77646978e-02
-1.11045748e-01
1.37940332e-01
-1.92074612e-01
1.18157491e-01
1.01178110e-01
-1.26480266e-01
-8.33335146e-03
-1.88927382e-01
-1.19581483e-02
3.06062680e-02
1.62508056e-01
-7.29912519e-02
-9.06250149e-04
-1.53900966e-01
-4.20282930e-02
3.22645321e-03
-9.52862576e-03
4.48015220e-02
3.69999446e-02
3.08992751e-02
-2.18485221e-02
-5.72203249e-02
1.22590251e-01
1.02929465e-01
1.68560408e-02
1.06545268e-02
-4.26428989e-02
-1.01668186e-01
-7.77363181e-02
2.31478382e-02
9.31750312e-02
1.64330227e-03
-3.25041711e-01
7.80826882e-02
-2.38031462e-01
1.17980793e-01
-1.49793783e-02
-5.36321402e-02
-3.86258364e-02
1.07593918e-02
-8.50894861e-03
2.76139341e-02
7.49258250e-02
-1.48345772e-02
1.12323418e-01
1.76216420e-02
2.04561222e-02
4.37046923e-02
-1.40191153e-01
1.93763912e-01
-1.74483716e-01
1.55914396e-01
1.58998951e-01
-6.85286820e-02
1.04274467e-01
9.50351208e-02
-2.40631700e-02
-6.13437593e-02
-2.12104648e-01
-4.25842963e-02
-1.54441953e-01
-5.95508553e-02
-5.07024899e-02
-9.70743075e-02
5.43910526e-02
8.49938579e-03
-8.57059434e-02
1.62143987e-02
2.42643617e-02
1.32127061e-01
-8.48784074e-02
3.17879617e-02
-1.90803230e-01
1.58561021e-02
1.45909652e-01
-5.00876680e-02
-2.83510890e-02
-3.92841280e-01
-4.22891863e-02
-7.33536705e-02
8.44193101e-02
-9.68192890e-02
-5.79569824e-02
-5.57603762e-02
-7.41133690e-02
-9.57222562e-03
-9.72993299e-02
2.91331280e-02
-6.39903694e-02
4.01341580e-02
-5.29374965e-02
1.37185985e-02
4.20700647e-02
-4.08927612e-02
1.22739067e-02
-2.28973124e-02
2.50913436e-03
-8.10403675e-02
-3.59967388e-02
-2.53124628e-03
-8.27725679e-02
6.24477491e-02
-4.31933254e-02
-6.90730661e-02
-6.47546258e-03
1.07833007e-02
-4.38358299e-02
-7.19823539e-02
-3.94119285e-02
8.40911828e-03
5.52761815e-02
-3.64513770e-02
-4.39450592e-02
-2.10116114e-02
5.18491119e-02
-8.33926722e-02
-4.77337725e-02
-4.99347746e-02
-2.31760670e-03
-7.37980753e-02
-6.27495125e-02
4.03498039e-02
-3.38857365e-03
-7.35863969e-02
3.63293365e-02
3.25075798e-02
1.72535703e-02
-1.18821733e-01
2.84591137e-04
-6.39590770e-02
-7.43888915e-02
8.22304748e-03
-4.10180464e-02
-4.27649543e-02
-8.02667663e-02
3.84833552e-02
-8.83343965e-02
-9.28220153e-02
5.47692552e-02
5.38309701e-02
-6.70943037e-03
4.48497124e-02
-7.11831301e-02
1.20105417e-02
-4.88868132e-02
-4.53820527e-02
4.77706175e-03
-3.77920526e-03
3.60091380e-03
7.18572438e-02
-8.59572515e-02
-5.68999983e-02
8.13724473e-02
1.48845911e-02
-6.94864020e-02
-6.73058406e-02
-5.37537895e-02
6.85343221e-02
-3.72879840e-02
-3.52674089e-02
-9.53457132e-03
4.53904942e-02
-4.81113419e-02
-6.34546345e-03
4.45435615e-03
1.52724180e-02
5.31826541e-02
5.66125512e-02
-7.43725076e-02
-1.11441836e-01
-8.30382258e-02
-4.86717699e-03
-2.69370675e-02
-2.94739027e-02
4.58704606e-02
-1.13863256e-02
8.50058123e-02
-5.98353669e-02
-6.69407696e-02
8.65307264e-03
5.43651916e-03
-1.89426355e-02
-7.93067813e-02
5.13279662e-02
2.22022310e-02
-1.00958627e-02
2.80511193e-02
-4.93697114e-02
-5.84905269e-04
-9.48790535e-02
4.03891541e-02
-5.79760186e-02
-8.65456089e-02
-6.65715933e-02
-8.69640410e-02
-7.92170092e-02
-3.32916491e-02
-8.91061723e-02
-9.74993482e-02
-1.08207818e-02
-8.53193849e-02
1.65122859e-02
-4.78505753e-02
-6.19718172e-02
-9.39753950e-02
-6.48142099e-02
-4.17259485e-02
2.28852257e-02
-2.44080313e-02
1.18654154e-01
-1.45261129e-02
-1.54665103e-02
4.91290949e-02
-2.13487282e-01
7.61013180e-02
1.28858283e-01
-1.39432177e-01
1.47128493e-01
5.32470969e-03
1.02334440e-01
-1.49215147e-01
-6.33851886e-02
-1.64205041e-02
1.06749661e-01
-4.70725074e-03
-1.08710319e-01
-9.62717533e-02
-5.45537695e-02
7.35415220e-02
-1.43722191e-01
8.38310272e-02
1.58916235e-01
-6.59207106e-02
-8.88672993e-02
-9.65643376e-02
2.69425303e-01
-8.29418451e-02
9.61736888e-02
2.18371605e-03
-9.82156917e-02
7.55623132e-02
-8.94229263e-02
8.55854079e-02
-2.87956954e-03
-7.13992193e-02
-5.31672910e-02
-3.72559540e-02
3.55879101e-03
-3.34263705e-02
3.66637483e-02
9.20485780e-02
3.57003883e-02
8.67202058e-02
-6.50464892e-02
1.90686216e-04
1.33384645e-01
5.57316840e-02
-5.28003238e-02
-2.35871766e-02
-2.03926638e-02
-2.69275039e-01
-4.65900935e-02
-5.89775406e-02
1.51124865e-01
-3.65350693e-02
3.82804610e-02
2.81098545e-01
-1.50582030e-01
1.08415997e-02
-3.88748036e-03
-3.84854898e-02
1.04586042e-01
6.68811873e-02
-2.16748193e-02
7.92426467e-02
7.57057965e-02
-2.91918784e-01
1.59702763e-01
-2.80638633e-04
6.16084449e-02
2.19818782e-02
-1.24817556e-02
-2.88674831e-02
-4.20132652e-02
1.51416108e-01
-6.61955476e-02
5.80657683e-02
-1.22670427e-01
8.15760121e-02
7.71488026e-02
1.47311613e-01
-6.56186491e-02
-5.96275106e-02
7.90794641e-02
5.28414175e-02
7.77595714e-02
6.46111220e-02
-1.62410006e-01
-9.27808359e-02
1.22131296e-01
1.16993368e-01
1.65987626e-01
-1.57116652e-02
2.57357985e-01
-1.37714833e-01
3.75366770e-02
-6.38727797e-05
1.86986662e-02
1.20065920e-01
-5.40245362e-02
7.94110149e-02
-6.36451915e-02
-7.66437128e-02
-5.41062579e-02
-6.49963096e-02
7.19085112e-02
1.68365091e-01
6.18459098e-02
4.36476171e-02
-1.12435393e-01
-5.78119904e-02
1.71260431e-01
8.29425529e-02
6.58825338e-02
-3.81337181e-02
-1.70980856e-01
1.83185264e-02
7.08397776e-02
-2.09460154e-01
2.44901348e-02
9.51512605e-02
2.96167303e-02
-3.55367661e-02
2.51609594e-01
8.67351368e-02
1.83375761e-01
1.27520010e-01
-3.75142843e-02
-4.33682315e-02
1.63571268e-01
1.69993471e-02
1.45712674e-01
9.35523286e-02
-6.29024021e-03
2.62644384e-02
5.51085658e-02
2.22863583e-03
-1.49602219e-01
-2.22718716e-02
-6.33798018e-02
1.95691764e-01
4.97774109e-02
-1.84151977e-01
1.08299583e-01
-7.21764043e-02
-7.85204545e-02
-9.76011753e-02
1.77962050e-01
8.73456802e-03
-1.55495018e-01
4.57584523e-02
-1.06758185e-01
3.18503752e-03
-2.07205668e-01
9.00532976e-02
8.01717564e-02
6.70093969e-02
8.50935727e-02
-8.86510238e-02
-3.36503908e-02
9.77828875e-02
-4.50502746e-02
4.45752442e-02
-6.87847733e-02
3.41520458e-02
-1.63256153e-02
2.78137147e-01
4.14120667e-02
7.80261531e-02
-3.35527435e-02
1.59798954e-02
8.49734154e-03
-1.16280122e-02
5.27206436e-02
2.23493651e-02
-1.97548151e-01
1.33960443e-02
-5.51592484e-02
1.83318377e-01
-1.61805809e-01
