-8.47334042e-02
-7.22889528e-02
-1.94740221e-01
1.63574666e-01
-5.96055910e-02
-5.39043956e-02
1.61664844e-01
-1.59352705e-01
-1.30452543e-01
-1.14750735e-01
-1.10086247e-01
1.36384398e-01
5.41095659e-02
-1.46383187e-02
1.34399891e-01
-2.49474317e-01
-1.87535007e-02
4.01918106e-02
-2.21678808e-01
-2.35732481e-01
-1.41504645e-01
-2.34268203e-01
2.13270425e-03
1.47689342e-01
-2.36405924e-01
-1.07497327e-01
3.37806530e-02
-4.84469198e-02
1.12357110e-01
1.31174013e-01
-1.00142121e-01
-1.53531894e-01
-2.63829321e-01
-2.72755146e-01
7.05768168e-02
7.69413710e-02
1.43431276e-01
-1.98329184e-02
-2.16715381e-01
1.37858465e-01
5.93228601e-02
-1.47611991e-01
3.79375815e-02
8.20557475e-02
-3.66544761e-02
-6.86831996e-02
-1.51324362e-01
-1.27641201e-01
9.43364426e-02
7.23475590e-02
-1.21211059e-01
-2.39253938e-01
-1.73434019e-01
-8.04008022e-02
-1.45110130e-01
2.11686999e-01
-1.16982631e-01
-1.85701504e-01
1.22576021e-02
8.15187991e-02
1.03955790e-01
1.66655943e-01
1.45783573e-01
1.37099400e-01
-3.19427587e-02
-2.31845342e-02
-2.05132872e-01
-2.04582632e-01
-1.80917978e-02
-1.99171424e-01
1.01837879e-02
-2.79433676e-03
-6.56139478e-02
-9.08257291e-02
-1.05916440e-01
-4.57218960e-02
1.08189434e-01
-5.37257828e-02
-2.11587306e-02
-1.47410840e-01
4.25774157e-02
-1.44393697e-01
-1.00519203e-01
-1.45073473e-01
1.45449862e-01
1.27865285e-01
-2.54052486e-02
-2.43118167e-01
-2.93413624e-02
1.42698929e-01
1.26490280e-01
9.17352885e-02
-7.48068169e-02
1.20798387e-01
6.86620623e-02
-1.63607702e-01
-1.04351509e-02
3.84635776e-02
1.58077225e-01
-8.59395117e-02
-1.76091745e-01
-2.90649999e-02
1.60915390e-01
-9.16376989e-03
-1.80623218e-01
1.71952069e-01
1.08209908e-01
1.93507895e-02
-2.88149923e-01
-1.57133359e-02
-1.59018829e-01
-2.27523878e-01
8.69754180e-02
-5.01696356e-02
1.78267479e-01
-1.50871754e-01
9.22498703e-02
-4.33988236e-02
1.81130022e-01
-2.91984938e-02
-1.63263097e-01
-2.02215789e-03
-5.24220569e-03
1.01828508e-01
-1.15617350e-01
-1.62875399e-01
-2.32465908e-01
-2.62948722e-01
-6.34359643e-02
-1.58321679e-01
-1.43147290e-01
1.23553067e-01
5.71156777e-02
-9.00421292e-02
-6.17226548e-02
2.04669847e-03
-8.43142942e-02
2.32329275e-02
7.35897720e-02
2.22610369e-01
-4.92499545e-02
1.00407796e-02
-6.69999123e-02
-2.44879559e-01
-1.32431760e-01
-4.30632010e-02
1.03945844e-01
-1.03059538e-01
1.31846756e-01
-3.02503288e-01
-2.01658055e-01
-1.03005923e-01
7.58365691e-02
8.53711814e-02
-4.52642925e-02
-1.01906784e-01
1.27862766e-01
-1.31285056e-01
1.42176095e-02
4.93415594e-02
-3.16665411e-01
-1.77135006e-01
-3.62031423e-02
2.52476521e-02
-3.34304720e-02
-1.33152530e-01
-5.21620922e-02
-7.19612688e-02
2.35374458e-02
-1.40983015e-01
-1.60041675e-01
1.26521483e-01
2.35681273e-02
1.74441069e-01
1.74542040e-01
-1.14963047e-01
-3.92956622e-02
-1.61647812e-01
1.96261972e-01
1.53462321e-01
-8.39200169e-02
1.50416372e-02
-2.81737298e-02
-2.25987688e-01
1.73822582e-01
8.34014714e-02
-3.14616710e-02
-1.78301185e-01
9.85770971e-02
1.10881731e-01
-2.00835705e-01
5.22886664e-02
-3.51372585e-02
-9.08261389e-02
-1.11016221e-01
-4.62896982e-03
-6.81230575e-02
3.02497372e-02
-6.16942793e-02
-1.29377469e-01
6.68263435e-02
1.45989824e-02
9.42425877e-02
-2.62115568e-01
-5.36369979e-02
-2.91050673e-01
3.92556749e-03
-1.55756414e-01
-2.23881495e-03
-1.01484396e-01
-1.32170290e-01
1.82533056e-01
-1.69322506e-01
-6.29169643e-02
-1.84659779e-01
-2.47923180e-01
1.48167104e-01
-5.71960816e-04
-2.15664372e-01
-1.45520112e-02
1.97045967e-01
-3.68734628e-01
-1.81333691e-01
-1.08669937e-01
9.69723612e-02
1.23176150e-01
-2.37169191e-02
-1.56016022e-01
1.11488976e-01
6.22082688e-02
-4.80779912e-03
-1.70755517e-02
3.30515380e-04
9.51228663e-02
5.40438890e-02
-6.92440942e-02
-9.89360735e-02
4.11022156e-02
5.48123606e-02
7.80556276e-02
-7.71701410e-02
8.27494562e-02
-2.85188317e-01
1.48315370e-01
1.26263469e-01
8.07750821e-02
-1.01433173e-01
-1.98967338e-01
-8.75174478e-02
5.25423437e-02
2.06164904e-02
-6.79753497e-02
8.18430167e-03
9.56573486e-02
5.21038249e-02
-1.65484473e-01
-2.67071754e-01
6.19759113e-02
1.96254745e-01
-2.32541472e-01
7.72169158e-02
5.87521121e-02
4.04092297e-02
1.36835158e-01
1.13033652e-02
-1.40421642e-02
-1.71087310e-01
7.29042441e-02
8.35288374e-04
1.13287687e-01
-1.65203124e-01
5.20048384e-03
-9.10703186e-03
7.06410483e-02
1.88814506e-01
-1.16549246e-01
1.35451436e-01
-9.90693048e-02
3.32210101e-02
-1.59519017e-01
-1.86669439e-01
-2.43794564e-02
2.00087149e-02
-3.18306237e-02
-2.36543357e-01
-6.03196509e-02
4.20765951e-02
7.93502852e-03
-1.20355338e-02
6.14140183e-02
1.19238243e-01
-2.98343077e-02
-2.45658249e-01
2.98108552e-02
1.88203231e-02
4.92454506e-02
2.11961847e-02
-1.41936496e-01
-3.36277664e-01
-2.11152285e-01
1.13427222e-01
-1.14551149e-01
-2.35295650e-02
-2.52717078e-01
-1.21650316e-01
1.86583087e-01
-6.41070232e-02
5.37446886e-02
-2.95496851e-01
4.30653095e-02
-1.02341786e-01
-8.57782066e-02
-2.05120355e-01
4.32086503e-03
-1.34644166e-01
2.40896180e-01
-2.10069809e-02
-2.55747616e-01
-3.21272723e-02
-1.21352747e-01
-1.05492443e-01
2.11378047e-03
8.86023939e-02
1.44495368e-02
-7.78132156e-02
8.42954218e-02
8.46368819e-02
2.67033968e-02
2.54145060e-02
-8.27579480e-03
-1.67915508e-01
-2.98154615e-02
-1.84162229e-01
-8.54816437e-02
1.58375040e-01
1.17720306e-01
-9.22521669e-03
-9.31868926e-02
-1.35550469e-01
-4.97172065e-02
3.21605466e-02
1.86433658e-01
3.67968110e-03
1.67623416e-01
1.51028112e-01
-1.45539045e-01
-1.71203867e-01
-1.32017389e-01
-1.29993916e-01
-1.78719059e-01
2.54473716e-01
-3.60682383e-02
-7.03805760e-02
1.27551123e-01
3.70934792e-02
-7.76533829e-03
1.28171640e-02
5.85275069e-02
-2.94344902e-01
-1.66570231e-01
2.04043351e-02
-1.33994326e-01
2.39807856e-03
8.05778131e-02
-2.54535943e-01
-1.82962656e-01
-2.02508494e-01
1.87183857e-01
7.30768070e-02
-2.79087238e-02
-1.61589831e-01
-2.09326465e-02
1.11453563e-01
-1.23488896e-01
1.12706639e-01
-3.24030817e-02
-2.14501873e-01
9.61878002e-02
7.42923170e-02
-1.48004163e-02
7.93478638e-02
-1.22572832e-01
1.71724651e-02
-5.11658341e-02
7.55877793e-02
-1.41385168e-01
-2.46698204e-02
-1.01954602e-01
-3.86981517e-01
-3.13238725e-02
-1.01383790e-01
-1.42266452e-01
7.40703642e-02
-8.30277354e-02
8.02922621e-02
-1.24815188e-01
1.45251662e-01
8.42681080e-02
1.52899265e-01
-6.95037469e-02
-2.47389510e-01
-8.40675011e-02
-2.01039568e-01
5.09256050e-02
1.58152729e-01
-2.51332760e-01
-7.24665299e-02
2.06565857e-01
-2.99433321e-01
-1.63255949e-02
-1.52697470e-02
3.92805748e-02
-1.70219958e-01
-7.63038322e-02
-6.69040164e-05
-1.52598828e-01
-2.79262930e-01
1.00232780e-01
1.02753229e-01
7.87038635e-03
9.42327157e-02
-2.70263612e-01
-1.29277855e-01
2.03594357e-01
-1.62673458e-01
2.76143607e-02
-2.04613924e-01
-4.33250628e-02
-1.47945145e-02
-5.91298938e-02
-3.25169116e-02
3.00202873e-02
-6.10606745e-02
-2.98993915e-01
-8.70733485e-02
-1.30251035e-01
1.13209919e-03
-6.57167956e-02
1.27917200e-01
1.99729055e-02
-3.52719463e-02
1.25627607e-01
-1.31122872e-01
-1.01651447e-02
2.44705174e-02
-1.58851847e-01
1.23757541e-01
1.17037326e-01
-8.24835598e-02
-1.11376561e-01
-2.11917192e-01
8.62317532e-02
1.48780912e-01
1.11174867e-01
-8.17365944e-02
-2.00668707e-01
-6.45824568e-03
8.03954527e-03
-6.26758933e-02
-1.62439868e-01
-1.63019106e-01
7.76188821e-02
-2.67646611e-01
1.56494334e-01
7.92742744e-02
-2.58611166e-03
4.88839671e-03
-2.41627336e-01
-9.52986032e-02
1.08599693e-01
1.72624797e-01
-2.59923697e-01
-1.07068293e-01
1.59173921e-01
1.23198934e-01
4.62518223e-02
2.44920477e-02
-8.05783868e-02
2.45926203e-03
-1.40634894e-01
2.13438850e-02
1.75220326e-01
-2.27352127e-01
5.12891375e-02
-1.23974912e-01
1.94429141e-02
9.25104469e-02
9.03331712e-02
1.65795967e-01
2.08258629e-01
9.70955417e-02
-1.59934029e-01
-6.24344088e-02
4.48224619e-02
8.19776207e-02
-3.38990718e-01
5.68706915e-02
-4.61009443e-02
1.17090940e-01
-6.23069052e-03
-4.55557108e-02
5.44266142e-02
-2.17280537e-01
2.44804919e-01
1.27343655e-01
5.91158941e-02
1.49716169e-03
-1.77900523e-01
1.85858887e-02
-2.43378490e-01
-2.81681120e-01
-1.29184663e-01
5.70773743e-02
-1.23278648e-01
1.61367759e-01
-3.46236140e-01
9.74535644e-02
1.15153275e-01
-1.36172578e-01
1.87627867e-01
6.73341155e-02
-2.98525728e-02
8.85003526e-03
-3.82842124e-01
1.72999486e-01
1.54841200e-01
-4.66498919e-02
-2.05603853e-01
-2.03394651e-01
4.82429750e-02
-6.57216907e-02
7.94466287e-02
2.22490299e-02
-3.04529190e-01
1.23575233e-01
2.13597789e-02
-8.72305259e-02
-1.72983795e-01
9.99408364e-02
4.37492840e-02
-1.87285673e-02
1.25067636e-01
-6.20824806e-02
-4.12201025e-02
1.00225143e-01
-1.14939632e-02
-1.25396654e-01
1.34303495e-01
-8.30591395e-02
-9.03119594e-02
-1.14602678e-01
-3.41271698e-01
-1.55299127e-01
-2.45123029e-01
1.21887535e-01
1.82845369e-01
-1.44995227e-01
-1.15370423e-01
1.35476008e-01
4.63051908e-02
6.74339011e-02
8.81574117e-03
-2.85687834e-01
1.56355917e-01
1.20068714e-01
-7.06009790e-02
7.63018206e-02
7.46686757e-02
-3.22379693e-02
-6.66745454e-02
-2.84777321e-02
-2.00492844e-01
-3.70629169e-02
2.03890745e-02
4.92552184e-02
1.86297689e-02
-2.13619485e-01
-6.69182092e-02
-3.24014239e-02
1.74847934e-02
-2.13487484e-02
1.92750767e-01
1.40614942e-01
1.12796500e-01
-1.20472074e-01
-6.72373623e-02
9.56756696e-02
-4.35879007e-02
-1.14743665e-01
-1.25585675e-01
-2.46137455e-01
8.15060958e-02
-5.25084231e-03
-1.07195675e-01
1.94496021e-01
-4.76496071e-02
-9.92527902e-02
2.19499264e-02
7.49967620e-02
-9.25710890e-03
3.54426987e-02
-3.68912488e-01
6.72693551e-02
-5.71991913e-02
-2.31289208e-01
-9.81905088e-02
-2.34094396e-01
-5.99079989e-02
4.91277166e-02
-1.62959754e-01
-2.95964748e-01
-2.29755025e-02
1.42048985e-01
1.94599956e-01
5.23954704e-02
-3.75289284e-02
1.37103619e-02
-4.69948612e-02
1.63460582e-01
6.97394041e-03
6.22659326e-02
-1.65209368e-01
-6.17735162e-02
-2.71976031e-02
3.45623344e-02
1.84552088e-01
-2.78011888e-01
-2.78458625e-01
-8.37390497e-02
-9.93182957e-02
1.49961650e-01
-1.86931685e-01
1.24100372e-01
5.61671965e-02
-8.62394199e-02
1.39831409e-01
1.12471767e-01
-6.52267784e-02
-1.39395624e-01
-1.49895092e-02
